nep4 2 H C 
cutoff 6 4 16 16
n_max 4 4
basis_size 8 8
l_max 4 2 1
ANN 10 0
 -2.2333417e+00
 -1.4022972e-05
  2.7316537e-01
  3.5052676e-06
  1.6026908e-05
  6.4909708e-01
 -3.6025983e-01
  7.4512714e-01
 -1.9571458e-07
 -4.2245813e-07
 -8.8474470e-01
 -7.4156858e-03
  4.1426292e-01
 -2.7720898e-07
 -2.5470524e-06
 -2.2649081e-01
  3.7505230e-05
  2.1132107e-01
 -3.3570009e-06
 -3.6454917e-06
 -1.1692557e-02
  1.1731050e+00
  7.7810842e-01
 -1.7954069e-06
  3.6858421e-07
 -9.8519377e-02
  1.1856425e-02
  2.8001651e-01
 -1.4241314e-07
  1.6338927e-06
  4.0105635e-05
  6.9202692e-06
  4.0682553e-05
 -2.7957236e-07
 -2.0098139e-06
  1.9428353e-06
 -7.6088355e-07
  4.7884311e-07
 -9.5937060e-07
 -1.9520539e-06
  1.5010230e-06
  1.2433866e-06
 -7.9438496e-06
 -1.2634264e-06
 -3.6699663e-07
 -2.3751500e-06
  6.7833690e-07
 -9.2611083e-07
  9.2532591e-06
 -1.6878390e-05
  4.4994783e-07
 -1.4140484e-06
 -1.0071727e-05
 -1.7071757e-06
 -7.3440805e-07
 -2.2524056e-07
 -1.5949865e-06
 -3.4652788e-07
 -8.6146865e-06
 -2.3589810e-06
 -1.8375499e-06
  1.9034059e-07
  1.8014264e-07
  6.4481483e-06
 -9.3874462e-07
  1.5525457e-06
  2.5863653e-06
  3.3755498e-06
  1.0763292e-06
  1.9045387e-09
  1.0231493e+00
 -1.1347890e-05
 -1.6563765e-05
  1.4659860e-06
 -2.0345510e-07
 -7.0617378e-02
  1.1204243e-01
 -2.0909466e-01
 -1.7001993e-06
 -4.8695250e-07
  2.8236333e-01
  2.6011389e-06
 -2.3254666e-01
  2.6857472e-07
  4.2007932e-06
  7.7462568e-07
 -1.6165115e-05
  1.8265449e-07
  5.9638603e-07
  3.9282051e-07
  1.5954312e-05
 -5.2297229e-01
 -3.0276385e-01
  3.3515264e-06
  1.1777101e-06
  5.9494465e-03
  3.9736332e-08
 -1.1987426e-01
  3.0795916e-06
  6.1040046e-06
 -9.4743509e-06
  9.7494217e-07
  1.3988010e-06
  1.4195050e-06
 -6.3163804e-07
  7.7568704e-01
 -3.4448659e-01
 -1.3957129e-05
 -1.7189825e-06
 -4.6440313e-08
 -7.1944058e-01
  1.7010329e-05
 -7.8789704e-02
  1.1700897e-06
  5.3838403e-06
 -6.5052845e-02
  6.7780911e-06
 -1.0758813e-01
  9.8950750e-08
  3.2595544e-06
 -1.1042263e-05
  1.8345364e-07
 -5.1331490e-06
  9.4315078e-07
  9.3430106e-07
  1.1044097e-01
 -3.3936632e-01
 -2.6764098e-01
 -9.9563579e-07
 -2.1345916e-06
 -1.2581494e-05
 -1.0576132e-05
 -1.0072662e-01
  3.1443662e-07
 -1.3700659e-07
 -2.8964971e-06
  7.4633778e-07
 -1.1149935e-05
  3.9995552e-06
 -1.0035099e-07
 -4.1215174e-02
 -3.5849163e-05
  1.7678267e-06
  3.6426346e-07
 -1.6903439e-06
 -1.5219350e-01
  1.7301447e-05
 -2.4199833e-06
  9.1330679e-07
  1.0508131e-08
 -9.2614084e-02
 -1.6527452e-05
  6.4139221e-07
 -2.8810421e-06
 -3.5510823e-08
  3.3481981e-06
 -8.3695168e-06
 -1.1991805e-05
  1.2099139e-06
  1.0067272e-06
  4.1861128e-07
 -1.8758337e-03
  4.6102509e-06
 -2.2447236e-07
 -1.7244631e-06
  1.0763096e-06
  3.1318345e-07
  4.3168180e-07
  4.3054669e-07
  8.9795418e-07
 -4.7591294e-07
  6.7547268e-07
 -1.2739115e-05
  8.0326845e-07
 -5.8409704e-08
 -1.7459530e-06
  5.0062108e-06
  3.0087676e-07
 -7.1817155e-08
  2.6344563e-07
  5.5708324e-06
 -2.9355067e-06
  1.5025438e-07
  3.4303914e-06
  7.6325623e-06
  1.3512613e-05
 -1.1080418e-06
 -4.4133799e-07
  3.1885770e-06
  4.2354004e-06
  1.1274710e-06
 -2.3707707e-06
  9.9032184e-07
 -5.8025302e-07
  8.7098306e-07
  2.0558641e-06
  1.0751769e-06
  1.9155907e-06
  2.2081454e-06
 -1.2804639e-06
 -3.8897696e-07
  5.5770647e-07
 -1.1857401e-06
 -6.6723328e-07
 -5.8373325e-06
  1.5524701e-07
 -5.3397116e-07
 -2.9723461e-07
  3.7884368e-07
 -6.6451116e-06
 -5.1119540e-02
  1.4393351e-07
  5.7824980e-02
  1.5342303e-06
  8.6580798e-07
  8.0855244e-01
 -1.9706739e-01
  2.7328116e-01
 -1.0904540e-06
 -1.2551914e-06
  9.5159501e-02
  6.5411059e-03
  6.6840637e-01
 -1.1696916e-06
 -1.4173936e-05
  1.1062624e-01
  9.5954731e-02
  1.1261598e-06
 -7.9428423e-07
  1.2249002e-05
 -2.4495566e-01
  4.9959159e-01
  4.9850950e-01
  4.2224389e-07
  2.6467628e-06
  6.5494892e-06
  9.7159909e-06
  4.9126402e-01
 -3.1854281e-06
 -5.0846131e-07
  1.0634748e-04
 -7.8278777e-07
  6.4004860e-07
  6.2939682e-07
  6.6934473e-07
  2.9680659e-06
 -2.1568718e-07
  7.2425217e-07
  1.5174754e-06
 -7.9244410e-07
 -3.3805173e-07
 -8.1406606e-06
 -2.4862666e-06
 -3.7090515e-06
 -3.0089049e-07
  5.6711178e-07
  4.6070695e-06
  2.3536630e-07
 -3.4952626e-07
 -7.1686493e-08
 -1.3355547e-07
  2.6672735e-06
 -2.4322293e-07
  4.5005348e-07
  1.3229284e-07
 -9.4973548e-06
  1.5347958e-06
  2.5254815e-07
  2.4205511e-07
  8.9260317e-07
 -7.8072532e-07
 -7.5305246e-07
  5.4420218e-07
 -2.5817164e-06
 -3.9935944e-07
 -2.3148678e-07
 -5.4765349e-07
 -2.5684776e-07
  2.6194707e-06
 -3.6085571e-06
 -2.0392122e-06
 -1.7759155e-06
 -1.8965930e-07
 -1.2034847e-06
 -1.2725317e-07
  2.2325764e-07
 -8.4791537e-07
  1.0538712e-06
 -2.0134032e-06
 -2.5366364e-07
 -4.7456211e-07
 -5.1901634e-07
  1.9298450e-06
 -5.3332525e-07
 -4.0447998e-07
  1.4690968e-06
  1.6656311e-06
  5.7169592e-07
  2.7370172e-06
  2.6627326e-06
 -1.6272958e-06
 -6.5939088e-07
  1.7169771e-07
  2.4207060e-07
 -1.4902007e-06
 -1.1228401e-05
 -1.8652046e-06
 -3.3119754e-08
  9.4959989e-07
 -1.1392423e-06
 -1.7349489e-06
  2.4644785e-06
 -1.3541024e-06
  1.1953962e-07
 -3.5823671e-06
  5.5062389e-01
  3.7173500e-08
 -3.2818791e-06
  3.7088682e-08
  9.8579585e-07
 -3.0092257e-01
  1.5831247e-01
 -8.2858585e-02
  4.4450513e-07
  9.2927863e-08
 -5.1814759e-01
  4.0993850e-06
 -4.4666177e-01
  1.6131315e-06
 -2.7465745e-07
 -1.0155456e-05
 -3.5307073e-04
  2.5132022e-06
  1.7025749e-06
  5.4810528e-07
  2.0036778e-01
 -3.2784754e-01
 -3.7962404e-01
  2.7058081e-07
  2.0108632e-06
 -2.2178821e-05
 -4.7933295e-06
 -1.8447365e-01
 -9.1111576e-07
  5.4792378e-07
  3.5959001e-06
 -8.3642027e-07
 -2.2223576e-06
 -1.9869267e-07
  2.3091891e-06
  3.4145632e-01
 -4.5377459e-07
  1.1913364e-01
 -1.3640657e-01
  7.9531151e-07
  6.5808649e-07
  1.5219495e-01
  2.9089415e-06
  4.1833309e-06
 -3.0028589e-02
  1.7149606e+00
  4.2328566e-07
 -1.1205512e+00
 -7.1273923e-01
 -3.2094112e-01
 -3.4595150e-08
  1.3481660e+00
 -1.0745237e-06
 -3.1414388e-06
 -9.7040081e-01
  8.9486967e-08
 -3.6772996e-01
 -2.8104332e-06
 -6.1850295e-07
 -8.7585877e-06
  3.6830059e-03
  4.5129768e-06
  5.6816162e-07
 -2.3169518e-05
  2.0431182e-01
 -1.2962248e+00
  4.3051618e-01
  5.9082072e-07
  5.9003711e-02
  9.5134731e-03
  5.2710288e-06
 -3.9458257e-01
 -4.2521842e-07
 -8.2914960e-03
  4.1363791e-02
  6.9988412e-03
  1.9350925e-01
 -4.4818810e-07
  3.8226128e-03
  6.8848217e-01
 -3.8325999e-02
  7.1566352e-03
 -8.0536415e-07
  4.5013988e-01
  7.8550121e-03
  1.5284402e-06
  1.3548278e-06
  1.7040738e-06
  1.7491996e-06
  9.9410636e-07
  5.5817918e-07
  1.2877092e-05
 -1.8055731e-06
 -1.3105347e-06
 -9.5702512e-07
 -2.3127877e-06
 -1.9341424e-07
  3.9181591e-06
 -1.3114252e-06
  1.6289512e-06
  1.6778762e-07
 -3.0867507e-06
  2.1643430e-06
  2.6241903e-06
  4.9343964e-07
 -4.0371478e-06
  2.2296343e-05
  1.8225390e-06
 -9.5277898e-07
 -2.0040516e-06
 -1.5305083e-06
  3.9123724e-06
  1.3622881e-06
 -5.0992517e-06
 -1.8897867e-07
  1.6132165e-06
  2.6786640e-07
  4.1057442e-07
  8.9931966e-08
  1.4385757e-06
 -2.3999476e-06
  5.7483783e-07
 -1.0308918e-06
  4.9295745e-06
  4.1637225e-07
 -1.3948635e-06
 -9.9743704e-07
  4.1284628e-07
 -1.2819278e-06
  1.4665571e-06
  3.7182003e-06
 -2.9922822e-07
  1.6154519e-06
  7.7871465e-07
 -3.8253984e-06
 -2.1229800e-06
  1.7874884e-06
 -7.4889736e-06
 -5.6529889e-06
  1.5430071e-05
  1.4848696e-06
 -4.8998515e-07
  1.4212740e-06
 -1.2664055e-06
 -1.0194489e-06
 -1.2208086e-06
 -8.7997375e-07
 -1.0472584e-06
  1.3662774e-06
 -1.3442022e-06
  1.8439066e-07
  1.1297792e-06
 -8.4357794e-07
  3.6984034e-07
 -9.6179872e-07
 -9.1888445e-08
 -4.5497683e-07
 -6.7930887e-06
  1.4653325e-07
  8.4916010e-06
  7.4299334e-07
  3.5188215e-08
 -2.8148733e-07
  4.4446074e-06
  1.6248363e-05
  6.6085067e-07
  7.8290441e-10
 -5.1150448e-07
 -2.5080569e-06
  4.3552132e-07
  1.1604679e-05
  3.7976747e-07
 -3.7474244e-06
  1.1231544e-06
  7.0378371e-07
  2.4337697e-07
  1.1219994e-06
 -1.1209600e-06
 -5.5890114e-06
  1.3943962e-06
 -1.5942154e-06
  2.0569199e-05
  4.1376106e-06
 -1.5795487e-06
 -3.9079612e-05
  9.7643988e-07
 -2.1317055e-06
 -5.2604025e-07
  1.4063273e-06
 -5.4400289e-08
  1.4734345e-06
 -9.6981933e-07
 -3.1361219e-06
 -5.8757878e-06
 -1.4146763e-06
 -1.6458829e-06
  8.9203068e-06
 -6.5513727e-06
  1.8765024e-06
  7.2955652e-07
  6.9594157e-06
  1.0918334e-06
 -1.7652367e-06
  9.1867037e-07
 -9.5966266e-07
 -6.8552663e-07
 -1.1510140e-06
 -1.1374080e-06
  2.7558812e-08
  1.7449347e-06
 -1.2768220e-06
  5.8790545e-07
 -1.4234843e-06
  9.4795337e-07
  1.9504405e-08
  2.7654992e-06
  8.3593777e-06
  7.3113705e-07
 -5.1790471e-06
 -7.6651404e-06
  1.5621883e-05
  5.0405549e-07
  1.7686689e-06
  4.1120330e-07
  8.8443852e-07
 -1.4162080e-06
  2.6878371e-07
  1.3925751e-06
  2.1641247e-06
 -2.5381107e-07
  4.4463241e-06
  1.8934113e+00
 -1.6221579e-06
  1.4048655e-06
 -1.0825937e+00
  2.0387859e-05
 -1.4628675e-05
 -7.0625708e-07
  9.4812704e-06
 -7.1565573e-08
 -5.9855139e-01
 -4.3184727e-06
  2.0671723e-06
 -7.4249446e-01
 -4.4418335e-02
  2.8617549e-01
  3.9167804e-04
 -1.0539794e-07
  3.5603654e-02
  3.7127624e-03
  4.6166070e-02
 -3.3466402e-01
  9.4492475e-07
  1.9176916e-04
  2.1063003e-01
 -1.3241135e-01
  3.2072654e-05
  1.1393051e-06
  9.9584239e-04
 -1.4032253e-06
  7.7327750e-06
  3.6950375e-06
 -9.4882580e-07
  3.3985771e-07
 -9.4373166e-07
 -9.9100214e-07
 -1.8267443e+00
  1.3778900e-06
  1.7079782e-06
  9.3628430e-01
 -1.8786446e-06
  9.7952970e-08
  1.4811345e-06
  5.5010341e-06
 -2.7051135e-06
 -1.9653901e-01
 -5.9439576e-01
  8.1740490e-07
  2.1574461e-01
 -8.9596428e-02
 -1.4846538e-01
  3.1458890e-01
  6.1546939e-07
  3.1889918e-01
 -8.2653241e-06
  1.1085690e-05
  4.5985430e-01
  6.0481161e-06
  5.3418908e-02
 -1.2353007e-01
  1.8836401e-01
  6.6258758e-07
  1.2450857e-06
 -6.9474974e-03
  4.8451261e-06
 -1.0747800e-06
  1.8209779e-06
 -5.2087280e-06
  5.1330894e-06
  3.2265876e-07
 -1.8915281e-06
  1.3347185e-06
 -4.5510939e-07
  1.4742718e-06
 -5.1502398e-06
  1.0698194e-06
 -9.9536396e-07
 -8.9824312e-07
  4.7689150e-06
 -5.6174304e-06
 -1.4875263e-06
  9.4729548e-06
  1.4908843e-06
 -5.1982079e-06
  7.8943964e-07
 -4.9709070e-07
 -2.4065889e-07
  9.2623299e-07
  2.4407836e-07
  9.8747512e-07
  1.5199756e-06
  1.3873724e-06
 -1.5351564e-07
 -4.5101124e-06
 -1.1773235e-06
 -5.3752143e-07
  5.5796636e-06
 -1.0375011e-06
 -1.3239869e-06
  1.4405197e-07
  5.2076325e-07
  1.5121550e-06
  1.4015770e-06
 -1.8768391e-06
 -4.6820799e-07
  2.4516217e-07
 -1.8810208e-06
 -1.5598026e-06
  1.3869563e-06
 -6.4701197e-08
  4.2072884e-07
 -4.8787647e-06
 -1.0901024e-06
 -1.3072224e-06
  1.6587663e-06
 -1.4304961e-06
 -4.1155781e-05
  1.7711546e-06
  4.3884782e-07
 -2.4957649e-06
 -1.6844933e-06
  4.7993544e-06
 -1.3777458e-06
 -1.2092693e-06
  9.0675030e-06
 -2.7019956e-07
  1.0290225e-06
  2.0826151e-06
 -7.6108790e-08
 -8.6027967e-07
 -1.4058793e-06
 -5.6075833e-06
  1.3349390e-06
  5.8567866e-07
 -8.6839154e-06
 -8.9662655e-07
 -5.7034788e-07
 -1.0518818e-06
  1.8144949e-06
 -4.5013684e-07
  9.8682938e-07
 -7.7244604e-01
  1.0068973e-06
  2.7735416e-07
  1.1644363e+00
 -3.0423418e-01
  2.3139153e-05
 -2.3366781e-06
  1.1895379e-01
 -1.5238652e-01
  8.3179779e-02
 -7.7802420e-01
 -2.0672796e-05
  1.2474956e-01
 -1.3486487e-01
 -6.1393656e-02
  2.9873416e-01
  1.1316390e-06
  1.5874985e-01
 -1.3126474e-02
 -4.8944005e-01
  1.2111363e+00
 -1.6576423e-06
 -5.2569171e-06
 -1.3313183e+00
  2.7437940e-01
 -2.6643082e-01
 -5.2845326e-06
 -4.7695205e-01
 -7.0209257e-02
  8.8389908e-07
  2.2475155e-07
 -1.3913060e-06
 -7.8455713e-07
  7.0020260e-06
  6.0480561e-02
 -3.8161625e-06
  1.1909412e-06
 -1.5478853e-06
 -1.4634294e-06
 -8.8176745e-01
  4.9082208e-01
  1.7951783e-06
  1.9969164e-06
  3.5245362e-01
 -1.4483868e+00
 -2.1253791e-07
 -5.5579940e-06
  5.0539443e-06
 -2.2247020e-06
 -8.3405834e-01
  1.3032659e+00
  4.6817217e-06
 -3.3919338e-07
  1.9898444e+00
  1.3715528e-06
 -1.3237106e-05
 -7.9696895e-07
 -6.7553941e-07
  1.0999314e-06
  4.7751028e-06
 -1.1900920e-06
  4.1933808e-06
  3.8701965e-06
 -5.9780355e-08
  8.7626563e-07
 -7.0750991e-07
  1.4351961e-06
  7.9349394e-07
  4.2739725e-06
  4.0647969e-06
  1.8237481e-06
  1.3854979e-06
 -3.1976214e-07
 -9.2814099e-07
 -1.5018730e-06
 -9.1618194e-06
 -9.9934925e-07
  7.5380493e-09
 -1.7903162e-08
  5.4900170e-07
 -1.0077109e-06
  1.0896490e-06
  1.4878432e-06
 -2.6677435e-06
 -1.3679580e-06
  6.0026571e-07
 -7.0052550e-07
 -2.1480678e-06
 -1.5152232e-06
 -3.9192895e-07
 -1.8409467e-06
  1.3812985e-06
 -9.5678911e-07
  3.5304427e-07
 -1.7670335e-06
  1.1369327e-06
 -6.6103337e-07
 -9.5157848e-06
  1.6740011e-06
 -8.6752416e-06
 -1.6355476e-06
  3.4522441e-07
  2.8560250e-06
 -1.2840392e-06
  1.4902097e-06
 -1.3242272e-06
  1.0735267e-05
 -6.8071654e-07
 -1.7512122e-05
 -2.6624386e-05
  1.6377451e-06
  4.2277884e-06
 -1.3294518e-06
  2.8104050e-06
 -2.6114770e-07
  1.2301498e-06
  3.8669282e-06
 -6.5528650e-07
  1.3733631e-07
 -3.7288044e-06
 -7.2084805e-07
  3.9706765e-06
 -1.7820074e-06
  1.6042080e-06
  1.6836914e-06
  3.0650860e-01
  4.4223852e-06
 -1.7492285e-06
  1.0028238e-05
  9.3067074e-06
 -1.1449448e-05
  5.7529555e-06
 -1.8488219e-05
 -2.0614867e-07
 -2.2722738e-06
  5.7352064e-08
 -1.8386689e-06
 -1.0222259e-06
 -1.7974185e-07
  1.2294880e-06
  6.3258904e-06
  1.2554463e-06
 -5.1195393e-06
 -3.3505216e-07
 -1.1615221e-06
 -2.2754759e-05
 -1.2373267e-06
  1.1359111e-05
  6.3682569e-06
  1.1097484e-06
  1.3413331e-06
 -4.7318431e-07
  4.9738128e-06
 -2.9441040e-08
  1.3383575e-06
  4.6056489e-06
  1.2978138e-05
 -2.5443994e-06
 -1.1915490e-06
  8.4815912e-07
  2.4596274e-02
  7.2649712e-08
 -7.5709227e-07
 -6.1737245e-07
  9.1740219e-08
  1.5050462e-06
 -4.8319748e-07
 -1.5328078e-06
  1.5243968e-06
 -1.3188195e-06
  5.0751501e-06
  3.1185691e-06
  1.3298018e-07
 -8.9593777e-07
  9.7743361e-07
 -1.6070467e-06
 -6.3354395e-07
 -5.7137468e-06
 -1.7801278e-06
  4.7289359e-06
  1.0986005e-06
 -1.3608060e-06
  2.0905654e-06
  2.1635977e-07
 -1.5327206e-06
  3.4866121e-06
  1.9086401e-07
  1.4987613e-06
  5.6078520e-06
  7.4334332e-07
  7.2037637e-06
  1.2727583e-07
  4.8548986e-06
  3.4042987e-05
  6.9054494e-07
 -3.4823367e-01
  1.8157233e-06
 -5.7777790e-03
  5.4268580e-06
 -1.7696079e-06
 -1.5236465e-06
  3.3424021e-06
 -1.3091577e-05
 -5.2364330e-06
  1.1763838e-06
  1.9051310e-01
 -5.5576203e-07
  3.6364104e-06
  2.5895292e-07
 -1.7205067e-06
  1.5734637e-05
  3.2681012e-06
 -1.7893271e-06
  6.4730904e-07
  1.9279652e-07
 -2.0267340e-05
 -1.5733108e-06
 -4.9442851e-06
  6.0321649e-06
  1.7030748e-06
  4.7165895e-06
  9.9378315e-07
 -6.5066529e-06
 -3.0504418e-05
 -7.4047131e-07
 -3.4110008e-07
 -8.9228308e-07
 -5.3151086e-07
 -7.5121017e-07
  7.5041783e-07
 -1.1740904e+00
  1.1825695e-06
  1.5227577e-06
 -1.1038860e-06
 -1.6746520e-06
 -7.5562969e-07
  1.3575509e-06
 -5.1408333e-06
  1.3346756e-06
  1.3895989e-06
 -9.2977862e-06
 -4.7423659e-06
 -1.1877802e-05
  1.3188944e-06
  2.4324220e-06
 -7.9286938e-06
  1.7522636e-05
 -7.0184883e-06
 -4.3829044e-07
  1.2710756e-06
 -2.3741500e-06
 -2.0680034e-06
 -7.2704643e-07
  1.2875185e-07
 -2.2316016e-07
  4.3979812e-06
  2.5764209e-08
 -9.5036912e-06
  1.3277034e-07
  4.4917306e-06
 -2.5261224e-07
 -3.2780434e-07
 -1.1399134e-06
  4.1872850e-06
  3.8222430e-07
  1.3663073e-06
 -3.1489872e-06
 -1.9204904e-07
 -8.1423177e-06
  6.9503549e-06
 -7.2216199e-07
 -1.2884070e-06
 -9.1223420e-09
  1.2637322e-06
  1.4606284e-05
 -1.1467395e-06
  2.1849514e-06
 -1.4758540e-06
 -1.3286456e-06
 -1.3041555e-05
 -7.0269891e-07
  9.4561265e-06
  1.0494443e-06
  1.6432546e-06
 -6.3719813e-07
  1.6687346e-06
 -9.3704466e-06
 -1.7717236e-06
  9.8052249e-07
  5.1249681e-06
 -7.7015466e-07
 -1.0306311e-06
  1.7133719e-06
 -4.8871226e-07
  1.4193078e-06
  8.0405283e-07
 -1.3253560e-06
 -3.6230426e-07
  1.5388011e-06
  4.1616534e-07
 -2.0590371e-01
  1.2873071e-05
 -1.2701170e-06
  7.6858731e-07
 -6.8102822e-06
  2.3520231e-07
  1.3788081e-06
 -1.6319932e-06
  1.8353418e-06
  1.1127856e-06
  7.6362185e-06
  9.4816269e-06
  3.2138573e-08
  3.3065846e-06
 -1.3515184e-06
  4.6006435e-06
  1.2770457e-06
 -5.2119726e-06
 -1.4022946e-06
  1.5889480e-06
  7.9441588e-06
 -2.1898330e-07
 -4.8572688e-06
 -9.9964564e-07
 -1.3708826e-06
 -7.8327656e-07
  1.2268322e-06
  1.8557605e-06
 -6.3205329e-07
  1.8207503e-06
  9.0562867e-07
 -1.5864806e-06
 -1.3431634e-06
  4.8081074e-06
 -1.3337317e-06
 -5.6308347e-01
  1.3199632e-06
  7.8121548e-06
  1.4212877e-06
  4.1574515e-07
  1.9881954e-05
 -1.4592888e-06
 -1.3319197e-07
  1.3548257e-07
  3.7561458e-07
 -1.8052016e-06
  1.4602598e-06
  5.4599072e-06
  1.3193018e-06
  1.9132712e-07
 -9.9269801e-06
 -5.1979664e-06
 -1.7005955e-06
 -9.7765087e-07
  1.2595444e-07
 -4.2959027e-06
 -5.4586858e-06
 -3.5279097e-06
 -1.0171614e-06
  5.2578821e-06
  4.9941414e-06
  1.4926025e-07
 -4.2378558e-09
  1.8342436e-06
  6.5147972e-08
  2.0157561e-06
 -8.9508626e-07
 -1.2233596e-05
 -3.1340637e-06
 -2.4944728e-07
 -1.6737865e-06
 -7.4379983e-07
 -4.0364370e-08
 -5.7238781e-06
  4.8307975e-06
  1.8697255e-06
 -9.2284035e-06
  7.1834700e-07
 -3.7967779e-06
  4.5961605e-07
 -1.2468302e-06
  6.3898494e-07
 -7.3317483e-07
  2.6374678e-07
  8.7556418e-06
  4.1453589e-07
 -1.6711307e-05
 -1.1122542e-06
  1.6658439e-06
 -1.3621136e-06
 -1.1660222e-06
  3.7178229e-06
 -3.9585032e-07
  4.0883679e-06
  1.8891725e-06
 -1.2991892e-06
  5.8752642e-07
  2.9758976e-07
  8.1409971e-06
 -7.4733089e-07
  1.2656118e-06
  4.0163528e-07
  1.4940852e-06
  9.6511280e-07
  3.8423191e-06
  6.5807879e-01
  5.6678819e-06
 -3.0125609e-01
 -1.4020452e-01
  3.3165365e-01
  4.9207994e-01
 -3.3898718e-07
 -1.2760340e+00
  8.8351035e-01
  1.0076369e-01
 -1.3616173e-01
 -1.0254137e-06
  1.7237701e-01
  1.3087730e-01
  4.2129678e-01
 -4.0595436e-01
 -1.7146093e-06
  6.0058975e-01
 -4.0860009e-01
 -5.6033108e-02
  3.2957001e-07
 -2.4863043e-06
  2.7958872e-06
  3.4532166e-06
  3.7314235e-06
 -1.9581544e-06
 -1.7826604e-06
  3.0034623e-06
 -3.5394689e-06
  1.6435879e-06
 -2.4286633e-06
 -3.2673483e-06
 -8.5281999e-07
 -1.9506915e-06
 -3.0149888e-06
  3.5718895e-06
  1.0317915e-05
 -1.3862484e-06
 -8.5404008e-07
 -1.0668222e-06
  2.9204484e-06
  3.6143947e-06
  2.8695638e-06
 -2.2833915e-06
 -2.9338864e-06
  1.0970076e-05
  2.8041186e-06
  2.7150681e-06
  2.2652823e-06
 -2.3379309e-06
 -3.1351265e-06
 -1.3122060e-06
  3.7259833e-06
 -1.0521815e-05
 -3.6921381e-06
 -3.8045712e-06
 -2.0707313e-03
 -2.2590243e-06
 -3.7542723e-06
  1.1951226e-02
  3.1635825e-06
 -1.6486377e-06
 -1.7579707e-06
 -1.2646224e-06
 -1.5569732e-06
 -3.6999950e-04
 -7.5868741e-02
 -8.2742906e-07
 -2.9346499e-01
 -1.3638368e-06
 -6.9776165e-06
 -1.0237793e-05
  5.2299004e-07
  2.8055394e-02
 -2.2548790e-07
  6.1702654e-06
  1.1027849e-01
 -6.9963335e-07
  2.9449158e-03
 -7.4782647e-06
 -2.3451163e-05
 -6.2696017e-07
  1.3761901e-06
 -1.6728411e-06
  1.7928141e-05
  3.6344452e-06
  2.3433313e-07
 -2.1148592e-06
  6.4052933e-06
  1.3311103e-07
  3.5786923e-06
 -3.6523689e-02
  3.2782712e-06
 -2.3982474e-07
 -1.8171780e-01
  1.0929270e-05
  1.6634997e-06
  3.6233700e-06
 -3.6575793e-06
  2.1605647e-06
 -1.1454728e-01
 -2.7817774e-01
 -3.2562925e-06
 -5.7426631e-01
 -1.5116720e-02
 -1.8065586e-07
  3.5960936e-06
  1.3978597e-06
  1.1337445e-01
 -1.4957395e-06
  1.2541275e-02
  7.7792801e-02
 -2.3670723e-06
  3.2555327e-02
 -5.0712888e-06
 -1.1767794e-02
  6.5371296e-07
 -2.2462928e-06
  1.1314246e-05
  8.8876541e-06
  1.1217841e-05
 -1.9121524e-06
 -3.5711910e-06
 -1.1355638e-05
 -3.4013405e-07
 -2.3627781e-06
 -4.7190696e-02
  3.0621097e-06
 -3.3806193e-06
 -1.9448767e-06
  2.7690828e-06
 -1.2699122e-07
 -1.7293642e-06
 -3.7577582e-05
  2.2460772e-06
 -7.7350778e-06
  3.6841257e-06
 -3.1572392e-06
 -1.8999325e-04
 -4.0800307e-05
 -1.3069941e-05
  1.8742503e-06
  8.3735563e-07
  1.6399591e-06
 -1.7430314e-06
  1.8677436e-05
  1.0871915e-04
  5.5282072e-07
 -4.9743417e-06
  2.0946995e-06
  2.5234224e-06
 -8.7196184e-07
  2.2545096e-06
 -1.1008885e-06
 -2.7695860e-06
 -1.0574907e-05
  5.9227085e-07
  1.0008061e-05
 -2.6694895e-06
 -2.6380812e-06
  3.7288339e-06
  2.9108378e-06
  2.2953564e-06
  7.9886476e-08
 -3.8055114e-06
 -2.7558065e-06
 -2.8039451e-06
 -1.0332698e-05
 -1.0427736e-06
 -1.2554270e-06
  1.8034686e-06
 -3.1632508e-06
 -3.6963788e-06
  2.9227333e-06
 -3.3867441e-06
  3.1115176e-06
 -2.3533864e-06
 -1.2283201e-06
 -1.1868483e-06
  1.3397656e-06
  1.2190976e-06
  1.8925288e-05
 -5.5297984e-05
 -3.0753886e-06
  8.8898669e-06
  5.8290898e-06
 -2.4130941e-06
  2.4423032e-06
  3.6025290e-06
 -1.8532337e-05
  2.6468465e-06
  2.8915604e-06
 -6.9815110e-07
 -1.9398456e-06
  1.4764739e-06
 -7.0569934e-07
  3.5656148e-01
 -3.7592536e-06
 -1.0422787e-05
 -2.3265178e-03
 -1.6259448e-06
 -5.1056560e-07
 -9.0534322e-06
 -2.7346778e-07
  1.9740908e-06
  1.0559064e-03
  2.7112278e-06
  2.6322026e-05
  1.5358278e-01
  1.4297680e-06
  4.8981752e-07
  7.2756944e-07
  2.5108454e-06
 -1.7416824e-05
 -3.3930066e-06
  1.7056773e-06
  3.6313434e-06
  2.5919499e-06
 -5.3623160e-05
  9.9980589e-06
  1.0946426e-05
 -1.0795236e-05
  3.7822003e-06
 -2.3143741e-06
  3.4343568e-06
 -1.5746278e-06
 -1.9104152e-06
  1.7092938e-07
 -2.2397733e-06
 -1.9263641e-06
 -2.0042403e-06
  2.7319598e-01
 -3.1167970e-06
 -1.5287877e-06
 -2.3095907e-01
  5.8638934e-06
  7.8579916e-08
  2.1906519e-06
 -3.5739465e-06
  2.1197191e-06
  3.2632806e-06
  9.4608058e-06
  2.3675921e-06
  9.9185370e-02
  3.0513295e-06
  1.0807726e-05
  2.0671475e-06
  2.5526092e-06
  6.9668799e-06
  1.4590338e-06
  2.5539359e-06
 -5.6259155e-02
  1.8616547e-06
 -1.0437290e-05
  1.6391132e-06
  3.7087430e-06
 -3.0916340e-06
  3.4120953e-06
 -1.4415249e-06
 -1.0081262e-05
 -1.9300064e-06
  1.9082445e-05
  2.6520105e-05
 -3.5736764e-06
  5.3476026e-07
 -1.0633424e-05
 -2.2890219e-06
 -2.4359101e-06
  8.3140931e-06
 -9.1941772e-08
 -3.6440276e-06
  2.5030522e-06
 -2.1521980e-06
 -7.4776381e-07
 -7.5401981e-06
  3.0512474e-06
  1.1286974e-07
  2.2452380e-06
 -3.1108584e-06
  2.2343370e-06
 -1.0785219e-05
 -2.0655109e-06
  9.7809300e-07
  2.9803018e-06
  1.4907178e-06
  1.1608952e-06
 -3.4679731e-06
  6.0126604e-07
  2.0650753e-06
  2.9171524e-06
 -2.4176982e-06
 -1.0122790e-08
 -3.7416683e-06
  2.6588943e-06
  1.6457733e-06
 -3.4028244e-06
  9.4737652e-06
 -1.5599864e-05
  3.2855703e-06
 -3.7733037e-06
  2.8755651e-06
 -7.3443562e-01
  3.5367982e-06
  1.2816463e-07
 -5.8723710e-02
 -2.3690631e-05
 -9.8855335e-06
 -3.3174535e-06
 -1.9042804e-05
  2.4512196e-06
  1.2140607e-01
  3.1542903e-01
 -8.0846257e-06
  6.5832722e-01
  3.4090571e-02
  6.7877011e-07
 -1.0601824e-07
 -1.5938510e-06
 -3.0073684e-01
  9.2705727e-07
 -4.4177699e-01
 -3.0274013e-02
  4.5144435e-07
 -8.8917501e-03
  1.5576417e-05
  5.5929937e-05
 -5.9716240e-07
  1.7170784e-06
  4.4771599e-07
  1.3382444e-07
 -2.5625102e-06
  2.5897320e-06
 -8.5984698e-07
 -6.5160975e-07
 -1.2786282e-06
 -2.9843322e-06
 -1.1409318e-05
  1.7852507e-06
 -4.4287910e-07
 -3.5891328e-06
 -7.8301900e-07
  9.8451835e-08
 -1.0122564e-05
 -2.2848183e-06
  1.8519148e-06
 -5.6299723e-07
  1.6089793e-06
 -2.3052769e-06
 -3.5012738e-07
 -2.3818886e-06
  3.7727771e-06
 -9.6295753e-07
 -5.8547533e-07
  2.9992966e-06
 -1.8207262e-05
  3.8043740e-06
  2.3373221e-05
 -1.0763492e-06
  3.4607142e-06
 -3.5358210e-06
  1.4538850e-06
 -2.6121943e-06
 -1.9262609e-06
 -2.7326394e-06
 -1.4234975e-06
  2.5490617e-06
  1.1848555e-06
 -6.2231793e-06
  2.5660484e-06
 -1.5372621e-06
 -1.0971908e-06
  3.6124316e-01
  2.7003735e-01
  8.3498198e-01
  3.7320790e-06
  1.9506913e-01
 -8.4630871e-01
  1.5451071e-05
 -2.5208887e-01
 -3.2460296e-06
  1.5766229e-05
 -5.4153007e-01
 -7.7673995e-01
 -4.1336533e-01
 -2.0141365e-06
  4.0259385e-01
  4.8725471e-01
 -2.5462971e-06
  1.0551158e+00
 -2.5737385e-05
 -1.6342767e+00
 -2.8414416e-01
 -4.1568273e-01
  3.3343616e-07
  3.5512703e-06
 -9.0745866e-01
 -2.1230981e-01
 -7.7408390e-07
  2.8920542e-06
  1.1362034e-01
 -9.2657375e-01
 -9.6326603e-06
 -1.2185577e-06
  1.0297271e-01
  7.2351342e-01
 -9.0363091e-07
  3.0743658e-06
 -2.0996542e+00
 -1.0745547e-01
  1.0179368e-05
  2.7140197e-06
 -8.7814349e-01
 -5.1789826e-01
  2.8035972e-06
  1.7129730e-07
 -1.2047230e+00
 -4.8268265e-01
  2.4303120e-06
  3.1681047e-06
 -9.5000291e-01
 -8.5639030e-01
 -1.8516716e-06
 -2.7859508e-06
 -4.5054525e-01
 -1.4488438e-01
  3.4934476e-06
 -3.3821832e-06
 -1.6042583e-06
 -5.7241559e-06
 -2.6674876e-01
 -7.8314728e-01
 -1.1846851e-06
  2.9761634e-06
 -1.3177966e-01
 -6.8658620e-02
  3.6125966e-06
 -1.8289227e-05
 -4.7646619e-05
 -4.4948038e-01
  1.9406329e-01
 -3.8068906e-06
 -4.1797552e-03
 -1.4537233e-01
 -4.1049582e-08
 -3.0209142e-06
 -1.9576726e+00
 -5.6707227e-01
  1.4761904e-06
 -1.8359546e-05
  7.6370947e-02
 -8.7281322e-01
 -5.0083463e-06
 -4.1944673e-05
 -1.2818483e+00
 -1.5325288e-01
 -1.4146546e-01
  2.7593078e-06
 -3.1886056e-01
 -5.5102551e-01
 -1.4405017e-06
 -3.0755016e-06
 -8.8339275e-01
  3.2532763e-01
 -2.6109310e-06
  6.2400903e-07
  2.9616010e-06
 -2.0185166e-06
 -5.2032959e-07
  2.3079278e-06
 -3.0675508e-06
 -1.9576346e-06
 -1.9669566e-05
  3.1088439e-06
  2.7134206e-08
  3.6432914e-06
 -7.1453387e-01
  1.2451177e-06
  3.4421005e-06
  3.5906310e-06
  9.0005242e-06
 -1.2345819e-06
 -3.4877323e-06
 -2.7221922e-06
  9.1971433e-06
  1.3798040e-06
 -2.2169120e-06
 -1.1820357e-05
 -1.9908858e-02
 -3.2601865e-06
 -2.1717713e-06
  1.3418111e-07
  2.1342823e-02
 -3.3221083e-06
  2.2987476e-07
  2.6721084e-06
  5.5416507e-07
 -7.4061063e-07
 -7.0724198e-08
 -3.7698574e-06
 -1.7792176e-05
  3.5558057e-06
  1.9960237e-06
  9.2160991e-07
 -2.4038750e-06
 -3.4149477e-06
 -9.9818507e-08
 -5.8687687e-07
  3.5055864e-06
  2.5328904e-06
 -2.1722024e-06
  1.6306313e-06
 -3.7414768e-06
 -1.3311263e-06
  1.8000557e-06
 -9.5120470e-07
  2.6163448e-08
 -3.5431128e-06
  2.6730636e-06
  3.0844205e-06
 -2.3588980e-06
 -1.0395854e-07
  3.1426982e-06
  2.9558134e-06
 -3.4694631e-06
 -1.9827883e-06
  2.1910867e-06
  1.9865461e-06
 -2.3348257e-06
  1.7393055e-06
 -2.3726332e-06
 -2.5723859e-06
  6.3926000e-06
  6.8796891e-07
 -3.2844182e-05
 -2.1671331e-06
 -3.6110205e-06
 -8.2448532e-06
  7.0399505e-01
  6.9071299e-01
  2.1061085e-07
  1.6854591e-06
  3.1230391e-03
  2.9605766e-05
 -3.3835574e-06
 -1.7236787e-06
  3.9451510e-07
  3.9345711e-01
  1.1077258e-05
  1.7588872e-06
  2.5608467e-06
  8.0598831e-02
 -2.7129454e-06
  3.3448882e-06
  8.8921154e-01
  4.0301591e-01
 -2.1283142e-06
 -5.7194384e-06
 -3.3656117e-02
  4.0420425e-01
 -3.4960108e-06
 -2.2372510e-07
  2.3022950e-02
  4.9607769e-02
  1.8594768e-06
  3.9699654e-07
  7.8051601e-04
  5.5872595e-01
 -3.5790936e-06
  1.3951184e-06
  1.9066054e-01
 -2.6012671e-01
 -6.4766270e-01
  4.6272507e-01
 -6.1603081e-01
  1.1473797e-02
  6.6330913e-06
 -9.5663026e-02
 -3.6713010e-01
  4.9424474e-05
 -5.5240911e-01
  6.7183995e-01
  5.0477165e-06
 -5.3662783e-03
 -2.9762890e-02
  3.1913337e-01
  4.7455144e-01
  7.4139702e-01
  6.2455094e-01
 -1.5651117e-01
 -1.3771814e+00
 -8.1101473e-04
 -1.4189337e+00
  3.6429086e-01
 -6.7005777e-07
 -2.5225480e-04
  5.7548559e-01
 -4.5250601e-01
  6.1515164e-01
 -8.3864306e-06
 -2.0527713e-01
  1.0050735e+00
 -6.5126896e-01
  1.8854611e-01
 -3.7708452e-01
  1.9172056e+00
 -4.4522494e-01
  3.3165741e-01
 -7.2399265e-01
  5.4033822e-01
  6.9778979e-01
 -2.2020091e-05
 -3.8155221e-04
 -9.7082682e-07
  1.3177370e+00
 -1.6832149e-06
 -1.5094353e-01
  3.2224582e-06
 -2.3010757e-02
 -3.7515154e-06
 -8.3910445e-06
  5.4038090e-01
 -6.6542311e-06
 -3.9635065e-06
 -9.3936634e-01
  2.1463676e-01
  1.2719189e+00
  2.2544488e-01
 -4.7205880e-01
 -5.8010912e-01
  1.1433454e+00
 -3.1291062e-01
  6.8295997e-01
  8.5587603e-01
 -5.8617395e-01
 -6.9572031e-02
 -2.5976533e-01
  5.0951266e-01
 -6.3711241e-02
  1.0769831e+00
 -9.3297333e-01
 -3.2202676e-01
  9.0806652e-03
  4.4444713e-01
 -5.7294255e-01
 -7.5408012e-01
 -1.2406272e-06
 -3.8475578e-06
 -1.3501273e-01
 -5.8956671e-01
  3.3354179e-06
 -4.9642344e-06
 -4.5913808e-02
 -2.9817158e-01
 -5.3494896e-06
  7.4523173e-06
 -6.0568565e-01
  6.4077604e-01
 -4.9859359e-06
  4.0781115e-06
 -9.9096543e-01
 -1.0738422e+00
 -6.7046685e-06
 -4.0947843e-06
  3.7360922e-04
  9.9190837e-03
  7.0782053e-06
 -4.5316228e-06
  5.3567982e-01
  3.2515460e-01
 -5.2391078e-06
  4.2183810e-06
  1.4182693e+00
  1.7480522e+00
 -3.6651986e-06
  1.3187085e-05
  5.3283936e-01
 -1.9283518e+00
  6.9581702e-06
 -7.4286609e-06
 -5.8705054e-06
  3.8526687e-06
 -7.2757471e-01
 -1.9923788e-01
 -7.5118342e-06
 -7.5367102e-06
 -7.2248732e-03
  4.6907726e-06
  5.1530387e-06
 -4.3260948e-06
 -3.5128450e-01
 -4.2802448e-04
 -2.3016423e-06
 -1.7014858e-05
 -2.4934860e-01
 -1.5602146e-01
  6.2058207e-06
  2.9533107e-06
 -3.2488865e-01
  1.3091708e-05
 -5.8617275e-06
  3.1969626e-05
 -1.6824263e+00
 -4.8166144e-01
 -4.5286024e-06
 -5.6336989e-06
  1.6150607e-01
 -5.0553634e-05
  6.0741290e-06
 -2.3811574e-06
 -6.8316049e-06
 -9.3188646e-06
 -6.5062823e-06
  6.3109678e-06
 -1.2447488e+00
 -7.0677215e-01
  4.8001671e-06
  2.4105605e-06
  5.2730554e-01
 -3.2465273e-01
  7.7571707e-07
  4.6613962e-07
  1.6228099e-01
 -9.5399529e-02
 -4.4656936e-06
 -5.9991685e-06
  1.2816370e-01
  1.8126000e-01
  2.4104602e-06
  7.5781973e-06
  5.1478555e-06
  5.5804706e-01
 -1.1774306e-06
  2.3062150e-06
  8.6681342e-01
 -1.3853067e+00
  5.4176071e-06
  1.6375604e-07
  5.0086670e-02
  3.8100412e-01
 -2.7670185e-06
 -7.0320780e-06
  1.5408954e-01
  6.5323550e-01
 -2.2721310e-05
 -4.5712582e-06
  5.2717291e-03
 -2.4033339e-01
  7.4320028e-06
 -5.9408944e-06
  2.8079969e-01
 -1.1380969e+00
  2.3802273e-02
  2.3802273e-02
  2.3802273e-02
  2.3802273e-02
  2.3802273e-02
  1.8994972e-02
  1.8994972e-02
  1.8994972e-02
  1.8994972e-02
  1.8994972e-02
  3.5755593e-02
  3.5755593e-02
  3.5755593e-02
  3.5755593e-02
  3.5755593e-02
  7.4986434e-03
  7.4986434e-03
  7.4986434e-03
  7.4986434e-03
  7.4986434e-03
  1.0126888e-02
  1.0126888e-02
  1.0126888e-02
  1.0126888e-02
  1.0126888e-02
  1.8222984e-02
  1.8222984e-02
  1.8222984e-02
  1.8222984e-02
  1.8222984e-02
  7.7316212e-04
  7.7316212e-04
  7.7316212e-04
  7.7316212e-04
  7.7316212e-04
