nep4 2 H C 
cutoff 6 4 28 28
n_max 6 6
basis_size 10 10
l_max 4 2 1
ANN 10 0
 -1.3701483e-06
  7.7532677e-06
 -1.0890313e-05
 -7.7530894e-05
  1.0374706e-05
  9.4167194e-07
  1.1953341e-06
 -2.0433376e-05
 -1.7977389e-05
  5.3285835e-06
  9.5745634e-08
 -3.8531780e-05
 -5.1879679e-06
 -6.8626684e-07
  2.1365666e-05
 -9.6494350e-06
  6.5318395e-06
  1.4856519e-06
  1.2749510e-05
  1.9288982e-06
 -1.5980861e-05
  3.6056343e-05
  8.3531395e-06
 -2.0654343e-05
 -5.8067617e-06
  4.4622084e-06
  1.2930609e-06
 -4.5111528e-06
 -4.5527181e-06
 -2.9909113e-05
 -6.1802903e-06
  3.6562062e-05
 -9.5683645e-06
  5.9898962e-06
  2.1396133e-06
  6.2332765e-06
 -1.6363655e-06
  2.1317492e-05
  3.7379352e-06
  5.5717654e-05
 -1.4063848e-05
  3.3460101e-06
  9.4146503e-07
  1.7508555e-05
  3.0967876e-05
  7.1341738e-06
  5.9853196e-06
 -1.0832769e-06
 -1.1315045e-05
  1.0740034e-06
  1.3085477e-05
  5.2711653e-07
  6.2679742e-06
  8.1806083e-06
  9.5782534e-06
 -9.1415905e-06
 -1.1048784e-05
 -1.2932821e-05
  1.1841045e-05
 -3.6716821e-05
 -2.0331256e-05
 -2.7288099e-05
 -3.3992481e-05
 -7.9439378e-06
  2.5913135e-07
  2.2017834e-05
 -1.0957986e-06
 -3.0076000e-05
  1.0592518e-05
 -3.1995492e-06
  3.5747335e-06
 -4.7136621e-07
 -1.3349303e-05
  1.8987575e-05
  1.3892865e-06
 -3.8813278e-06
  2.5508978e-05
  4.9736823e-06
 -2.1340884e-07
 -2.8250299e-05
  3.2015078e-06
 -1.7301334e-05
 -4.6809223e-06
  8.9600871e-06
 -2.4072294e-06
  1.5952780e-06
 -1.5225920e-05
 -1.7865010e-05
  3.3353012e-05
 -3.5940913e-05
  1.9315577e-05
 -3.0329153e-07
 -5.0749492e-08
 -5.1726879e-06
 -1.9132372e-05
  6.1665351e-06
  3.9618599e-06
  1.4602769e-05
 -1.2478408e-06
 -1.5496153e-06
 -4.7676502e-05
 -1.1786883e-05
 -6.8852187e-06
 -1.3325553e-05
  9.9732151e-06
  9.0809062e-06
 -9.9643457e-06
 -7.6103079e-06
  2.3879837e-05
 -1.9835661e-06
 -5.0250887e-06
  4.9133545e-05
 -1.2287035e-05
  1.2551544e-05
 -3.4259039e-05
 -9.7404290e-06
 -2.5429526e-06
  1.1765320e-05
  2.5941728e-05
  4.2758729e-06
 -5.6968986e-07
  1.5539309e-06
 -5.2574276e-05
 -3.5801581e-06
 -6.7328615e-06
 -5.6147915e-06
 -2.9248508e-06
 -1.4311477e-05
  5.8177720e-06
  1.6774380e-05
  4.4127974e-06
 -9.7828261e-06
 -3.9654973e-05
 -8.8129946e-06
  1.7558248e-05
 -1.3000925e-05
 -1.7080325e-05
 -9.5374508e-06
 -1.4273228e-05
  1.2738160e-05
  4.8015718e-06
 -2.3351946e-05
  1.0881284e-06
  1.9497396e-05
 -1.2146636e-05
 -4.7259227e-06
 -1.3487792e-05
  2.3043996e-02
 -1.4525901e-05
 -5.4271477e-06
 -1.1511849e-05
 -8.8919282e-01
  2.0017740e-01
  8.0175243e-02
  4.8555976e-01
 -1.1273316e-01
 -1.0880271e-05
 -1.4644157e-05
 -1.5589801e-05
 -2.4173799e-01
 -5.9911278e-03
  1.1145154e-01
  7.5936377e-02
 -4.3311964e-05
  7.3455274e-01
 -7.9405127e-06
 -4.8095822e-02
  2.8165316e-02
  5.9230489e-01
 -3.6337033e-06
  5.0586086e-06
  5.1754888e-02
  8.7666040e-06
  4.6629646e-01
 -4.4881585e-06
  1.6113311e-01
 -1.0073303e+00
 -1.2567386e-06
 -4.8716884e-05
 -4.1596077e-06
  4.7453544e-01
  1.0955497e+00
 -1.3878903e-01
 -4.8445594e-02
  1.6001080e-05
 -1.1841795e-04
  6.0013476e-06
  6.5889573e-01
  3.6939040e-02
  3.3980589e-03
 -2.5515052e-05
 -3.5849532e-06
  2.6932976e-06
 -9.2776745e-06
 -5.5264998e-05
 -6.2887989e-07
  4.4705915e-01
 -2.7661066e-05
 -5.1367383e-06
  2.3663870e-05
 -4.0298955e-06
  5.8213048e-02
 -3.0492613e-06
  8.0032660e-05
 -3.3685837e-06
 -3.8488342e-06
 -1.3379175e-05
 -8.0878144e-06
  1.5822679e-05
 -9.8390901e-06
  2.7921831e-05
  1.8187973e-05
 -8.0703530e-06
 -1.1321093e-05
  6.2445283e-06
 -9.3187995e-02
 -1.3448621e-02
 -1.1087589e-05
 -1.8533055e-05
 -8.7541030e-06
  4.5287998e-06
 -1.0206119e-05
 -7.9121128e-06
 -1.0542973e-05
  3.4351997e-05
 -1.9441395e-05
 -2.8637019e-06
 -1.2038925e-05
 -1.7836352e-05
  6.0336133e-05
  1.6159958e-05
  7.0139158e-06
 -1.4470066e-05
  7.3055166e-06
 -2.0604145e-06
  2.3157700e-06
  9.5802716e-06
  2.6033120e-05
 -1.4521864e-05
  1.0291238e-05
 -6.3763714e-06
  3.2246653e-06
  1.7756756e-06
 -1.0751460e-05
 -7.2473372e-06
 -8.9603543e-07
  1.5102913e-06
  3.3434972e-06
  1.2272978e-05
  3.5792455e-06
  1.1842931e-06
  5.6129820e-06
 -2.7017877e-05
  1.2056533e-06
  1.3948416e-05
 -8.4837188e-07
  5.4933480e-06
  4.4974845e-06
  3.4971205e-07
  2.5484151e-05
 -1.2978529e-05
  7.9922502e-06
  3.2158857e-06
  1.5961208e-05
 -5.3157628e-06
 -1.0577919e-05
  9.0229751e-06
 -7.6977558e-06
 -3.8957455e-06
 -4.5086254e-06
  1.8021908e-06
  1.0834608e-05
 -1.2342564e-05
  1.5545229e-06
  2.5481672e-06
  4.5529750e-06
  7.3838487e-06
  4.6837458e-06
  5.2534679e-06
 -2.3243903e-05
 -7.7704444e-06
  3.7148751e-05
 -2.9738314e-06
  1.5291313e-05
 -2.0232754e-05
 -1.4352872e-05
 -1.3531196e-05
  1.9924320e-05
  4.4252865e-05
  2.3193372e-06
  5.7818187e-07
 -2.1641549e-06
 -2.1102851e-05
  1.0575830e-07
 -1.6206994e-05
 -1.2523658e-05
 -1.9858260e-05
 -4.2219224e-05
 -1.5760456e-06
 -3.1551883e-02
  4.4958715e-06
 -3.1307031e-06
 -2.7229971e-05
 -1.4232002e-05
 -1.6124937e-05
  2.8527015e-06
 -9.3693179e-06
 -3.5369143e-05
 -4.9646267e-05
  1.1978794e-05
 -7.9422452e-06
 -2.8067714e-05
 -6.2420431e-06
  2.5823423e-05
  4.9943651e-07
 -1.6750933e-05
 -2.3703444e-06
  1.4321884e-05
  1.2049774e-05
  2.3837836e-05
 -3.9491306e-06
 -2.4730225e-06
 -8.9008126e-06
 -1.9226338e-05
  1.8409821e-06
 -1.8688994e-05
  2.0688049e-06
  8.9229552e-06
 -4.1952203e-06
  2.5947559e-06
  8.5174397e-06
  1.9491841e-05
 -1.2541779e-05
  2.5834279e-05
  1.2053804e-05
  1.8874834e-05
 -7.9431684e-06
  1.5500085e-05
 -1.3089903e-05
  5.6714152e-06
  5.2180080e-06
  8.3300092e-06
  3.2617222e-06
 -1.5272180e+00
  2.2276381e-05
  1.1722810e-05
 -3.2251696e-06
  1.2106270e-05
 -1.3089679e+00
  2.1537112e-06
 -5.1691151e-01
  1.2679811e-01
  3.3962094e-06
  3.6818474e-05
  7.2859411e-06
 -1.4625673e-01
  2.7826697e-02
  2.1811521e-02
 -6.6645944e-06
  1.4738685e-05
 -1.3835339e-01
  2.8777757e-05
  2.0195919e-01
  1.2917172e+00
  1.5151165e-06
  2.8843333e-06
 -1.1139744e-05
  2.6605148e-05
  1.9088327e-06
 -1.4141123e-04
  7.9033280e-06
 -1.3723489e-05
  6.7906365e-02
  3.4734298e-06
  5.3993640e-06
 -8.1946837e-06
 -1.0076546e-06
 -5.8283621e-01
 -1.6082909e-05
  3.7838190e-04
 -4.0029672e-06
  4.0528830e-06
 -2.7048482e-06
 -8.6199291e-02
 -1.6531347e-06
 -4.8921625e-05
 -2.9033841e-05
  1.2947174e-05
  6.4988890e-06
 -1.4397560e-05
  1.1885948e-05
  1.0711528e-05
 -1.3541662e+00
 -2.6995417e-06
  1.2495043e-05
 -1.0425118e-05
  1.2878750e-06
 -2.0986273e+00
 -2.3174007e-01
 -3.1428111e-01
 -3.3927854e-02
  1.9165248e-06
 -1.5119109e-05
  4.9856317e-06
  4.9331456e-02
 -1.3568692e-05
 -5.8130378e-01
 -1.1937526e+00
  4.3761547e-06
 -2.1061844e-01
  1.2818515e-05
  1.3767135e-01
 -1.0028726e+00
 -5.0028917e-05
 -1.0369445e-05
 -8.3639297e-06
  1.9598638e-06
 -6.3625307e-06
 -1.1857993e-04
  5.6840622e-07
 -7.3534705e-02
  3.1274177e-02
 -1.4444340e-05
 -1.9983399e-06
  1.5257641e-05
 -1.4938450e-01
 -4.6574306e-01
  4.1266471e-06
  7.1138986e-03
  1.2511380e-05
 -1.0808544e-05
  1.3506900e-07
 -3.6989469e-02
  4.5014144e-06
 -5.5613859e-06
 -7.6030565e-06
 -5.6758095e-06
  1.7712133e-05
 -1.4267732e-05
  1.1228296e-05
 -6.5004701e-07
 -6.1177225e-06
  3.1935615e-05
 -5.9607551e-06
 -6.0152042e-06
  5.1172542e-06
 -3.6694124e-05
  1.6654758e-06
 -8.0576847e-06
  4.7194790e-06
  1.9947829e-05
  1.4547468e-06
  2.9606085e-06
  1.0449808e-06
  1.2846060e-05
 -2.4301076e-05
 -5.8658622e-07
  8.6719132e-07
  1.9223073e-06
 -5.8841397e-06
 -9.4085755e-07
  5.5010978e-06
  1.3090664e-05
  2.6318253e-06
  3.9466827e-06
 -1.6427208e-07
 -2.2790830e-06
  8.0721820e-06
 -1.3097612e-05
  1.0153896e-05
  1.7027600e-05
 -1.5843356e-07
  2.0985042e-06
 -2.4577644e-06
 -2.3859926e-05
  1.5355154e-05
  2.2313136e-06
 -1.0563234e-05
  1.5862050e-05
 -3.1523998e-06
  7.8169251e-06
 -5.3663543e-06
 -1.7247343e-05
  1.9287997e-06
 -1.6983488e-06
 -2.9517532e-05
 -1.0706900e-05
 -1.6121287e-05
 -4.6269761e-06
 -1.6722543e-05
  5.2821415e-06
  1.3194635e-05
  1.2547027e-05
  4.5506284e-02
 -2.8413522e-06
  4.0430236e-06
 -8.3208479e-06
 -5.1033851e-02
 -8.5411114e-01
  1.6346761e-05
  1.8861958e-05
  1.7155235e-05
 -3.4020904e-05
  2.6199145e+00
  2.6777703e-01
  2.4488869e-05
  4.5014417e-06
 -9.8444998e-01
 -7.6013255e-01
 -2.7790604e-05
 -1.8317014e-05
  3.8304624e-06
 -1.6295156e-05
 -4.7445260e-06
  7.4667860e-06
 -2.3411826e-06
  9.8893879e-06
 -2.3184399e-05
 -1.2609138e-05
  1.3477947e-05
  7.8761950e-05
  1.1797322e-05
 -1.2862263e-05
 -4.9553673e-06
  2.7096780e-07
  7.1531094e-06
  2.3502607e-06
  8.8541208e-07
 -7.2422758e-06
 -1.1141939e-05
 -6.6757981e-05
  7.9267047e-06
  6.1760275e-06
 -2.2266438e-05
  2.0199568e-05
 -3.7155039e-06
 -1.3176093e-05
 -2.8001548e-05
  2.0155658e-05
  1.3807764e-05
  1.4166462e-05
  3.4645069e-05
 -3.1037231e-05
 -8.5363881e-06
  1.8907572e-06
 -7.3735050e-06
 -6.5955246e-06
  1.0253466e-05
 -1.6165890e-05
  5.2666524e-06
  4.0591076e-06
 -3.2330430e-08
 -8.6958298e-06
 -2.4392725e-07
 -3.5413384e-05
 -9.2764145e-07
  2.0729953e-05
  4.7843205e-06
  5.0547806e-06
  2.5267513e-05
  1.5506386e-05
  2.6689395e-05
  6.3874827e-06
 -1.4968228e-01
 -1.9730711e-05
  1.8016360e+00
  4.4156912e-01
  4.0622261e-05
  1.4270693e-05
 -1.3641016e-01
  1.3200731e-05
  2.9374461e-04
 -2.6035038e-01
  1.7410649e-01
 -1.2909486e-05
 -3.7337176e-03
 -4.0360045e-01
  3.5755478e-05
  3.0002141e-01
  1.0358852e+00
 -3.1337783e-01
 -5.3232989e-06
  1.2541677e+00
 -1.4293332e-06
  8.2638216e-01
  1.2471305e-03
  2.2306401e-01
  1.9960257e-01
 -8.1399009e-02
 -3.4522453e-01
  6.2946867e-07
 -2.2733359e-01
  8.0246427e-06
  1.3720837e-01
 -2.6968123e-06
 -1.8809811e-06
  1.0636408e-05
 -2.5339283e-05
 -1.8684585e-05
  3.5082932e-05
 -2.2782204e-01
  2.1638014e-05
 -1.1357095e-05
  2.0184580e-05
  2.0870562e-05
  2.7013279e-05
 -1.1372139e-05
  2.3435177e-06
 -4.5288289e-06
 -8.6271093e-06
 -3.7158068e-05
  2.1549390e-06
 -4.8789680e-05
  1.7059476e-05
  5.3700492e-06
  1.4140583e-06
  2.5654354e-06
 -2.4185194e-06
 -1.1098849e-05
 -4.4436115e-07
  1.1768228e-05
 -8.2961051e-06
 -2.0869475e-06
 -1.0251973e-05
  1.0698891e-05
 -5.8964179e-06
 -1.9129875e-05
  4.7954854e-06
  9.4509903e-07
  2.3118033e-05
  3.3629078e-07
  9.4176339e-06
 -7.0300121e-06
 -3.1809395e-06
  8.6409073e-06
 -5.6569966e-06
  1.6178445e-05
  9.7224199e-07
  1.1477596e-07
  1.6487975e-06
  5.7918362e-07
  5.1591733e-06
 -5.2120540e-06
  2.1019519e-05
 -3.2491955e-06
  2.7962008e-06
 -1.4163524e-05
  1.4094540e-05
  1.5127036e-06
 -2.2382335e-05
 -1.0777609e-05
 -2.0916941e-06
  9.5854502e-06
 -9.1216032e-07
  9.8178350e-07
  1.2391654e-05
 -2.5504467e-05
 -1.1583067e-01
  4.2991173e-06
  6.4452231e-02
  1.8448100e-05
 -3.7472871e-01
  1.2347598e-05
  5.1972508e-02
  2.6628718e-01
  4.3759010e-05
 -5.2026730e-02
 -2.3209846e-01
  2.6655933e-01
 -5.2956253e-01
 -1.5728603e-01
 -1.5160094e-01
  7.6688666e-05
 -3.4864694e-05
 -3.5649320e-01
 -1.4113818e-01
 -8.7674029e-02
  5.5475152e-01
  9.6931957e-02
  1.1813438e-06
  6.1481023e-01
 -4.8543368e-02
  1.2888131e-01
 -1.6783924e-01
  5.7054092e-03
  1.5925983e-01
 -8.6280030e-01
 -1.1097746e-01
 -4.3613228e-01
 -3.2506108e-02
  1.4640015e-01
  1.4668250e-02
 -9.4499660e-01
 -7.6309741e-05
  1.1653578e-01
 -8.7439334e-01
 -1.3916275e-01
  4.3424571e-01
 -1.4973818e-01
 -5.7406965e-06
  2.1322898e-05
 -6.0886523e-06
 -4.4653563e-05
 -5.3029937e-05
  3.1120726e-06
  2.3446686e-05
 -6.2068248e-06
 -2.9336978e-05
  7.3938318e-06
  4.9090813e-05
 -6.4716244e-07
 -2.4985751e-05
  3.3831961e-07
 -9.2674218e-06
  5.2401165e-06
  1.5905765e-05
  5.8040187e-06
  1.3927105e-05
 -2.4639660e-06
 -3.8508929e-06
 -1.9697760e-05
 -1.4894282e-05
 -6.1796600e-06
 -1.8036519e-05
  1.8317132e-06
  2.9969640e-05
  4.0684710e-05
  3.6281745e-06
 -1.2714584e-06
  3.0291949e-05
  2.1496780e-06
  3.8723560e-05
 -5.2618489e-05
  8.0519676e-06
  1.8288200e-06
  8.1136614e-07
  5.6028387e-07
  1.8499844e-05
  1.8812254e-05
  4.3904702e-06
 -3.1223841e-05
 -5.8767732e-06
  1.7654384e-05
 -6.1143046e-06
 -1.2934764e-05
  5.7375473e-06
  2.4148208e-05
 -1.9845036e-06
 -1.8885567e-05
 -5.0441809e-06
 -3.4596096e-06
  4.7009985e-06
  6.0890966e-06
  3.9176507e-06
  1.1936798e-05
 -3.1611780e-05
 -3.0852448e-06
  9.9646359e-06
 -7.5084113e-06
 -3.6122769e-01
 -3.6915655e-05
  6.4181828e-01
  1.6506612e-01
  1.1194778e-05
 -2.9592235e-02
 -1.0964467e-05
  2.2241366e-05
  3.4420553e-01
  3.3010580e-02
  9.2248833e-01
  8.6255164e-07
 -7.2875908e-03
 -4.0806910e-01
  1.3097779e-02
  3.2685336e-01
  6.5762788e-02
 -1.2199182e-05
  2.3437235e-05
 -1.9380418e+00
  2.2694919e-06
 -9.6799679e-02
 -1.6283026e-05
  5.1117554e-02
  1.7469789e-01
 -8.6573069e-04
  2.2230524e-01
 -5.7592028e-05
  1.4797655e-02
 -7.1713416e-06
  1.4244511e-05
 -6.6653865e-07
 -3.3607106e-05
 -4.2915790e-06
 -1.0479185e-03
 -1.0761012e-06
 -7.2279270e-04
  2.4632461e-06
  2.0095096e-05
  3.7516252e-06
 -3.9278611e-06
 -2.2502465e-07
 -1.5006076e-05
 -5.5968121e-06
  2.0858060e-05
 -9.4626412e-06
  1.0006556e-06
  6.9393745e-06
  1.6354157e-05
 -9.8110807e-01
  4.2839119e-06
 -3.4390376e+00
  4.5180404e-06
 -3.4337395e-06
  3.2719399e-05
 -1.8145222e-03
 -1.1198099e-04
  1.8541912e-02
  1.9117026e-01
 -5.4157764e-01
 -7.1825170e-06
  2.4458604e-01
 -2.4344505e-01
  1.0731831e+00
  1.8061914e-01
  2.6734194e-01
 -6.0351783e-01
  4.8231911e-02
  6.9765288e-01
  6.8835047e-06
  9.0195513e-01
  2.1460131e-03
 -5.7996571e-01
 -2.0552382e-01
  2.3980500e-02
  1.7588775e-01
  4.3517764e-05
  1.0486265e-01
 -3.4199271e-01
  3.8453573e-01
  1.8973882e-05
 -3.3198057e-07
 -9.3510911e-02
  1.1443627e-01
  3.2912701e-04
  1.4236064e-03
 -6.9876291e-02
 -5.8860887e-06
  2.8326571e-05
  8.4500580e-06
  9.2279521e-07
  2.4838400e-05
 -6.3692914e-06
  2.0935833e-05
 -6.7582573e-06
  1.4757693e-06
  5.2878258e-06
  4.4304443e-06
  3.8738083e-02
 -7.9913916e-06
  4.5012597e-02
 -5.2680933e-01
 -6.2769218e-06
  1.6959449e-03
  1.2248931e-06
 -3.5406654e-05
 -3.5710968e-03
  1.7392559e-01
 -1.6602249e-01
 -1.2784166e-05
  2.1264964e-01
 -4.1775033e-02
 -1.1539596e-04
 -4.9937612e-01
 -7.2293222e-02
  3.3685683e-06
 -9.3555491e-04
  2.0703498e-01
 -8.1301414e-06
 -4.0192369e-02
  5.2489889e-01
  4.5234627e-01
 -5.5038166e-01
  4.2459446e-01
 -1.9050266e-01
  2.7899437e-06
 -6.9242151e-04
  5.9220278e-01
  2.5903675e-01
 -2.2296151e-03
  1.3325241e-05
 -1.4130467e-04
  3.1296012e-01
  6.6865078e-04
  1.7541186e-03
  5.9067606e-05
 -1.5328580e-05
 -1.0396624e-05
  4.5879777e-05
 -9.6786607e-06
  1.2432264e-05
 -2.4104947e-06
 -9.1652773e-06
  2.7430677e-05
 -8.5255897e-06
  4.0832823e-05
 -2.1040858e-05
 -1.9872556e+00
 -7.1126688e-06
 -1.4277010e+00
  6.5385908e-01
 -1.1793662e-05
 -8.0000691e-02
 -7.9667307e-06
 -2.5570896e-02
  9.5311590e-02
  3.4605980e-01
 -1.3617036e-01
 -6.8625959e-05
  8.7654777e-03
 -1.2294755e+00
  7.2742797e-02
 -1.4589734e-01
  5.2785897e-01
 -4.1020787e-01
 -1.8679384e-05
  4.9408475e-01
  1.3100464e-05
  6.6782796e-01
  5.2632380e-01
  9.5409459e-01
 -4.0988643e-03
 -1.4283503e-05
  4.8421904e-01
  2.8376792e-06
  2.1265967e-01
  1.7922464e-06
  3.4369931e-01
  1.2737644e-01
  1.3066448e-05
 -3.9015100e-05
  5.7461230e-06
  5.0613773e-05
  3.4237623e-01
 -9.5701180e-06
 -2.5715908e-05
 -4.3364553e-06
  1.0830274e-05
 -5.9054573e-06
 -5.7091311e-06
 -1.6138540e-05
  9.8981573e-06
  8.7133892e-02
  1.1692015e-06
 -2.7894994e-06
  1.3515571e-05
  4.3381301e-01
  1.0665454e-05
  7.0240843e-01
  6.1316228e-01
  1.8703631e-05
  7.1831687e-07
  2.1296265e-03
  2.1312344e-06
  4.3614000e-01
  1.1785268e-01
 -4.5645714e-01
  8.3245859e-06
 -6.7916858e-01
 -1.0413758e+00
 -1.2752528e-02
  6.3527310e-01
 -1.4769089e+00
 -2.6186445e-01
  1.6863922e-02
 -2.4429398e-02
  2.0104317e-05
  1.6113299e+00
  9.5513014e-06
  2.2950375e-05
  5.7730961e-01
 -6.3741453e-02
 -7.6231891e-03
 -2.1195412e-05
  1.5400060e+00
  6.4551793e-02
  1.6241863e-02
 -2.8824714e-01
 -9.9574772e-06
  2.3473745e-05
 -4.2202553e-01
 -9.9588779e-04
 -6.6580123e-01
 -2.3354812e-01
  3.2376414e-05
 -3.5160015e-06
 -7.3700721e-07
 -3.6215629e-06
 -4.1918385e-05
  1.3393232e-05
  1.3467490e-05
 -5.9171584e-06
  9.9711108e-01
 -2.1365648e-05
 -5.3838062e-01
  1.4149910e-05
 -4.4252184e-01
 -2.2850118e+00
  2.1954359e-06
 -2.2755740e+00
  1.0615623e+00
 -5.7002967e-07
  4.8972008e-01
  3.9239685e-06
  1.6404335e+00
  5.8337528e-06
  4.5443544e-01
 -7.4908543e-01
 -8.4737331e-01
 -1.2477255e+00
  8.2505423e-01
 -8.7743965e-06
  5.1560363e-08
 -3.8306002e-06
 -7.1044328e-06
  1.2816341e-05
  4.1719240e-06
  1.4308452e-05
 -8.7712679e-06
 -4.0410840e-05
 -3.1082500e-06
 -1.6152679e-05
 -2.1201802e-05
  1.8035666e-05
  7.5293251e-06
 -5.9988893e-06
  1.2028261e-05
  5.8958622e-06
 -9.7601451e-06
  4.3073142e-06
 -2.6690200e-06
  1.3073020e-05
  5.7171719e-06
 -1.0484532e-05
 -5.2352148e-05
  6.5365268e-05
  1.5457517e-05
  6.6880966e-05
  1.2368210e-05
 -7.4600609e-07
 -1.6289284e-06
  7.9562469e-06
 -2.4053370e-06
 -2.9842473e-05
 -4.6435875e-05
 -6.4401529e-06
 -1.6607119e-05
  1.5052674e-06
 -1.7609722e-08
 -3.9282313e-06
 -3.3549879e-06
 -6.9733255e-06
 -6.4880273e-06
  1.0177734e-05
  1.9303254e-06
 -9.1405973e-06
  1.2839889e-06
  1.1703644e-05
  8.6663895e-06
  5.4330530e-07
  8.9369564e-07
  1.5902642e+00
  9.9716699e-06
  2.1169348e-05
 -2.1150504e-06
 -1.4544395e-05
  6.8424278e-01
 -1.8438396e-01
 -8.0347911e-02
 -1.3958161e-05
 -2.5482364e-06
 -7.5624610e-07
 -1.1778101e-05
  5.4141830e-05
 -7.4626990e-02
 -2.6620185e-01
 -2.7735643e-05
  6.6634739e-06
 -2.4096662e-06
 -1.8096368e-06
 -1.0539895e-01
 -1.1311479e+00
 -2.6496728e-05
 -6.0976813e-06
 -6.2675504e-06
 -2.0118245e-05
  8.8342304e-06
  1.5429308e-05
 -2.1406959e-06
 -4.4590723e-07
  6.4630412e-06
 -7.5479616e-06
 -1.1995449e-04
 -3.2310702e-06
  6.5221529e-06
 -2.1530046e-05
  3.0236040e-05
 -3.8601083e-06
  1.2430668e-06
 -4.3880655e-06
 -2.0852065e-05
  1.5419515e-06
  9.4172528e-06
  1.8832467e-05
 -2.9071654e-05
  3.1031952e-06
 -2.1651162e-05
 -8.6533082e-06
 -1.1963260e-05
  3.0506497e-05
  1.0392388e+00
 -7.2105181e-06
  6.7165452e-06
 -7.9088716e-07
  1.1677166e-05
  1.1739460e+00
  1.8876482e-05
  3.9731352e-05
  5.9818235e-06
  6.0224879e-06
 -7.6734641e-06
  6.9256548e-06
 -2.2516717e-06
 -1.5221860e-05
 -4.4375065e-05
 -9.5475452e-06
 -1.3983219e-05
  9.3196468e-06
 -9.0386893e-06
  3.0691479e-06
  5.1172774e-06
  1.5350496e-06
  1.4995048e-05
 -3.3584460e-05
 -3.9273527e-06
  7.3194678e-06
  1.0689926e-06
  4.5556561e-07
 -2.6978867e-05
  1.0770801e-06
  7.1052305e-06
  2.2065564e-05
  1.8533272e-05
 -7.3893102e-07
 -9.4678462e-06
  5.5567166e-06
  7.4131981e-06
 -1.4523232e-05
 -5.0041202e-05
 -1.6022763e-05
  3.8216676e-05
 -2.1526591e-06
  4.6142199e-05
  1.4486878e-06
  7.1933732e-06
 -4.2160987e-06
  7.3812826e-06
 -1.9091867e-06
 -3.2262571e-05
  1.2785691e+00
  3.9695391e-07
 -7.9923757e-06
  1.2485666e-05
  1.0745372e-05
  4.1808879e-01
 -8.8260845e-07
 -1.1092195e-05
 -1.7924687e-05
 -1.8058139e-05
  1.6057766e-05
 -2.9274279e-06
 -1.2536162e-05
 -6.7810843e-06
 -3.7416749e-02
 -3.8873545e-06
  2.2557402e-05
  8.0825648e-06
 -1.2337434e-05
 -7.6289448e-06
 -2.2219560e-01
 -1.9045045e-05
  6.6918267e-07
 -3.6637055e-05
 -4.3472855e-06
 -3.7007112e-07
  1.3351137e-06
 -1.7915179e-06
  2.4346187e-05
  4.8345771e-07
 -1.8805715e-06
 -1.9730235e-06
  5.9593658e-06
 -8.5343563e-06
  2.1680091e-05
 -1.0937128e-05
  4.4184339e-06
  4.1284500e-05
 -8.6764849e-06
 -1.5836687e-05
 -1.0720216e-05
  5.0778835e-05
  2.5092982e-06
  1.0335342e-05
 -2.7899782e-06
 -2.4179426e-06
  2.1315464e-07
 -4.2494830e-07
  2.7197988e-05
 -8.6651187e-07
  4.8737402e-06
  2.0758340e-05
  5.3294707e-07
  6.3838729e-07
  2.0488522e-05
 -1.6123015e-06
  6.6483494e-06
  4.1910612e-06
  2.0423981e-06
  6.5645427e-06
 -1.2668641e-05
  1.6501644e-05
 -2.7031680e-05
 -1.4578432e-05
 -2.1663823e-06
  2.9272844e-05
 -3.2035409e-06
 -5.1071070e-06
 -3.6092086e-05
  5.5330584e-06
  2.3747332e-06
  1.1204338e-07
  5.3653503e-06
 -1.1114047e-05
  3.5037351e-06
 -8.1771368e-06
 -1.1789731e-05
 -2.1875219e-05
  4.3762357e-06
  3.7492871e-06
  4.9556497e-06
  8.5765214e-07
 -1.8708337e-05
  2.4494236e-06
 -2.2018974e-06
  5.9443851e-06
  5.2369264e-06
  1.0555636e-05
  1.3548137e-05
  8.9642881e-06
 -2.4406470e-05
  3.1505944e-05
 -1.4695362e-05
  2.2276206e-05
  1.6157403e-05
 -4.2814845e-06
 -1.8578814e-06
  1.4101438e-05
 -3.4788013e-01
  1.6767388e-05
 -3.9876008e-06
  1.7836211e-06
  8.0961863e-06
  4.4324294e-02
 -7.3969036e-01
  2.3832532e-05
 -6.6077714e-06
  3.1824773e-05
  1.7819573e-05
 -2.4938154e-05
 -9.3802500e-06
 -1.1546810e-05
  2.4693187e-02
 -2.0829713e-05
  2.6691969e-06
 -3.5188903e-06
  1.4993525e-05
 -7.5987600e-06
  2.9893616e-01
  1.3632821e-05
 -2.2094780e-06
 -3.3431006e-06
 -5.2194637e-06
 -1.4983218e-05
 -3.7508294e-06
 -7.1070872e-07
  3.1912141e-06
  4.3023911e-06
 -1.3728985e-06
  2.1264219e-05
 -5.9709901e-06
 -6.1693268e-06
  1.1353283e-05
 -9.4073794e-06
  8.1644157e-06
 -5.2281230e-06
  1.7796242e-07
 -1.2027600e-05
  6.1214155e-06
 -1.0037538e-05
  1.9854046e-05
  2.0120817e-05
 -6.6064495e-06
  3.5120138e-08
  2.1028218e-06
 -5.0722588e-06
 -1.7167366e-05
 -9.7008801e-01
 -7.7906378e-05
 -9.5774067e-07
 -8.6651235e-06
 -8.5229804e-05
 -7.1806532e-01
 -4.9316932e-05
  2.0671013e-04
  1.5755315e-06
  1.1986526e-06
  5.0946055e-05
 -5.4769981e-07
 -2.9333714e-02
  2.2134394e-05
  2.1195453e-01
  2.4709179e-05
 -6.2123854e-06
  1.2829157e-06
 -4.9959526e-06
 -9.9134850e-06
  1.9344419e-01
 -1.2789313e-05
  8.2056329e-07
 -5.4467541e-06
 -4.2257116e-06
  3.6600786e-06
 -4.3204594e-07
  3.9789261e-06
  1.1873861e-05
 -2.3039222e-06
  3.2654707e-06
 -9.2701666e-06
 -2.3758947e-05
 -2.4957217e-08
  8.0897180e-06
 -2.5220555e-05
 -3.2718825e-05
 -1.1792954e-05
  7.4597519e-06
 -9.5429996e-06
  3.1758897e-05
 -4.0722629e-05
  1.0416129e-05
 -2.5743149e-05
 -2.4575224e-06
 -3.3697879e-06
  1.3531357e-05
  1.3039339e-05
  9.5811320e-06
  3.2411083e-06
 -2.5033278e-05
 -1.1840961e-05
 -8.6222526e-06
 -1.1152129e-05
  1.5083953e-05
 -8.0986765e-06
 -1.4889803e-05
 -9.8038590e-06
 -2.5777636e-06
  2.0224617e-05
 -3.9234492e-06
 -1.6320582e-05
 -1.0422156e-05
 -2.4567726e-06
 -3.4964221e-06
  5.3894782e-06
 -1.1307486e-05
  2.4213568e-05
  6.4194810e-06
  2.4773042e-06
 -4.1365311e-05
  1.7452527e-05
 -5.8229402e-06
 -1.6080277e-05
  1.2254553e-05
 -1.0552870e-05
  2.5498013e-05
  6.7253281e-06
  4.0204449e-07
 -2.0005896e-06
 -2.0214463e-06
  1.3032252e-06
 -1.5404912e-06
 -1.0764954e-05
 -5.8840860e-06
  2.0067180e-05
 -7.9184525e-07
 -7.3003764e-07
  3.3333574e-06
 -5.1327504e-05
 -1.4747508e-05
 -3.8941271e-06
  1.6527285e-06
 -9.1701650e-06
  1.0501801e-05
 -1.1832149e-05
  8.4108369e-06
 -1.3172638e-05
 -3.4786593e-05
 -9.5674022e-06
 -2.2119524e-05
 -1.1963846e-06
  1.0610333e-05
  3.1635595e-06
 -4.0595396e-06
 -1.9989066e-05
 -1.1802960e-05
  2.0728719e-06
 -2.3570165e-06
  1.3696197e-05
  8.8733686e-06
 -8.4998246e-06
 -9.3886219e-06
 -6.5979339e-06
  1.6867440e-05
 -4.8165350e-07
 -4.2392344e-06
 -1.6678248e-05
 -3.0493140e-06
  8.2987981e-06
 -3.6225621e-05
  9.1525590e-06
 -9.5514349e-07
 -3.1642496e-06
 -1.9762141e-05
  4.0538038e-05
 -4.4401850e-07
  1.4802029e-05
  2.9985192e-06
 -1.3550328e-05
  4.6335949e-06
  1.8083032e-05
 -1.8529054e-06
  3.2963442e-05
 -3.3670342e-06
 -4.2964316e-06
 -2.4924209e-05
  2.3709172e-06
 -5.4733118e-06
 -1.1544028e-05
 -1.2394980e-06
  1.1237476e-05
  3.1653021e-06
  1.7538729e-05
 -1.4617081e-05
  1.4145032e-05
 -1.8848623e-06
 -5.3967156e-06
 -2.9034662e-05
  1.7095396e-06
 -1.0664108e-05
  2.6709208e-06
 -1.1545720e-06
  7.9651991e-06
  2.1328187e-06
 -1.5001338e-05
  1.2288009e-05
  5.5097539e-06
  5.5549590e-06
  2.0710218e-06
 -3.2017615e-05
 -1.3841890e-06
  2.5650448e-05
 -2.7026613e-06
  9.3665612e-06
 -1.3055451e-05
  8.5332231e-06
 -3.5259970e-06
 -2.4243964e-05
  6.7769661e-06
 -1.4350322e-05
  7.0186143e-06
 -8.2834767e-06
  2.6046971e-05
 -1.8329250e-05
 -2.4512483e-05
 -3.7984903e-06
 -1.7810771e-05
 -4.7050744e-05
  6.5559680e-06
 -8.7237777e-07
  6.8286308e-06
 -2.7062670e-05
  5.0571707e-06
  2.2488916e-07
 -1.9796807e-06
 -6.9619591e-06
  2.5413199e-05
 -1.8976882e-05
  8.9227233e-06
  8.1665157e-06
 -4.9281232e-05
  2.7003152e-06
  3.1068779e-05
  1.4647890e-05
 -2.1341601e-05
  2.8113702e-02
  1.8043816e-01
  1.0668513e+00
  6.1653316e-01
 -2.2341845e-05
  4.5045200e-01
 -8.2764226e-01
 -6.5847385e-01
 -1.2214866e-01
 -1.1960849e-01
 -1.8471377e-02
 -8.5598093e-01
 -2.9658815e-01
 -4.4476545e-01
 -4.5059805e-06
  7.4588251e-01
  8.2378393e-01
  1.0872022e-01
  1.2864184e-01
 -4.9806669e-02
 -1.6406535e-05
 -1.2609703e-06
 -3.1654035e-05
  7.7381737e-06
 -3.1022133e-05
 -9.2490136e-06
 -6.5781265e-01
  1.3494719e-05
 -2.8993234e-05
 -5.9920881e-06
 -1.1681472e-05
  2.0415664e-05
 -1.0766820e-03
  2.5283484e-06
 -1.3452088e-05
  3.8804465e-06
 -8.9989862e-06
 -2.1980057e-04
 -5.6095969e-06
 -2.6979908e-01
  4.9604423e-05
  1.0089728e-05
  6.3892192e-05
  2.0470497e-01
  4.0071307e-05
  1.7906599e-02
 -6.9428866e-06
 -1.1651563e-05
 -2.9124965e-06
  1.4849804e-05
 -4.6044393e-03
  9.1849424e-06
 -1.8043336e-03
 -3.0665509e-05
 -2.9397438e-07
 -2.2630147e-06
 -2.6749924e-06
 -3.9560509e-05
  7.6828601e-06
  1.7357104e-06
  1.2958974e-05
  9.9336157e-06
  1.0509914e-05
 -1.7147915e-05
 -1.0204927e-05
  3.4553827e-06
  5.9890749e-07
 -3.2280934e-06
  4.9874161e-06
  2.7114402e-05
 -3.9639890e-06
  1.5889715e-05
 -2.6439484e-05
  5.2635864e-05
  7.6062443e-06
 -3.6363124e-06
  1.1010100e-05
  4.1236904e-06
 -1.0934187e-05
  1.9542402e-05
 -9.8318151e-06
  9.2922783e-06
 -5.5467622e-06
 -2.0448804e-06
  6.0871189e-06
 -3.1280408e-05
 -7.7327049e-06
  1.2266188e-05
 -3.3772319e-06
  5.7012012e-06
 -2.1637502e-06
 -1.4970284e-05
 -6.0971156e-06
 -2.1463564e-05
 -9.4025363e-06
 -3.0178046e-05
 -7.5230541e-06
 -1.5282401e-06
 -1.8086785e-05
 -5.4370007e-06
 -3.6236168e-05
 -1.9207687e-06
 -9.7584007e-07
 -4.3079519e-05
  1.3824929e-06
 -6.0556235e-06
 -5.2101132e-06
 -4.3658907e-05
 -1.7147521e-06
  2.9537127e-06
 -2.3152075e-05
  1.9820163e-06
 -4.9920559e-06
  2.0106152e-05
  1.2002402e-05
  3.5268640e-06
  7.7641489e-06
 -9.6280901e-06
  6.8889619e-07
 -1.9070952e-06
  5.1023012e-06
 -2.2443539e-05
  1.1854092e-02
  1.0703558e-06
  2.3940805e-02
  1.6799607e-06
 -2.6249670e-06
 -1.7993844e-06
  5.8383666e-06
 -3.4499092e-06
 -2.5422628e-06
 -4.1271568e-07
 -2.6454691e-06
 -1.8241293e-05
 -1.2509297e-05
 -2.0697271e-05
 -2.1295004e-06
 -1.4433252e-04
  3.9773258e-05
  2.9247167e-06
 -4.9685445e-06
  2.4083515e-03
  3.2251315e-05
  3.2076191e-06
 -1.0959693e-05
 -9.4012021e-06
  1.4508811e-05
 -6.6216227e-05
 -3.2063562e-03
  2.6528895e-05
 -1.2487949e-02
 -3.3767719e-05
 -2.2214008e-06
  3.3415558e-06
  9.6294198e-06
 -2.7323159e-07
 -1.6636564e-05
 -3.0526458e-05
 -1.7205323e-06
 -1.4559350e-05
 -5.8167593e-06
 -5.0641347e-06
 -2.2758550e-05
 -6.8722852e-06
  9.5376809e-06
 -6.8219088e-06
  2.8059007e-05
  7.2382022e-06
 -3.1139089e-06
  1.9539038e-05
 -1.5879652e-05
 -1.8151468e-02
 -1.5461610e-05
  1.6968843e-01
  2.8953409e-06
  2.0629534e-05
 -2.3272637e-06
  6.3739426e-06
 -4.2895161e-05
  3.2587513e-01
 -6.7399774e-06
 -3.6663280e-06
 -1.0472304e-05
  4.4147786e-02
  7.9084508e-02
  1.3831285e-01
  5.8821595e-01
  7.0036359e-02
 -2.4672429e-01
 -4.1548387e-06
 -1.6619077e+00
 -1.2172402e-05
 -3.0879828e-01
  5.1743409e-06
 -5.0140377e-05
  7.6621705e-01
 -5.3764097e-06
 -1.0876846e+00
 -3.9882120e-06
  1.0011106e-01
 -5.6605645e-06
  1.6917360e-05
  3.7180357e-06
 -1.2341970e-05
 -8.7647857e-07
 -2.7076317e-06
 -3.1196535e-06
  1.1913896e-03
  2.7271080e-05
 -2.9691080e-06
  9.9715908e-06
  3.9650795e-06
 -4.0505474e-06
  6.1404212e-06
  1.9463137e-08
  2.0110068e-05
 -2.2083752e-06
  3.8958078e-06
  4.9508521e-06
  2.1206308e-06
  5.2622534e-05
  6.2821382e-06
 -1.8436920e-05
 -2.4262333e-06
 -6.5914173e-06
  1.0401062e-05
 -3.7053065e-05
  2.3341781e-05
  8.0452028e-06
  7.8760113e-06
  1.6633476e-06
 -1.9647782e-06
  7.2251842e-06
 -4.8664760e-06
  2.3852548e-05
 -2.7004458e-05
 -2.6445405e-06
  9.3907283e-07
  6.3769298e-06
 -7.1431914e-06
 -1.9853815e-05
 -1.2934672e-05
 -7.9055571e-06
  3.6758252e-06
  7.3846381e-06
 -2.0856703e-05
 -4.9213313e-06
 -3.3215412e-05
  4.3352304e-07
  7.7626837e-06
 -6.6837229e-06
  7.5072680e-06
  2.8588361e-06
 -4.5222469e-06
  6.9446683e-06
  3.8711546e-06
  7.2478756e-06
  4.9816590e-06
 -3.4820835e-06
  3.8715989e-06
  1.0897197e-05
  6.6368616e-06
  2.3048364e-05
 -4.1513981e-06
 -4.1316166e-06
 -1.0403809e-06
  1.7055592e-06
 -1.8397541e-05
 -8.6472228e-06
 -2.6900760e-05
  2.7328240e-06
  4.0144991e-02
 -3.6279887e-06
 -2.4606038e-06
  7.3071151e-06
 -1.0843326e-05
 -6.9396492e-06
  1.0016530e-05
 -1.5634402e-06
  6.8531585e-06
 -1.1602631e-05
 -3.3057564e-05
  2.9180276e-06
 -4.6823843e-08
 -4.3990049e-06
  4.0030673e-06
 -7.6715360e-06
 -6.2732312e-07
 -5.3508447e-06
 -2.3297651e-05
  2.7676424e-06
 -5.8620062e-06
  2.8922968e-06
 -4.5023144e-06
  7.9550915e-07
  2.0583184e-07
 -2.3593826e-05
 -4.2314064e-06
  5.7212014e-06
 -7.3971992e-06
 -6.4012906e-06
  1.2522944e-06
  6.5921449e-06
 -3.1143320e-06
 -3.9276983e-08
 -1.1528126e-05
 -3.3148041e-05
 -3.4416048e-06
 -1.3260045e-06
  5.0674607e-06
  5.8764754e-06
 -4.9778005e-06
 -5.8426585e-06
 -6.4648025e-06
  2.9861023e-06
 -8.1470051e-07
  2.3930293e-02
 -6.9356597e-06
  4.6637505e-01
  7.9888387e-06
  2.4138072e-01
  6.6676375e-06
 -9.8395640e-06
 -8.1463286e-06
  3.2621312e-05
 -4.5760121e-06
 -8.8561121e-03
 -1.6962469e-05
 -6.6556342e-05
 -1.5059417e-05
 -1.7636325e-05
 -3.7329338e-02
 -3.0013289e-06
 -3.5300635e-02
  2.7400025e-03
  5.6784979e-06
 -5.6831586e-06
  2.8448261e-02
  1.0170934e-05
 -1.9684981e-05
 -3.3716678e-05
 -9.2108476e-06
 -1.2733588e-01
 -7.5521734e-06
 -6.5648139e-02
 -1.9948725e-06
 -7.3280722e-02
 -2.7564747e-04
 -6.3464999e-05
 -1.0221617e-02
 -1.2114848e-05
  4.6832331e-05
 -3.0522933e-06
  5.5019768e-06
 -4.0527548e-06
  3.0371584e-06
 -2.4567362e-05
  1.5947169e-06
  8.8009074e-06
  3.6704198e-05
 -5.4225625e-06
  6.1215460e-06
 -4.9214395e-06
 -2.8013488e-05
 -3.1302106e-06
  1.1629535e-06
 -6.5489048e-06
 -1.7891969e-01
 -2.0655516e-05
 -7.9593182e-01
 -1.6424256e-06
 -3.7569739e-06
  4.1319436e-06
 -6.7055753e-06
  6.9739503e-06
 -2.4040988e-05
 -2.2310534e-05
  3.2175681e-06
  1.2044012e-05
  2.7790923e-06
  6.7710673e-05
 -1.4165056e-05
  1.7718974e-05
 -3.3745005e-06
 -1.3035077e-05
 -1.2736473e-05
  2.2376373e-05
 -2.0833329e-05
  1.2505976e-05
 -1.8132827e-05
  1.0508846e-05
 -1.5863230e-06
 -1.8633848e-05
  5.2504838e-06
 -5.9092163e-06
  2.3385117e-05
  3.5647720e-06
 -1.4567158e-06
  1.6226621e-05
  1.2029287e-05
 -3.1396121e-05
  2.8285988e-06
  3.8906234e-07
  4.6370105e-06
 -3.2127393e-06
 -2.1775759e-06
  1.4107908e-05
  6.4417773e-06
 -2.2353330e-05
  1.9336963e-05
  3.6063793e-06
  3.9818910e-06
 -9.7975317e-07
  1.8074452e-05
  5.7432458e-06
  3.6540139e-06
  1.7157096e-01
 -7.6837941e-06
  3.2330111e-01
  4.5632987e-06
  2.1726264e-05
  2.2367931e-05
  1.6787182e-05
  3.0321703e-06
  7.1260156e-06
 -6.1854162e-06
 -2.9010163e-05
  2.1260907e-05
  6.1085600e-05
  1.0430110e-06
 -4.1117601e-06
  1.0102175e-05
  2.6832904e-05
 -1.6112344e-05
  2.5561526e-06
 -2.0957907e-06
 -8.1334638e-06
 -6.0170064e-06
 -4.0063878e-06
 -3.2190542e-06
 -5.1308084e-06
  5.8229098e-06
 -6.8773466e-06
  9.5473536e-07
 -3.3439159e-05
  1.8086171e-06
  2.0242155e-06
  1.2676028e-06
 -6.6642082e-05
  4.9019723e-06
  1.4953777e-05
 -2.0215923e-05
 -3.1052539e-05
 -1.5497153e-05
 -4.9941792e-07
  4.9006899e-06
  1.2127714e-07
  2.2261436e-06
 -4.0750137e-06
 -8.6162242e-07
  4.9645969e-06
 -1.9103678e-05
 -8.8028480e-07
  8.3080488e-01
 -1.3607131e-06
  2.5487113e+00
  8.8013767e-06
  1.1901006e-01
 -1.3856017e-05
 -7.2206549e-06
  2.3336101e-05
  2.2607155e-05
  5.7108500e-06
 -1.6818709e-05
  1.1466171e-05
  1.8729921e-01
  7.2689568e-06
  3.4988938e-05
 -6.7558044e-06
 -2.3664754e-05
  2.7960340e-02
  5.5889690e-01
  7.3061146e-02
 -4.5972306e-06
 -2.8078368e-01
 -8.2881361e-06
  6.4995396e-01
  2.6145272e-03
  2.0690843e-05
 -2.9004061e-01
  5.7888356e-06
 -7.4490106e-01
 -1.6014496e-06
  1.0228605e+00
 -5.0673657e-06
  1.5648511e-05
 -6.9305966e-06
 -1.4863473e-06
  9.4354573e-06
  2.0425634e-05
 -5.1711277e-06
 -3.8647750e-01
  4.4052695e-06
  3.3538754e-07
 -1.3483904e-06
 -4.9178143e-06
 -1.1887248e-05
  4.9525461e-06
  1.1295887e-04
  1.0816296e-07
  1.1230282e+00
  6.4540150e-06
 -1.0126618e+00
 -1.7174896e+00
 -4.8985235e-06
 -1.5996422e-06
  3.3385119e-01
 -1.0492699e+00
  7.8212953e-01
  2.3035355e+00
 -1.7805848e+00
 -1.5126479e-05
 -6.2882209e-01
  1.7034248e+00
 -2.3633941e-06
 -3.4153993e-05
 -5.2971578e-01
  3.1325552e-01
 -1.9930260e-01
 -1.0035740e+00
 -2.0668731e+00
  1.9652923e+00
  6.9875914e-06
 -3.0645046e-05
 -1.7506372e-05
  2.3405494e-01
 -3.3113649e-01
 -2.1746811e-05
 -9.0164867e-06
 -5.1246572e-01
  7.6801934e-06
 -2.5853993e-05
  2.2640916e-07
 -2.1518455e-01
 -7.4478477e-01
  9.6946247e-02
 -2.1438882e-05
  2.1231689e+00
  5.3880638e-01
 -2.0634274e-05
  2.9891668e-05
  1.7076119e+00
 -5.0970042e-01
  1.5582849e-05
 -4.8384365e-05
  4.2884205e-02
  1.3795844e-01
 -2.0722648e-05
  1.9816603e-04
  8.7887621e-01
  8.2245640e-02
  1.3408411e-02
 -2.0282911e-05
 -2.5050095e-01
 -4.7415379e-02
  6.3529049e-05
 -1.7926535e-05
  9.8457716e-02
 -1.7248309e-01
 -5.6277954e-06
  2.0143580e-06
 -5.8045741e-03
 -5.6804165e-02
  2.8593506e-06
  6.2501617e-06
  1.0928617e-05
  7.5662647e-06
 -5.7460225e-06
 -2.9378101e-05
 -1.3134229e-05
  5.3265703e-06
 -4.6173423e-06
 -1.7973247e-05
 -5.8057412e-07
  1.7081497e-06
  1.3885398e-06
  5.6574495e-06
  4.0086607e-06
 -5.8651895e-06
 -6.8830855e-06
  4.2541355e-06
  3.2822497e-06
 -5.9454371e-05
  2.0905063e-06
  3.1307991e-05
  3.8650719e-06
 -4.9048198e-05
 -6.1618266e-09
 -2.5096776e-06
 -1.3041525e-05
 -6.8744962e-06
  4.1214012e-06
 -7.9796791e-06
  6.8436771e-06
  2.2593103e-06
  3.1372489e-05
  5.6196664e-06
  3.6159498e-05
  6.8437021e-06
  2.1115537e-05
  7.1007453e-06
  6.4501855e-06
 -1.0834194e-06
 -1.1630976e-05
 -1.3485966e-05
  1.6492479e-06
  5.4348504e-07
  4.0338591e-06
 -2.0354977e-05
  7.6425586e-06
  8.7457192e-06
  4.6177694e-01
  1.2604971e-07
  3.0753265e-05
  5.1676088e-06
  2.4906543e-05
  4.7754306e-06
  1.5827565e-05
 -1.9372115e-05
  6.4041287e-06
  2.5846621e-06
  4.5567100e-07
 -9.7377847e-07
  2.9118668e-05
 -4.2458350e-06
  1.8001558e-05
  1.0825513e-05
  1.3719850e-02
  9.2306655e-06
  4.3678842e-06
 -1.3033450e-06
  4.7191656e-06
  1.9050885e-05
  4.8315062e-05
 -5.8464466e-06
  1.3539981e-04
  1.6557577e-05
  2.2117152e-05
 -2.0076110e-05
  4.7363527e-03
  9.1300053e-06
 -8.7474245e-06
  4.1508911e-06
  3.0028036e-06
 -8.9952491e-06
 -2.0608804e-05
  4.2631182e-06
  5.2198935e-05
 -2.7066111e-05
 -2.6964364e-05
  1.3247138e-06
 -2.7893611e-06
  1.1848903e-05
 -2.8439948e-05
 -1.9482559e-06
  4.2115644e-05
 -4.6949754e-06
  7.2267590e-06
 -1.6183139e-05
 -1.3775896e-05
 -9.1480985e-07
 -3.2395925e-05
 -1.5421390e-05
  6.4371661e-06
  2.3391114e-05
  6.4389505e-06
  8.7674043e-06
 -1.3100073e-05
 -1.8965751e-05
  2.4586639e-06
  9.3742585e-07
 -2.5153722e-05
  6.6375251e-06
  1.4349564e-04
  8.7375847e-06
  5.1611787e-06
  1.9317707e-05
  2.0590755e-05
 -9.6968861e-06
  1.5185421e-05
  2.7914095e-05
 -1.3530189e-05
 -4.1878407e-06
 -5.9800350e-06
 -1.8450455e-05
 -1.5008602e-06
  8.9300584e-06
 -5.7870998e-06
 -7.9372840e-06
 -1.4492320e-05
 -5.0056415e-06
 -1.6730735e-05
  5.0602857e-06
 -9.1902311e-06
  2.2383139e-05
  6.7188744e-06
 -5.7410839e-06
  7.2721654e-01
  2.8071079e-01
  2.2824259e+00
  1.1861553e+00
  3.1015675e-06
  2.5212207e-06
 -1.2724864e-04
  1.4263988e-05
  8.2503405e-08
  5.8906719e-02
  1.1303039e+00
  5.4648131e-01
  5.0839124e-04
  2.7041065e-03
  1.0686852e+00
  9.1341126e-01
 -2.0841179e-02
  2.2754807e-06
 -3.1237578e-06
 -1.1825442e-05
 -7.5864680e-02
  1.4622842e-01
  7.0060456e-01
  7.8238302e-01
 -7.1010835e-02
 -1.9852645e-05
  6.4140224e-01
  3.1062838e-01
  2.4001074e-01
  1.9820754e-01
  1.6866002e-02
  1.8314131e-01
  4.0491346e-01
  3.2979410e-02
  2.4324853e-04
  8.0853152e-01
 -2.2708628e-02
 -1.3565765e-01
  3.8408375e-01
  6.0295355e-01
 -1.0766890e+00
  5.5544958e-03
  2.4829945e-02
  5.1566429e-05
  5.9173369e-01
  5.0401407e-01
  5.8530259e-06
 -5.1685602e-06
  6.5317070e-01
  4.1332005e-05
  5.3112570e-05
 -1.6389854e-06
  5.9716051e-05
  2.1735821e-06
 -1.0427549e-05
  5.7106281e-06
  9.0211725e-01
 -2.4598598e-01
  3.1348131e-06
  2.3420156e-05
  8.5486847e-01
  3.2584846e-04
  3.6612917e-06
 -6.4883047e-06
  7.2574504e-02
 -6.1533902e-02
  6.2569738e-06
 -9.8166447e-06
  4.2603150e-01
  1.0744461e+00
  1.7043357e-06
  1.3850228e-05
  4.3981898e-01
 -7.5175238e-05
  1.1909793e-06
 -1.1466514e-06
  1.8059275e+00
 -3.9156094e-01
 -1.9381614e-06
  1.9576473e-06
  1.0708354e+00
 -1.7724709e-01
  4.0915038e-06
 -2.3910889e-05
 -6.9093131e-02
 -9.5819527e-01
 -1.8401219e-06
  2.7118310e-06
  1.2344059e-01
  2.0848569e-01
  1.7951870e+00
  1.6704260e+00
 -7.7428158e-06
  2.5439454e-06
 -2.0055488e-05
  6.2791891e-02
  5.2658729e-06
  4.8132635e-05
  3.7981847e-01
  3.3368167e-01
  4.9768529e-05
  5.4663005e-06
  3.8254273e-01
  7.0744014e-01
  1.3928584e-04
  4.2472798e-06
  6.6964555e-01
  7.3336083e-01
 -4.1785784e-06
 -6.6920834e-06
  3.7266070e-06
  7.6293433e-01
  8.5297916e-06
  1.5613190e-05
  3.8676080e-06
  7.7937827e-02
  1.2008607e-01
 -1.7463760e-06
  1.0972157e+00
  8.2282454e-01
 -3.2739479e-06
 -5.2312193e-05
  6.6858757e-01
  9.7337788e-01
  5.1716055e-05
 -3.1182706e-06
  2.1637522e-02
  8.0751628e-01
  9.6596003e-02
  2.1440042e-05
  4.2226169e-01
  6.1533886e-01
  8.8813251e-01
  5.5568784e-01
 -3.1824642e-01
 -1.0693102e+00
 -3.1516549e-06
  3.4229577e-01
 -2.9937761e-05
 -1.7773555e-05
  9.6175565e-05
  1.4696871e-04
 -4.8933387e-01
 -4.1192174e-01
  1.9701714e-04
  5.0066352e-01
 -4.6945542e-02
 -1.1727278e+00
  2.6244664e-01
  6.7918551e-01
 -7.3774344e-01
 -5.1298767e-01
  9.1328062e-03
  4.5050386e-01
 -1.0112864e+00
 -2.0862307e-01
 -1.1462672e-01
 -1.0127311e+00
  6.2896788e-01
 -1.4553918e-01
 -1.5823306e-01
 -9.1113490e-01
 -6.8281955e-01
 -1.4668218e+00
  4.4077399e-01
  1.5270094e+00
 -3.7663880e-01
  4.4461226e-01
  4.2275068e-01
  1.6582148e-01
  3.8270965e-01
 -5.9243560e-01
 -3.8181290e-01
 -8.7367642e-01
  2.6995811e-01
 -1.2588392e+00
 -5.6803756e-06
  3.6420074e-01
  5.7709670e-01
  3.9377912e-05
  5.5401646e-02
 -5.5554665e-06
  6.2124618e-06
  1.8022327e-05
 -1.5135871e-01
  3.8890459e-02
  5.7916418e-06
 -5.8824216e-06
  9.8207537e-03
  5.4125482e-01
  1.0591259e-01
  5.1268165e-05
  6.0627258e-01
 -8.5822285e-06
  7.2112763e-01
 -3.6790483e-05
 -7.5939685e-01
  1.5096210e-01
  4.1612169e-05
  2.2207484e-04
  5.2461898e-01
  6.3644838e-01
 -1.7664026e-02
  4.7647748e-03
  4.1678632e-05
 -4.3795210e-01
  1.0610467e+00
 -2.4926204e-03
  5.6434339e-03
  9.5047104e-01
  2.2905582e-01
  1.3858624e-05
 -5.7054956e-02
  4.5266011e-01
 -1.8423334e-05
  5.8776301e-01
  1.0844828e+00
 -6.3469149e-02
 -5.3762462e-02
 -3.6520243e-02
 -7.3542069e-06
 -2.1322071e-06
 -1.1677487e+00
 -2.1468484e-01
  5.2214564e-06
 -1.1405479e-06
 -8.1688553e-01
 -2.3187333e-05
  2.3271863e-05
 -2.0068415e-05
  9.5535961e-06
  4.5265479e-06
 -7.6354468e-07
  1.0585916e-05
 -4.1698117e-02
  9.7287138e-06
  3.2645064e-05
  8.6360697e-06
 -1.5143280e+00
 -1.7580363e-01
  1.0490103e-04
  4.7247809e-06
 -8.7411866e-02
  9.7952601e-05
 -1.8518931e-05
 -1.2631398e-05
  7.2270960e-01
 -3.4215677e-06
  4.3258377e-05
 -8.5656038e-06
 -4.0943360e-01
 -5.1805729e-01
  4.5609290e-06
  4.7497897e-06
 -9.6018970e-01
  1.6490908e-01
  1.1511705e-05
 -5.2796790e-06
 -2.2664864e+00
  5.4457446e-06
 -2.0202682e-05
  2.9447892e-05
 -4.7056666e-01
 -5.2152151e-01
 -3.9997619e-02
  2.1461393e-01
 -3.9010721e-01
  7.4548578e-01
  1.7293603e-05
  3.0265110e-06
  4.3632746e-05
  3.3069942e-02
 -1.2339822e-04
  1.4823033e-05
 -1.1519305e+00
 -3.1822792e-01
 -1.6896392e-01
  2.8929761e-01
  2.0076180e-04
  5.0218827e-01
 -4.0601997e-05
  6.4452164e-05
 -9.6247572e-04
  8.5689658e-01
 -9.0516651e-06
  3.4181798e-01
 -1.0929434e+00
 -4.5023671e-01
 -7.3659408e-05
 -4.2458789e-05
  1.2087228e+00
 -2.6380920e-01
 -1.1112990e-01
  3.8611161e-05
 -1.0090438e+00
 -1.2687219e+00
  8.8599324e-02
  6.9000393e-01
  1.5929406e+00
  7.8011298e-01
 -7.1205598e-01
 -1.2725458e-01
 -6.1195839e-02
 -2.1553690e+00
  1.6625111e-01
 -6.7312020e-04
 -5.7777369e-01
 -1.6097671e+00
  4.3636483e-05
  5.7521388e-06
 -4.5781016e-02
  9.9831480e-01
 -7.3984652e-06
  4.8305992e-06
  3.4410015e-01
  1.8006682e-01
  9.4038696e-06
  5.4499716e-05
 -6.4216065e-01
 -7.6427341e-02
  6.3488806e-05
 -1.6237327e-05
  8.4577702e-02
  4.5702294e-02
 -9.6093700e-06
 -1.0564377e-05
  1.7900504e+00
  9.6067142e-01
 -9.1495704e-06
  1.0238340e-05
  2.0207808e+00
 -2.9204568e-06
 -4.9410369e-06
 -1.0741434e-05
 -2.5931489e-01
 -4.2106098e-01
  7.6048595e-06
  9.6970075e-07
  9.3537241e-01
  9.0634608e-01
  2.7756192e-05
 -6.6618895e-06
  1.1828690e+00
  1.1311131e+00
  1.4424429e-05
 -7.8098974e-06
  8.8504779e-01
 -9.9449968e-01
  8.0216805e-06
  1.7895311e-06
 -1.2714249e+00
 -1.9370332e-01
  3.3489402e-02
  5.5682951e-01
 -4.2304516e-01
  1.7486871e+00
 -2.8362907e-05
  8.8288471e-02
 -3.3390081e-01
  2.3542017e-01
  2.8257486e-01
 -3.8725798e-07
  9.7488701e-02
  7.8199498e-02
  1.6266066e-01
  1.3008018e-01
 -7.9754554e-02
  1.1672671e+00
  9.9794166e-03
  4.1204068e-01
 -9.5704651e-01
  6.4518714e-01
  8.7656844e-01
  1.7172897e-01
 -2.0636375e-01
  4.3729368e-01
 -4.8069096e-01
  4.2799345e-01
  6.8204355e-01
  8.3997205e-02
  1.6102457e+00
  2.4860443e-01
 -3.6919457e-01
  8.7278849e-01
  3.3692408e-02
  2.1814607e-01
 -5.2525312e-01
  8.0573720e-01
 -3.5968021e-01
 -3.0118629e-01
 -2.6773084e-02
 -5.9949514e-03
  2.3075862e-01
  2.8248382e-01
  3.1061876e-01
  3.2547629e-01
  1.5581688e-01
  1.3837913e-02
 -5.8328405e-06
 -8.2484752e-01
 -4.5163088e-06
  1.0559783e+00
  5.8036858e-06
 -1.9681804e-01
 -1.4311551e-03
  4.7959838e-05
 -6.6889716e-06
 -2.0521547e-05
  6.2428121e-02
  2.3954957e+00
 -4.7225770e-01
 -5.9418947e-01
 -7.4045427e-05
  1.4287176e+00
 -3.4551718e-05
 -1.0727503e+00
 -8.0262017e-01
 -4.8077807e-01
  6.6483539e-01
 -6.0064562e-02
  1.1243021e-01
  5.7022080e-02
 -3.5618022e-01
  1.9119027e-04
 -8.3792710e-01
  7.2675323e-01
 -6.7380947e-01
 -1.1005656e+00
 -3.4724423e-01
 -5.4156673e-01
  1.2696043e+00
 -3.4589458e-01
  1.8893929e-02
  1.1190264e-01
 -1.5889924e+00
  1.0846822e-03
  6.7575568e-01
 -9.5471565e-05
  1.3266573e+00
 -5.2248555e-01
  1.2351318e-02
  1.2351318e-02
  1.2351318e-02
  1.2351318e-02
  1.2351318e-02
  1.2351318e-02
  1.2351318e-02
  1.3637571e-02
  1.3637571e-02
  1.3637571e-02
  1.3637571e-02
  1.3637571e-02
  1.3637571e-02
  1.3637571e-02
  2.2688843e-02
  2.2688843e-02
  2.2688843e-02
  2.2688843e-02
  2.2688843e-02
  2.2688843e-02
  2.2688843e-02
  5.2686902e-03
  5.2686902e-03
  5.2686902e-03
  5.2686902e-03
  5.2686902e-03
  5.2686902e-03
  5.2686902e-03
  6.7042597e-03
  6.7042597e-03
  6.7042597e-03
  6.7042597e-03
  6.7042597e-03
  6.7042597e-03
  6.7042597e-03
  9.4439611e-03
  9.4439611e-03
  9.4439611e-03
  9.4439611e-03
  9.4439611e-03
  9.4439611e-03
  9.4439611e-03
  3.9853578e-04
  3.9853578e-04
  3.9853578e-04
  3.9853578e-04
  3.9853578e-04
  3.9853578e-04
  3.9853578e-04
