nep4_polarizability 2 C H 
cutoff 7 4 194 39
n_max 6 6
basis_size 10 10
l_max 4 2 1
ANN 30 0
 -8.6365080e-01
  3.4615403e-01
  2.2760980e+00
 -1.0376639e+00
 -1.4265281e-01
 -1.2799454e+00
  1.6084492e+00
 -1.4214130e-01
  5.8190383e-02
 -2.7020290e-01
 -2.6477227e-01
 -9.5560884e-01
 -1.8709255e+00
  1.5532349e+00
  5.8316076e-01
  1.2083075e-01
  1.5972710e-01
 -7.5992718e-02
  1.7042253e-03
 -2.1463947e-01
  1.1926701e+00
  3.0685279e-01
 -3.3056520e-02
 -2.4266776e-01
 -5.1130545e-01
  8.9245057e-01
 -1.8775270e+00
  5.3387451e-01
  3.3531800e-01
  6.3595897e-01
  2.0368260e-01
 -1.5890255e+00
 -2.1809384e-01
 -1.2293830e+00
  7.6472640e-01
  2.5629377e-01
  6.2723048e-02
 -1.0153111e-01
  6.4154649e-03
  1.5211932e-01
 -4.0474167e-01
 -2.5632605e-01
  1.3580519e-01
 -4.3683004e-02
  7.6222369e-03
 -8.7626785e-02
 -5.9203051e-02
  2.4444821e-01
 -3.4465989e-01
  6.6243112e-01
 -1.9172657e-01
 -3.3606534e+00
 -3.5881004e-01
  1.1393218e+00
 -1.6772103e+00
 -1.4156833e+00
 -1.2966157e-01
 -2.1407698e-01
  2.9554951e-01
 -8.5194513e-02
  4.6128493e-02
  3.6273548e-01
  4.2058638e-01
  1.0886526e-01
 -2.8662211e-01
  4.4780031e-01
 -1.0701235e-01
  3.8757467e-01
 -1.5878150e-01
 -2.0537967e-02
 -1.0265853e-01
  1.4697954e-01
  1.3801824e-01
 -5.2582193e-02
  1.1084560e-01
  1.2831712e-02
 -1.5277633e-01
 -7.9545969e-01
  3.9900669e-01
 -1.7560620e-02
  1.3954254e-02
 -3.1462833e-02
 -6.4332944e-01
 -1.6192992e-01
  4.5021269e-01
  2.0193116e-01
  1.5630949e-01
  1.0069544e-02
 -1.8585590e-01
 -5.6466446e-03
  9.2401288e-02
  1.0121983e+00
 -3.0721612e+00
  1.7086796e-01
 -1.7469805e-01
  6.7394576e-03
  1.1065805e+00
 -4.2396754e-02
 -2.1613736e+00
  1.4584931e+00
  8.5023332e-01
  2.0974612e+00
 -1.7043918e+00
 -2.1275818e+00
  1.9120868e+00
 -4.3932714e-02
 -1.1344876e-01
  2.0224339e-01
 -3.7629518e-01
 -1.5634117e+00
  1.5752327e-01
 -8.1811398e-01
 -7.2800797e-01
  5.0841767e-01
 -8.2097811e-01
  4.3863624e-02
 -4.7755504e-01
  1.2305207e+00
 -4.2850274e-01
 -5.9120059e-01
 -9.9186230e-01
  2.8362757e-01
  4.7902140e-01
  7.1407312e-01
  3.0800669e+00
  2.9441705e-01
 -4.5035619e-02
 -1.1616151e+00
  2.3516171e-01
 -1.3483712e-01
  1.1678865e+00
  5.3556830e-01
 -2.7787760e-01
  9.5482282e-02
 -8.3074950e-02
 -1.4054978e-02
 -1.4041322e-02
  1.0623528e-01
 -3.4126648e-01
 -4.6666969e-02
  8.1547245e-02
  5.8652645e-01
  1.3477977e-01
  2.0380342e-01
  4.1044533e-02
 -1.0700787e-02
  5.3437110e-02
 -2.1341859e-01
  1.2684793e-02
 -1.3006975e-01
 -2.3356237e-01
  1.0816733e+00
 -1.4975321e-01
  5.3964365e-01
 -2.2271185e-01
  1.1875269e-01
  3.8874935e-02
  2.1252958e-01
 -2.6721131e-02
  1.3267049e-01
 -2.7542859e-03
 -2.4351699e-02
  3.4993395e-02
 -3.5188881e-01
  1.6575340e-02
 -3.2847293e-02
  5.4349817e-02
 -8.6395964e-03
  6.6624489e-03
  4.4915091e-02
 -2.4780596e-02
 -1.0530488e-02
  6.1023928e-02
  2.9887199e-02
  5.6578740e-02
 -6.7627564e-02
  3.9415218e-02
 -2.0687688e-02
 -1.7875692e-01
  3.3145609e-01
 -4.7510557e-02
  3.1020501e-01
  9.1174603e-02
 -2.7224669e-02
 -3.3563700e-01
  1.2269602e-01
 -1.8476155e-01
  2.6364338e-02
 -1.7821582e-02
  3.1856608e-02
 -3.8072906e-02
 -9.3577437e-02
  6.0644079e-02
 -7.6423980e-02
  1.2385500e-01
 -3.8389858e-02
 -1.0972434e+00
 -2.1134779e+00
  2.9243259e+00
 -3.8307485e-01
  2.3590722e+00
  4.5288047e-01
 -3.1987183e-02
  6.0649738e-02
  1.7599383e-03
  8.4489769e-01
 -1.2109575e-01
  4.8304072e-01
 -4.1359682e-02
 -3.9298934e-01
  5.8890760e-02
  6.1208296e-01
  9.6061170e-02
  8.1033580e-02
 -4.0600389e-01
  1.8483564e-01
 -2.5530154e-01
  9.6470021e-02
  1.1124227e-01
 -7.6059133e-01
 -9.5260590e-01
  8.8142328e-02
  9.2202127e-02
  1.9222796e-02
  3.9862279e-02
  1.1052589e+00
  2.7883640e-01
  1.9183546e-01
  1.2295531e-01
  3.7679371e-01
 -1.8897115e+00
 -3.7708043e-04
  7.9426974e-02
  9.5916037e-03
 -7.2558150e-02
 -5.0809139e-01
  5.0720010e-02
  1.1021844e-01
  8.5916299e-01
  7.4688599e-02
  9.9017598e-02
 -1.8212448e-01
  5.4021869e-02
  1.2033278e-01
 -4.6857636e-02
 -6.1128575e-01
 -2.4797428e-02
 -3.0742502e-01
  6.2899347e-03
  5.3457938e-02
  4.4034037e-01
 -2.1451637e-01
 -7.9472549e-02
  1.7841272e-01
  3.1626865e-01
 -4.9704801e-02
  3.5923731e-02
  2.8108269e-02
 -3.3070865e-01
  2.8423861e-02
 -2.1778082e-02
  7.7823557e-02
 -2.1831175e-02
 -7.3666200e-02
  3.6372063e-01
 -2.6302893e-02
  3.9839685e-02
  7.8291349e-02
  2.6318777e-01
  1.9523312e-01
 -3.8448736e-01
  2.2746594e-01
  3.2396913e-01
  1.7562391e-01
 -9.1147862e-02
 -2.1800706e-02
 -2.7509255e-02
  1.0159743e-01
  2.1191753e-01
 -9.1334537e-02
  7.4855494e-01
 -2.5481990e-02
  5.8681313e-02
 -9.8634567e-03
  2.7312845e-01
  1.4665788e-02
  6.1460108e-02
 -1.0732748e-02
 -2.3782257e-02
  2.6118636e-01
 -7.6386156e-03
 -1.7392423e-02
  9.3203031e-02
 -1.6152246e+00
 -7.0411809e-02
 -5.5938717e-02
 -5.6107208e-02
  6.3101155e-01
 -1.2271323e-02
  2.2888247e-02
  3.3482781e-01
 -5.4648868e-03
 -4.7260232e-02
 -3.5845309e-01
 -6.6432759e-02
 -5.0311483e-02
  1.1021595e-02
  1.1455905e-01
  2.1955593e+00
 -1.3679340e-01
  7.6579906e-02
 -1.6460780e-02
  8.0550328e-02
 -2.1248279e-02
 -1.4501329e-01
 -1.5554221e-02
 -1.4844440e-01
 -1.5815130e-01
 -2.0133361e-02
  2.4643615e-02
 -1.2591331e-01
 -5.1785246e-02
 -1.8867524e-02
 -7.7505782e-02
  5.6269413e-01
 -1.2145374e-01
 -2.9420313e-01
  3.5383426e-02
  2.8970031e-02
  6.4134188e-02
  8.4074132e-02
 -5.0140393e-04
  6.2822640e-02
 -5.7808500e-02
 -2.4442488e-02
 -2.5311813e-02
  1.6693461e-01
 -9.1701455e-02
  7.7900074e-02
  3.8101278e-02
  8.9932583e-02
  6.4932317e-02
 -4.7001656e-02
 -2.8010136e-02
  2.5148284e-01
 -2.4366274e-01
 -1.7504336e-02
  3.5666469e-01
  6.3228160e-02
 -2.3069884e-01
 -3.5594895e-02
  6.5412946e-02
 -2.8022018e-01
  6.2015263e-04
  2.4553549e-01
 -3.5912693e-02
  2.0269902e-01
  5.2828682e-03
 -5.5806988e-01
  1.6224277e-01
 -3.2221282e-01
  1.1238970e-01
 -1.9517610e-02
  7.7111065e-02
  2.6344723e-01
  5.8188584e-02
 -2.6395324e-01
 -4.4082201e-01
  2.9153246e-01
  4.7672135e-03
 -1.1713947e-01
  4.1189127e-02
  1.2958325e-01
 -4.4910293e-02
  1.0900141e-02
 -7.3601790e-03
 -3.2963321e-02
  6.7989516e-01
 -2.8982684e-01
  7.1963519e-02
 -3.1511831e-01
  2.5991216e-01
  1.0896318e-01
  1.4916796e-03
  1.0175081e-01
 -9.2607126e-02
 -3.1624672e-01
 -4.2462185e-02
  6.0383499e-02
 -1.8968883e-01
 -4.7096010e-02
  6.9991529e-02
  7.2573185e-02
 -4.2465335e-01
  1.4566085e-01
 -1.5082951e-01
  9.2663184e-02
  4.8430618e-02
  5.8986004e-02
  1.2091709e+00
 -1.3360555e-01
  2.0982409e-01
 -9.3798093e-02
  7.2708629e-02
  1.5367469e-01
 -1.4137115e-01
  5.1123911e-01
 -7.7000551e-02
 -2.1513231e-01
  9.9579625e-02
  1.6660212e-02
  9.8395757e-03
  1.7477326e-01
  6.4922601e-02
  6.1045405e-02
  1.7090839e-01
  4.1830357e-02
  1.4056811e-01
 -3.0656460e-01
  2.1573435e-01
 -4.9676694e-02
 -8.3389260e-02
  6.4524487e-02
  3.9551146e-02
  8.5582752e-03
  3.2919779e-02
  1.7773275e-01
 -4.7664467e-02
  1.8714151e-01
  2.0080045e-01
 -9.4877921e-02
 -2.5807798e-02
 -3.0152766e-02
  8.4073674e-03
  2.3173045e-02
 -4.8412289e-02
  2.2413550e-01
 -5.1605064e-01
 -1.2520146e-02
 -1.7490057e-02
 -4.4731859e-02
 -2.6312193e-02
 -7.3047645e-02
 -6.6117853e-01
  6.0428035e-02
 -8.8124394e-02
 -6.8601646e-02
 -1.9364995e-01
 -1.6433796e-01
 -1.1122718e-01
  3.2541133e-02
  1.9628736e-01
  1.7792791e-02
 -5.6246623e-02
  3.7571780e-02
 -4.3086499e-02
  8.5816808e-02
 -1.3411266e-01
  4.8413899e-02
 -7.5596255e-01
  3.0032644e-01
 -1.2933989e-01
  4.4037810e-01
 -1.9921442e-02
 -6.7434244e-02
  5.8988404e-01
 -2.8335194e-03
  1.8960141e-01
 -4.9563531e-02
  7.5581118e-02
 -1.1135014e-01
  1.5051816e-01
 -6.8716872e-01
 -6.7675762e-02
 -3.6415689e-02
 -3.4158048e-01
 -2.7867386e-01
  4.7654551e-03
  6.9212057e-02
 -3.8482931e-02
 -3.2947063e-01
 -9.5366603e-03
  2.0419414e-01
 -3.5900301e-01
 -1.3207376e+00
  3.2471770e-01
 -3.7787300e-02
 -1.3737312e-01
 -9.1595761e-02
  3.9276463e-01
  3.9252318e-02
 -1.1798558e-02
 -1.1276511e-02
  8.1842020e-02
 -1.2364986e-01
 -2.6306465e-02
  1.0029905e-01
  1.5071730e-01
  1.3142712e-01
 -2.0049328e-02
 -9.6104536e-03
  2.2874696e-02
 -1.9156891e-03
 -1.2502394e-03
  1.3476136e-01
  2.0401068e-01
  4.6244463e-01
  2.6290247e-03
 -2.4545249e-01
  2.3166746e-02
  1.3432801e+00
  8.4855324e-03
  1.0959733e-01
  2.1419320e-01
 -9.4283782e-03
  2.2920160e-01
  3.4902681e-02
 -4.2308775e-01
 -3.2651308e-01
 -1.6913413e-01
 -7.6431863e-02
  8.0746643e-02
 -5.7309017e-02
 -3.6778864e-02
  1.9365120e-01
  3.3451220e-01
  9.6302025e-02
 -2.5968546e-01
 -1.8109676e-01
 -1.5772468e-01
 -1.7181477e-01
 -4.8336659e-02
  1.2027992e-01
 -2.9140452e-01
 -2.8071508e-01
 -5.9107810e-05
  1.0777003e-01
 -4.5060609e-02
 -6.9653355e-02
 -3.1884041e-01
  7.4799341e-01
 -9.4270408e-01
  7.8997076e-01
 -2.2476128e-01
 -1.6410738e-01
 -1.9158812e+00
 -5.5778019e-02
 -2.6669848e-01
  2.9163858e-01
 -4.3069154e-02
 -1.9969347e-01
 -4.3016203e-02
 -1.0134155e-01
  1.2187293e-01
  1.3573632e-01
  1.9710718e-02
  5.0012283e-02
  8.9489473e-03
  1.2687996e-01
  9.4618239e-02
  2.2000933e-01
 -8.6675502e-02
  2.2231402e-01
  3.8662236e-02
 -5.4732036e-02
  8.4330112e-02
  1.3251435e+00
 -6.9326252e-02
 -4.3950596e-01
 -1.3020915e+00
 -1.2798159e-01
 -7.1750003e-01
 -1.6688244e-01
 -8.2540786e-01
 -6.6632017e-02
 -1.1904927e-01
 -6.0146924e-02
 -1.4582969e-02
  8.9924999e-02
  1.2793911e-01
  1.5576063e-02
  8.1640743e-02
  1.9566461e-01
 -1.9635406e-01
  9.7676925e-02
  7.2161019e-02
  9.2891447e-02
  1.4688957e-01
 -5.2405454e-02
  6.7159730e-01
 -5.1832095e-02
 -4.0089005e-01
 -2.4947787e-02
  9.7405873e-02
 -2.7057880e-01
  1.9370244e-01
 -1.1394440e-01
 -4.7922726e-03
 -2.1026380e-02
  9.3312931e-01
 -1.4495601e-01
 -3.2253843e-02
  1.3171297e+00
 -2.7195501e-01
  1.1715656e-01
 -7.5416058e-02
  6.2013831e-02
  6.6961125e-02
 -2.1516316e-01
 -2.8610369e-02
  3.6539665e-01
 -2.3005502e-02
 -3.7447874e-02
 -1.0990635e-01
  7.9814158e-02
 -1.7990734e-01
 -3.5673115e-02
  1.0931326e-01
 -2.7624208e-01
  6.5496169e-02
 -2.4625084e-01
 -6.2585953e-03
 -1.9486897e-01
 -2.0831752e+00
 -2.4777183e-02
  2.1887290e-01
 -2.3722058e-02
  4.4538151e-02
 -3.7669759e-02
  3.2058273e-02
 -6.5783039e-02
  2.2278543e-01
 -1.8783748e-01
  1.9496606e-03
  5.2370638e-02
  5.7423937e-01
 -1.4020027e-02
  1.2073444e-02
  4.8194599e-01
  4.2145490e-03
 -5.1336026e-01
  2.6365986e-01
  2.6827345e-02
 -2.5059107e-01
  4.6122234e-02
  9.5922880e-02
  4.1279215e-02
  1.7846099e-01
 -1.1570597e-01
  1.5637042e-01
  6.8956010e-02
  1.3652383e-01
 -1.1067058e-02
  2.5675157e-01
  4.7196954e-01
  6.0656834e-01
  6.7806363e-02
 -5.0347310e-02
  1.6411066e-01
  2.2805637e-01
  5.4321647e-01
  9.2205353e-02
 -3.0278474e-01
 -6.7123375e-03
  5.7084509e-03
  2.1176936e-02
 -2.7906310e-02
 -7.0960954e-02
 -5.6479901e-02
 -2.1512640e-01
  3.5064965e-01
 -2.8054723e-01
 -7.4771538e-02
  7.1437277e-02
  2.3311621e-01
  5.1171336e-02
 -1.9402126e-02
  6.4673752e-02
 -1.2014440e-01
  1.3483463e-01
  3.7085187e-01
  1.6312433e-02
 -1.3355234e-01
 -2.5814991e-02
 -2.9291315e-02
 -3.9986145e-02
  6.6212051e-02
 -8.8052914e-02
  2.3818676e-01
 -2.8363010e-02
 -9.7381324e-03
 -1.4767212e-01
 -2.3468332e-02
  1.9349051e-01
  1.3089757e-01
 -1.6068529e-01
  3.5217796e-02
 -4.6787705e-02
 -5.5581067e-02
  1.6405948e-01
  2.9729015e-01
  2.5315067e-01
 -6.9597080e-02
 -4.1174730e-03
  5.9753250e-02
  1.2576272e-01
  1.2680222e-01
  2.8168836e-01
 -6.4542972e-02
  1.3484684e-01
  3.0189788e-02
 -7.3807281e-03
 -8.3915308e-02
 -2.4190355e-02
  1.5647680e-02
  7.5938199e-03
  1.5645911e-01
 -4.3145446e-03
  3.4919002e+00
  1.9969867e-01
 -4.6716783e-02
 -2.9722752e-02
  1.2441280e-01
  7.6479882e-02
  2.2829562e-02
 -6.2044910e-03
  3.5248527e-01
  1.4890189e-01
  7.9161942e-02
 -1.5464867e-02
 -6.2281318e-02
 -1.3332888e-01
 -5.9480768e-02
  3.1050014e-01
 -2.8643139e-02
  2.9636128e-02
 -4.6111614e-02
  2.1088554e-01
 -7.0100307e-02
  2.7001756e-03
 -8.4981769e-02
  9.6161418e-02
 -9.2826255e-02
  2.4643414e-01
 -1.9385161e-01
 -1.4234407e-01
 -7.9146624e-02
 -1.0888378e-02
 -1.6010581e-01
  1.0985458e-01
  1.4066032e-01
  1.3874753e-01
  2.0372669e-01
 -1.7286618e+00
  2.5798768e-01
 -2.7963693e+00
 -1.0341114e-01
  3.4265837e-01
  3.1072706e-02
 -3.3630070e-01
 -1.8277189e-01
  1.6131802e-02
 -3.0893993e-01
  1.1220433e-01
 -2.5730988e-01
  1.1553936e-01
 -2.1398468e-02
 -1.2476887e-01
 -5.6394659e-02
 -2.5998345e-01
 -2.6103776e-02
  4.9566500e-02
 -1.7201525e-01
  2.1035802e-02
  4.4614047e-01
  2.3836638e-01
  7.8775607e-02
  1.1855538e-01
  6.5779746e-02
  2.2514457e-01
  1.4601736e-01
  1.0121012e-01
  6.1580084e-02
 -3.6306825e-02
 -2.5880870e-01
  1.2240368e+00
  8.1431931e-01
 -9.6312141e-01
  9.2723775e-01
  1.8645904e+00
  3.0619595e+00
 -4.2708242e-01
  1.5576316e-01
 -1.6307330e-01
  2.3483831e-01
 -1.6776699e+00
  3.1914410e-01
 -1.6960826e+00
  9.5147032e-01
 -3.6096653e-01
 -2.7944717e-01
 -8.1563085e-02
 -2.1122229e-01
 -1.7191456e-01
  5.9333839e-02
 -9.2806369e-02
 -2.4846211e-01
 -4.1711569e-01
 -4.3904163e-02
  4.8749298e-01
 -5.5158760e-02
  8.3008848e-02
  1.6515069e-01
 -1.0127420e+00
 -1.6852187e-01
  1.8275952e-01
  6.5992326e-01
  6.2563968e-01
  6.2066531e-01
 -3.8932871e-02
 -8.3842076e-02
  1.0305253e-01
 -1.3664245e-02
  1.1179543e-01
 -1.5440002e-02
 -1.3085444e-02
 -8.6611293e-02
 -1.2666105e-01
 -2.1397129e-02
  5.0940193e-02
  3.9594114e-02
 -1.9206354e-02
 -1.2589463e-03
 -7.7714223e-01
 -9.2374980e-01
 -7.1118645e-02
  6.9921505e-01
 -1.9947783e+00
  5.5051726e-01
  3.0922300e-01
 -3.5354549e-01
  9.3889564e-01
  4.3822315e-02
 -2.7072963e-01
  2.4551238e-01
  7.0369631e-01
 -1.7769969e+00
 -8.9749031e-02
  2.0558986e-01
 -4.7584097e-03
  7.2368355e-03
 -2.9381746e-01
 -8.2778841e-01
 -4.9060521e-01
 -9.2127435e-02
  3.9195364e+00
  2.5191528e-03
 -1.2754185e+00
  2.4512580e-02
 -1.4840314e+00
 -3.9386045e-02
 -6.0911998e-02
  1.3408501e+00
 -5.0441486e-01
 -2.5843652e-03
  1.7387269e-01
 -2.2911076e-01
 -5.1704782e-01
 -1.6995789e-01
 -1.4403509e-01
  1.1842215e-01
 -4.2837184e-02
  2.1805751e-01
  3.2402810e-03
 -5.7548456e-02
  3.9972469e-02
 -2.4848489e-02
  1.3607249e-01
 -2.0636407e-01
  3.2054231e-02
  1.3081640e-01
 -1.3368407e-01
 -1.1969238e-02
 -2.0819846e-01
  1.1377888e-01
  7.8552384e-03
 -3.2130107e-02
 -1.2507631e-01
 -9.2560127e-03
  1.3958365e-01
 -1.1514185e-01
  1.2438645e-01
 -1.1754771e-02
 -6.0039811e-02
  6.4622736e-01
  1.7163295e-01
 -1.9251972e-01
 -1.3711871e-02
 -9.0588287e-02
 -6.9355056e-02
  5.6476104e-03
 -8.7174982e-02
 -1.2487306e-01
  1.5824813e-01
 -1.2886606e-01
  2.5903585e-03
 -1.3869342e-02
  2.0278676e-01
  1.0135503e-01
 -3.8246181e-02
  6.8408281e-02
 -2.1119048e-01
 -1.8399510e-01
 -3.7006414e-01
 -5.9463877e-02
  6.2255254e-03
 -1.6088140e-01
  3.5227772e-02
 -2.4188149e-01
 -5.9545957e-03
  5.4918442e-02
 -1.0532521e-01
 -5.1043510e-02
 -4.1414022e-01
 -4.2413238e-02
  1.8912648e-01
  1.3482305e-01
 -1.0984487e-01
 -2.1655443e-01
  1.1562430e-02
  3.9969641e-01
 -2.8197560e-02
 -6.1234877e-02
  1.3969068e-01
 -1.2527926e-01
 -8.4482670e-02
 -2.8503853e-01
  2.7645869e-02
 -6.1956659e-02
  1.4628296e-01
 -4.4162508e-02
 -9.0609215e-02
 -3.6909696e-01
  1.8543050e-01
 -2.9164054e+00
 -1.0512328e-01
 -6.5418519e-02
  6.4977504e-02
  2.8117681e-02
  2.0390972e-02
  1.8550007e-02
 -4.5179561e-01
  1.2639071e-01
  1.2591617e-01
  2.1573156e-02
 -2.1877109e-01
  1.2382559e-01
 -2.2028653e-02
 -6.2020924e-02
 -7.8267023e-02
  1.0803445e-01
 -5.5795698e+00
 -9.1137663e-02
 -8.2916357e-02
  9.4188362e-02
 -3.0286845e-02
  6.1950177e-02
 -7.2315627e-01
  3.5881229e-02
 -5.4831911e-02
  9.1747172e-02
 -1.0422008e-01
 -4.4698674e-02
  6.1223444e-02
 -4.1264382e-01
 -7.8473657e-01
 -3.6936663e-02
 -8.0570482e-02
 -1.2416122e-02
  1.9421721e-02
  3.5226654e-02
 -6.0675138e-01
  6.9036074e-02
  1.6755976e-01
 -5.6363553e-02
 -8.3130123e-03
 -4.9967479e-02
 -2.0755051e-01
 -2.7172774e-02
  2.7414003e-01
  8.2085714e-02
 -3.4897387e-01
  1.0562229e-02
 -6.4143598e-02
 -5.0069775e-02
  9.9023275e-02
 -6.3785225e-02
  8.4425680e-02
  7.2350368e-02
  4.0671948e-01
 -4.6360206e-02
 -2.4557206e-01
 -1.5522439e-03
 -6.9738966e-03
 -1.4776727e-02
 -8.4291086e-02
 -1.0393689e-01
 -1.1551496e-01
 -3.8837258e-02
  3.9219725e-01
 -9.9684514e-02
  1.3773723e-01
  1.1414601e-02
 -1.8573595e-02
 -2.1106765e-01
  1.3708778e-01
 -1.4103796e-01
  2.2114553e-02
  6.8121456e-02
  3.4449971e+00
  1.3461545e-01
  5.5137299e-02
 -2.7874541e-02
  9.8030441e-02
 -4.2049527e-02
 -2.1284847e-02
 -8.3414555e-02
  3.7536964e-02
 -1.1574052e-01
 -4.6831545e-01
  3.7524101e-01
  3.4589395e-02
  1.7764014e-01
  3.4525785e-01
  4.4813126e-02
 -4.7612384e-01
 -1.9522218e-01
 -1.3749529e-01
 -4.2570227e-01
 -3.7443228e-02
 -2.8563099e-02
 -5.1941741e-01
  7.4696228e-02
  5.3381473e-02
 -1.2995419e-01
  6.2845871e-02
 -6.7818244e-03
 -1.9914578e-01
 -1.1860211e-02
 -1.6579199e-01
  6.1584409e-02
 -2.7690589e-01
  7.1179807e-02
  5.2952733e-02
 -1.0188879e+00
 -3.4050408e-01
  1.5980963e-01
 -8.7127186e-02
 -5.4880601e-01
  2.9804912e-01
 -9.0695821e-02
  2.0400581e-01
  2.9303405e-02
  3.6848009e-02
  8.2157746e-02
  1.5982473e-01
  1.9782143e-02
 -3.9587618e-04
 -6.2821314e-02
 -1.3475797e-01
 -3.4847952e-02
  1.1299790e-02
  1.5851176e-01
 -1.8360110e-01
  6.1062586e-02
 -2.9889032e-01
  1.1206466e-01
  7.1206614e-02
 -9.5047660e-02
 -7.8629762e-02
  3.1242093e-02
  3.9039116e-02
  2.3372318e-01
 -1.9444416e-01
  2.6188515e-02
 -2.1539637e-01
 -5.3427882e-02
 -2.7202958e-01
  1.6638955e-01
 -1.5742947e-01
 -4.9044639e-03
 -7.3649839e-02
 -2.7495092e-01
 -8.1773072e-02
  1.9380070e-01
 -2.3570283e-01
 -3.3965927e-02
 -6.0828041e-02
  4.9260452e-02
  1.3876811e-01
 -4.9159378e-02
 -2.5068978e-02
  2.2991368e-01
  2.5943607e-02
  9.4646640e-02
 -2.8309297e-02
 -1.2634848e-01
  3.8662154e-02
  3.3225226e-01
 -2.8684013e-02
 -1.4651225e-02
  2.4186999e-02
  8.7040216e-02
  1.1004916e-02
 -3.6698923e-01
  1.3839236e-01
 -1.6817857e-01
 -9.5237084e-02
 -9.3788087e-02
 -4.2338427e-02
  1.9017389e-01
 -8.1811070e-02
 -1.7589331e-02
  6.5907463e-02
 -2.6137879e-02
  3.6412174e-01
  2.4614060e-02
  6.8830830e-01
 -2.6157215e+00
  1.8797990e+00
 -1.9172481e+00
 -3.3790156e-01
  1.6575468e+00
 -4.8989627e-01
 -9.9415377e-02
 -3.8248631e-01
  1.4488269e-01
  1.5438819e-01
  1.0441967e-01
 -3.6327854e-02
  6.2131848e-02
 -4.6151158e-01
  5.9338856e-01
 -1.9303699e-01
 -1.7977042e-02
 -1.5595677e-02
 -2.9540334e-02
  3.5079569e-01
 -7.2538994e-02
 -2.2473083e-01
 -1.5499973e-01
  1.3237782e-01
 -6.4009294e-02
  4.2057878e-01
 -3.1656496e-02
  9.7305976e-02
  7.2201766e-02
  2.3658445e-01
 -8.1696557e-03
 -4.6829611e-01
 -6.4280301e-01
  7.3020232e-01
 -2.0974560e-01
 -2.8058182e-02
 -2.0576951e-01
 -1.7109908e-01
 -9.3298234e-02
  1.3279074e-01
 -2.1990184e-02
 -2.9987264e-01
  1.2627988e-01
 -4.7060914e-02
  1.9395150e-01
  1.9963495e-01
  6.8133198e-02
  6.5878823e-02
  2.8174338e-01
 -4.1050186e+00
  3.7369367e-02
  1.0644734e-01
  3.6975306e-01
 -2.3594250e-01
  4.1167121e-02
  1.3731118e-02
  6.7121506e-02
 -4.6645831e-03
  2.6704092e-02
  1.7751054e-01
 -1.8696946e+00
 -7.6062286e-01
 -2.4904952e+00
 -1.0684828e-01
 -3.1578279e-01
  9.8902203e-02
  3.9646509e-01
 -7.6586500e-02
 -6.5635191e-04
  9.2447601e-02
  1.6013367e-01
 -2.2008684e-01
  1.0646134e-01
 -1.2289904e-01
 -5.4737031e-02
  8.4773125e-03
 -9.7809523e-02
 -7.4225045e-03
 -1.8141050e-02
 -1.0004531e-01
  3.2462325e-02
 -2.0241135e-01
  1.2608367e-03
 -2.4229415e-01
  2.8465695e-03
 -8.4857538e-02
 -7.2593540e-02
  2.1249247e-01
 -5.9268139e-02
  4.2579848e-02
  1.0559565e-01
  2.3165777e-01
 -1.1722919e-01
  1.0320661e-01
 -3.7560210e-02
  3.2000765e-02
 -1.0943352e-01
 -2.5894839e-02
  2.9024467e-02
  1.7919175e-01
  7.2082460e-02
 -1.7158283e-02
  3.8359261e-01
 -1.9804753e-01
  4.8263124e-01
 -1.0340632e-01
  6.4476281e-01
  7.1682252e-02
 -7.5411581e-02
  2.8620335e-01
  4.8574274e-03
 -1.3883696e-01
 -1.9961174e-01
 -3.6734375e-01
  2.5613835e-01
  1.9898017e-01
  1.7921191e-02
 -1.7417206e-01
  1.7259891e-01
  1.0576796e-01
  2.3194470e-02
  4.7317415e-01
 -3.7810352e-01
  6.4735048e-02
  7.1383372e-02
 -2.9958464e-02
  2.4936108e-02
 -1.3161023e-01
 -1.7543386e-01
 -3.1741717e-01
  3.0511770e-02
 -6.9212651e-01
  3.1757861e-01
 -3.2280844e-02
  1.0931717e+00
  2.3684153e-02
 -1.2736370e-01
  1.3943260e-02
 -3.6638610e-02
 -3.1145597e+00
 -1.1694019e+00
 -3.0952111e-01
  5.5190701e-02
  6.8569258e-02
 -6.6365138e-02
 -1.3025464e-01
 -6.1535049e-02
 -1.4863814e-01
 -7.7641197e-03
  6.1927521e-01
  6.3463159e-02
  1.2948494e-01
 -3.3465903e-02
 -1.5196016e-01
  2.3890242e-01
  1.1762860e-01
 -1.8483312e-01
  1.6830783e-01
  3.8101259e-01
  2.3559944e-01
 -7.1187623e-02
  5.2131325e-02
 -1.3372663e-01
 -2.4885508e-01
 -1.7591136e-02
 -4.1033456e-01
  2.0118684e-02
 -4.0312628e-03
  5.4569888e-01
 -1.9311421e-02
 -1.1766464e-01
  1.0832730e-03
 -5.3364720e-02
 -6.9790043e-02
 -1.3999208e-02
  1.0891811e-01
  5.6490298e-02
 -6.2445700e-03
 -6.4322874e-02
  1.0442557e-01
  6.6271216e-02
  2.3582483e-02
 -1.1121961e+00
 -1.2534359e-01
 -5.0250228e-02
 -1.1477213e-01
  2.3996530e-01
  2.3318174e+00
 -1.1214615e-01
  2.8394192e-02
  3.9479464e-02
 -8.8538580e-02
 -9.1919374e-01
  1.2590140e-01
 -4.9538881e-02
 -8.2633829e-01
  7.1803612e-01
  1.3836386e+00
 -3.0163965e+00
 -5.6766808e-01
 -1.3225077e+00
  3.0649466e-02
 -5.2490979e-01
 -3.0968934e-02
 -3.7842405e-01
 -5.5713487e-01
  5.7326561e-01
  6.6490132e-01
  9.6508169e-01
  8.6460400e-01
  8.4735155e-01
  1.1189805e-02
 -1.5855509e-01
 -2.1525371e-01
 -9.1143268e-01
  4.8352045e-01
  1.0225243e-01
 -4.7422290e-01
  7.6587957e-01
 -8.5309911e-01
 -1.6275542e-02
  1.8021621e-01
 -7.2915608e-01
 -1.0919162e+00
 -1.2220137e+00
 -1.4524148e-01
  3.8021792e-02
  6.4458692e-01
  9.4017196e-01
  7.0969045e-01
  9.7654477e-02
 -1.1006939e-01
 -1.8192755e-01
 -1.3610646e+00
 -9.2020057e-02
  5.1103279e-02
 -9.3059838e-02
  8.7534405e-02
  3.9753720e-02
 -7.8212358e-02
  2.2334866e-01
 -6.7292750e-02
  1.3657093e-01
 -2.8760668e-02
  3.0802196e-02
  3.5736173e-02
  4.1821972e-01
 -4.1799302e+00
 -1.0508253e-01
 -1.1406443e-01
 -4.0921000e-01
  4.6515457e-02
  3.5897240e-02
 -1.4237863e-01
 -7.8500830e-02
  1.9841658e-01
  9.0519674e-02
  2.4438497e-02
 -1.0257919e-01
 -1.4122171e-02
 -1.1305864e-02
  7.2186952e-03
 -1.1466651e-01
  7.0195735e-02
  4.0684603e-02
 -7.0822671e-02
 -4.3313932e-02
 -5.2817255e-01
  2.5269023e-01
 -9.6987911e-02
  1.4610404e-01
 -1.7414619e-01
  3.4037076e-02
 -3.4743480e-03
  2.6584819e-01
 -1.6045824e-01
  2.9399550e-01
  1.5310093e-02
  3.9612301e-02
  2.2667684e-02
 -9.0991981e-02
  2.0977362e-01
 -1.2435216e-01
  5.3617939e-02
 -7.3878065e-02
  9.6643634e-02
  5.5982564e-02
 -3.2875806e-02
 -1.9879210e-01
 -5.5709612e-02
  1.7939266e-02
  5.4117432e-03
 -2.1170126e-01
  1.0896827e-01
  9.5231175e-02
 -1.2839569e-01
 -9.6589915e-02
 -5.9858918e-02
 -7.7896357e-02
 -2.9264273e-02
 -1.0338085e-01
 -3.6340037e-01
  2.4049178e-02
  1.9333731e-01
  9.4215229e-02
 -2.0170720e-01
  1.6328472e-01
 -3.2034788e-01
  3.5996214e-02
  1.5830101e-02
  5.6470186e-02
  1.9535255e-01
  7.7268668e-02
  1.3415684e-01
 -3.6866631e-02
 -1.5249570e-01
  4.1746739e-02
  9.4312467e-02
  6.2852740e-02
  2.3705645e-02
 -8.1043690e-02
  3.4723333e-01
 -1.2135754e-01
 -4.3874809e-01
  2.1103546e-01
  2.8413478e-01
 -9.6129738e-02
 -8.0540657e-02
 -3.0820656e-03
  4.8236441e-02
  4.3748688e-02
  2.0522520e-01
 -1.3400173e-02
 -2.3610418e-01
  3.7982699e-02
  9.0637945e-02
  3.5616435e-02
 -1.2286382e-02
 -2.5007385e-01
  1.0008649e-01
  1.3660103e+00
  1.2631147e-01
 -2.9989469e-01
 -2.2915134e+00
  1.1218233e+00
 -4.7662318e-01
  2.8835967e+00
 -4.5685370e-02
  4.7305327e-02
 -2.3666921e+00
 -1.6359234e+00
 -4.0709442e-01
  1.0738267e-01
 -2.0743735e+00
 -1.3588091e+00
  5.0069083e-02
 -2.0263839e+00
 -6.5669245e-01
  2.3682942e+00
 -1.6216475e+00
 -1.8006063e-01
  7.9034299e-01
  3.2454722e-02
 -3.2578790e-01
  3.8776522e+00
  4.1852508e+00
 -1.3334914e+00
  4.8948085e-01
  2.9984069e-01
 -4.7816497e-01
 -2.8937653e-01
  1.6100660e-01
  1.0490946e+00
 -4.4910407e-01
 -4.0429220e+00
 -1.6603462e-02
  2.9804856e-01
 -3.1650028e-01
 -9.4535880e-02
 -2.3300692e-01
 -2.3488130e-02
 -1.3829230e-01
  5.9399098e-02
 -2.0018993e-01
 -3.5417083e-01
 -2.1208598e-01
 -8.8405949e-01
  3.5684336e-02
  5.3386563e-01
  2.8972898e+00
  6.3676775e-02
  1.7089842e-01
 -1.4770287e-01
 -3.2027194e-01
  1.5253063e-01
  9.8078907e-01
  1.3247027e+00
 -8.7084180e-01
  3.2492584e-01
  1.7527477e+00
 -2.3958850e-01
  3.1191973e-02
 -1.6464816e+00
  7.3878932e-01
  1.3018967e-01
 -2.9896464e-02
  3.3943074e+00
  2.9628526e-02
 -2.1734121e+00
 -6.1062014e-01
  2.7253488e-01
  2.7230009e-01
 -2.0406680e-01
 -5.8942180e-02
  3.6153089e-02
 -1.6770865e-01
 -4.1277003e-02
  2.9725713e-01
  4.7859639e-01
  3.1480330e-01
  2.5401223e-01
 -5.8800179e-01
  4.5700920e-01
  2.6550594e-01
 -2.7314737e-02
  1.0795677e-01
  2.2563331e-01
 -2.6394520e-02
 -9.1223675e-01
 -9.4698024e-01
  4.9176905e-02
 -3.5665810e-02
 -7.0003873e-01
  2.2700939e+00
 -1.9937047e-01
  7.0056403e-01
  5.1005942e-01
  1.6576247e-02
 -1.0108168e-01
  6.0578689e-02
 -3.8835015e-02
 -1.9396834e-02
 -2.8028572e-01
 -4.5344561e-02
  1.5946385e-02
  3.6541644e-01
 -6.5361202e-02
  1.0962860e-01
  4.8857220e-02
 -2.3838386e-02
  3.8910620e-02
 -8.8129856e-02
  6.6568479e-02
 -1.0976397e-01
  3.6246639e-02
 -8.9096114e-02
 -1.7782481e-01
  1.1744574e-01
 -1.2855190e-02
 -2.7531067e-01
 -1.9660516e-02
 -7.0907988e-02
 -3.0158281e-02
  7.7842069e-03
 -1.3598341e-01
  2.3358592e-01
 -1.9439894e-01
  3.9441861e-02
  1.9557656e-01
  1.7535344e-02
  6.9703424e-01
  1.8609503e-02
 -2.8360277e-02
 -7.8707621e-02
  2.1856649e-01
  6.0550608e-02
 -2.4102628e+00
 -1.6515923e-01
  1.7212708e-01
  1.8760486e-02
 -5.4652568e-02
 -1.1228783e-01
 -3.5589907e-01
  5.8395327e-03
 -2.5416276e-01
  2.9068887e-02
  1.0734522e-01
  3.6875293e-02
  4.3587360e-01
 -7.3023848e-02
 -3.1441491e-02
  3.7315801e-02
  9.0555876e-02
 -2.3045202e-01
 -6.1265782e-02
 -5.2554969e-05
  7.3869929e-02
 -1.5419018e-01
  9.8796757e-03
  6.5479659e-02
 -3.3701426e-01
 -1.2082078e-02
 -2.1715043e-02
  8.5621372e-02
  6.3159525e-02
  8.3027773e-02
  2.0826966e-02
  7.3688142e-02
 -9.6487813e-02
 -2.7358413e-01
  3.4937553e-02
  2.0678364e-02
 -1.3667275e-01
  1.3075951e-02
 -1.1301124e-02
 -1.3701476e-01
  6.4715400e-02
 -2.1834418e-02
  2.0159106e-01
  1.6922726e-01
 -1.4702927e-01
 -1.1515476e-01
 -1.2921022e-01
  8.5200354e-02
  4.6105593e-02
 -6.7590326e-02
  7.3906325e-02
  1.7273510e-01
 -3.4383178e-02
  6.9056082e-01
 -9.6923470e-02
 -1.1503351e-01
  1.4405761e-02
  1.1485839e-01
  1.5965377e-01
 -3.6642221e-01
  3.0121153e-02
 -4.2470053e-02
 -6.8278737e-02
  1.1693209e-01
 -1.8599829e-01
 -9.5715977e-02
 -5.8435511e-02
 -5.9439868e-02
 -1.4299846e-01
 -5.2188698e-02
 -1.6108841e-01
 -1.2717293e-01
  4.3856196e-02
  3.6212218e-01
 -4.1602381e-02
 -9.5866948e-02
 -6.4180219e-01
  1.5167928e-01
 -8.7245815e-02
 -1.7570785e+00
  2.1784329e-01
  4.0482476e-02
 -2.2727260e-02
 -1.5046781e-01
 -1.5066196e-01
  8.6235297e-01
  7.0191956e-01
 -1.9040613e-02
  2.6982361e-01
  2.0061715e+00
 -5.9640996e-02
 -5.0570063e-02
  6.4693674e-02
  1.1090352e-02
  1.6733974e-01
 -7.7858143e-02
  1.2749769e-01
  2.5035638e-01
  1.4533883e-02
  2.2256890e-01
  5.8345117e-02
  3.5135958e-01
 -1.8137972e-01
 -2.2722282e-01
  5.9773779e-01
 -1.6449898e-01
  1.1414712e-01
  6.2435234e-01
 -1.3887122e+00
 -8.0991216e-02
  4.2027563e-02
  7.8922762e-03
 -9.3567833e-02
 -6.2321243e-03
  3.5379618e-01
  3.3120626e-01
 -3.5612798e-01
 -9.7572036e-02
  1.0654133e-01
 -2.2366902e-02
  3.1980108e-02
 -4.3810442e-02
  3.6070511e-02
  2.1266225e-01
  2.9179308e-01
 -3.3408601e-02
 -4.8932564e-01
  1.8104659e-01
 -2.0225115e-01
  4.6607599e-02
  4.3373394e-01
  1.7008561e+00
 -1.5954441e-01
 -1.5374956e-01
 -6.3561356e-01
 -1.2177085e+00
  1.0008314e-01
 -8.0729985e-01
  1.5890853e-01
 -3.2944199e-01
 -1.6919324e-01
  2.8722200e-01
 -2.7368858e-01
  1.5452599e-02
 -4.2668441e-01
 -1.1771046e-01
 -9.3960035e-01
 -1.5329299e-02
 -7.0990568e-01
  1.3316479e-01
  1.4800951e-01
 -1.0186632e+00
 -1.8290381e-01
 -3.6052206e-01
 -3.3322862e-01
 -4.1403204e-01
 -3.5565829e-01
 -3.4359854e-02
 -3.3517681e-02
 -8.4254488e-02
  5.9418571e-01
 -8.7937586e-02
 -8.9636689e-01
  1.0696936e-01
  2.7863100e-01
 -1.8993177e-02
 -6.5834820e-02
  2.0251390e-02
  2.2638403e-01
 -7.6739401e-02
 -2.6025420e-01
 -1.0703942e-01
  5.1900152e-02
  8.3544608e-03
  1.2216755e-01
 -1.8674779e-01
 -9.7735867e-02
 -6.6275841e-01
 -3.2507095e-01
 -1.1609375e-01
 -7.2662123e-02
  9.2500413e-05
  5.7301752e-04
  3.0034196e-01
 -8.2468010e-02
  2.7707002e-01
  1.5711944e-01
 -1.5057659e-01
 -1.3821307e-01
  4.1613199e-02
 -3.1942923e+00
 -6.1781775e-02
 -4.6096817e-03
  1.5874205e-02
 -7.5137591e-01
  2.7023960e-02
  9.1908989e-04
  3.3606240e-01
  6.5354757e-02
 -9.2564235e-03
  1.8445371e-02
 -4.0921845e-02
  1.5032507e-01
  1.7722979e-02
 -1.1426560e-01
  5.3957611e-02
 -2.7708359e-02
  1.0651752e-01
  5.3954769e-02
 -3.4616888e-01
 -7.1328476e-02
 -6.6338742e-01
  4.5623813e-02
 -1.2138791e-01
 -3.6415201e-02
  1.1845684e-01
 -2.3302497e-02
 -5.9531531e-03
 -1.1146481e-01
  3.0916953e-01
  1.2391785e-02
 -2.0814486e-01
  1.6590768e-01
  1.2013821e-02
  8.4885500e-02
 -1.1778318e+00
 -6.2858194e-01
 -9.0177534e-03
 -1.5682037e-01
 -5.7490204e-02
  5.2508488e-02
 -5.4132521e-02
 -1.2388037e-02
  3.8385546e-01
  1.3093956e-01
 -1.2588285e-02
  3.3272099e-01
  1.2291181e-01
 -1.8360803e-01
  3.2843586e-02
  5.0072618e-02
  3.1937055e-02
 -1.5338001e+00
 -3.0284198e-02
  1.4443497e-01
 -1.9903030e-02
  3.6047578e-02
  1.4813589e-01
 -3.6058742e-01
  9.3331970e-02
  7.4140340e-02
 -1.8581997e-01
  1.0993195e-01
  1.3055030e-01
 -1.4492702e-01
 -1.8660082e-02
  1.0957593e-03
  2.8354113e-03
  4.4894475e-02
  1.0072956e-01
 -1.4911701e-01
 -2.3301502e-01
 -1.0977290e-01
 -1.5500114e-02
  2.8407667e-02
  1.1527628e-02
 -8.5990056e-02
  1.1278437e-01
 -4.1269232e-02
  1.5362571e-01
  6.1073463e-02
 -2.0598815e-01
 -8.0710568e-02
  1.5178140e-01
  5.3145908e-02
 -3.1908759e-01
  4.4658069e-02
  1.1759360e-01
  3.4913454e-02
  2.2809362e-01
  1.2325301e-02
 -1.9102187e-01
  2.3254094e-01
  3.2271361e-01
 -4.1268995e-01
 -7.6116554e-02
  4.5027351e-03
  6.1163291e-02
 -9.3602225e-02
 -2.2392257e-01
 -1.4393270e-01
 -4.5946855e-02
 -9.2663854e-02
 -6.6771284e-02
  6.9645010e-02
 -1.1104403e-01
  3.6406836e-03
 -5.0570399e-02
  9.4259350e-04
  2.2286385e-02
 -2.0399840e-01
  1.0163157e-01
 -7.6338977e-02
  2.0038712e-01
 -1.6595601e-01
  6.6919029e-02
  6.3503101e-02
  5.1736963e-01
  3.0336456e-02
 -3.6207789e-01
  4.3698747e-02
  7.7320874e-02
 -5.7168445e-03
  1.1299723e-01
  6.6984817e-03
  1.2810947e-01
 -8.0866009e-02
 -9.7605474e-02
 -2.0332335e-01
 -1.3632710e-01
  3.3032313e-02
 -3.3345771e-01
 -3.7152019e-01
 -1.3225995e-01
  4.9477112e-02
  1.1846992e-01
 -4.1284420e-02
 -3.4378299e-01
  2.1947214e-01
  1.7249574e-01
 -6.3358414e-01
 -6.4027876e-02
 -4.1207898e-02
  2.0121458e-01
 -4.5178074e-02
  2.8916836e-01
  9.5840245e-02
  1.5624958e-01
  1.2211316e-01
  1.4831026e-02
  6.9159281e-01
 -1.3110717e-01
  1.4851181e-01
 -5.8885094e-02
 -2.2897720e-02
  3.7955875e-03
  1.1071972e+00
  5.2396852e-01
  9.2344485e-02
  1.9811533e-01
  3.1880736e-01
 -1.5266752e-01
  8.5366383e-02
  7.8265913e-02
  6.7062765e-02
 -4.8533463e-01
 -2.6985300e-01
  1.3529536e-01
 -1.6202783e-02
 -1.2272607e-01
 -4.1164033e-02
 -7.6577216e-02
  2.6237965e-02
  5.7659797e-02
 -1.0362019e-01
  1.4993431e-01
 -2.3959639e-02
 -8.6470836e-01
 -1.7371430e-01
 -1.2366815e-01
  1.4742859e-02
 -3.8671032e-02
 -5.7711389e-02
  1.4609325e-01
 -2.8720853e-01
 -2.0291334e-02
 -1.8699054e-02
 -1.0520422e-01
  1.4118138e-01
  7.0434310e-02
  1.0171580e-01
  1.9590886e-01
  1.6623850e-01
 -2.9910050e-02
 -1.0070924e-01
 -1.0161208e+00
 -1.9096403e-01
 -2.8620016e-02
  4.1340504e+00
  3.9188851e-02
  1.9622954e-02
 -5.9651993e-02
  5.1071078e-01
 -2.5921950e-01
  7.7737644e-02
 -2.9741289e-02
  4.0205393e-02
 -2.2924533e-02
 -3.8553767e-02
  3.1998318e-01
  2.8122026e-02
  1.7545309e-02
  1.5722394e-01
 -4.8422065e-02
  6.8183430e-02
  1.1296543e-01
  2.7237925e-01
 -5.0583925e-02
  2.3662278e-01
 -5.2697543e-02
  1.6460547e-01
 -5.1470000e-02
  4.2275026e-02
  3.0723853e-02
 -4.1442666e-02
  1.7939365e-01
 -9.4268203e-01
 -2.1474668e-01
  2.9732585e-01
 -3.3116525e-01
 -3.5004735e-01
  1.2865530e+00
 -5.5963653e-01
 -1.8076529e-01
 -9.3277343e-02
  9.7524762e-02
 -1.1861303e-02
 -1.5885422e-01
  1.1897992e-01
 -6.3515723e-01
  3.5886347e-01
 -5.4806575e-02
  1.1654528e-03
 -1.5840188e-02
 -1.8966080e-01
 -2.1795762e-01
  1.9558813e-02
  2.9308724e-01
 -9.5669307e-02
  2.6984337e-01
  3.3792064e-02
 -1.1335754e+00
 -1.3414158e-01
  2.6283157e-01
 -3.9623615e-01
 -3.5271890e+00
  3.9140758e-01
 -8.5798696e-02
 -1.2091994e-01
  8.3310744e-03
 -1.4882296e-01
  7.0432924e-02
  2.0023486e-02
 -1.6108737e+00
 -1.3966724e-01
 -3.4149446e-02
 -2.0216347e-03
  1.6833052e-01
 -1.9470590e-01
 -1.4979872e-02
 -1.0441210e-01
 -1.1969152e-01
 -5.4193426e-02
 -3.4095332e-01
  6.8481457e-03
  1.4110093e+00
  7.7133852e-01
  9.0438271e-01
  9.1134316e-01
 -1.0471640e+00
  5.9861702e-01
 -2.6517618e+00
 -4.0110815e-01
  5.6569356e-01
  2.6526099e-01
  5.4354489e-01
 -1.3752629e+00
 -3.1215690e-02
 -9.9346466e-02
 -8.3127791e-01
 -2.9777449e-01
 -9.0963192e-02
  5.7929665e-01
 -2.7641249e-03
  2.9238304e-01
 -3.9573067e-01
 -2.8164867e-01
 -8.2145786e-01
 -1.2916283e-01
 -2.6256433e+00
 -2.1158279e-01
  1.6483605e+00
 -2.8676906e-01
  1.3574811e+00
  9.3663138e-01
  1.9977069e+00
 -1.2942466e+00
  6.7670099e-02
  3.4887351e-02
 -3.7398592e-01
 -2.6823494e-01
  1.9475880e-01
  7.3987946e-02
 -9.3526292e-01
  1.1125532e-01
 -2.1701357e-01
  7.7166128e-01
  1.0646597e-01
  2.8480929e-01
 -3.0422689e-02
  6.1258912e-01
 -1.2541740e-01
  2.3560221e-01
 -3.6374026e-03
 -8.1181705e-02
 -3.8697388e-02
  5.5174962e-02
  1.7844425e-01
  2.1598840e-01
 -7.1897842e-03
 -1.7160732e-01
 -1.0003760e-01
  1.7589663e-01
  8.9350909e-02
  3.3096768e-02
 -2.6753920e-01
 -7.4474081e-02
 -1.9807145e-01
  8.1507331e-03
  1.0386646e-01
 -2.1295252e-01
  1.5530764e-01
 -3.0244809e-02
 -4.1188617e+00
  3.2944318e-02
 -9.7476058e-03
  1.8013817e-01
 -4.0122919e-02
 -1.3281059e-01
  7.8590132e-02
  3.3251349e-02
 -2.9588621e-02
 -2.0913562e-01
 -8.5766129e-02
  1.3299789e-01
  7.0845098e-03
 -1.0270949e-01
  1.2072421e-01
  7.7610098e-02
  1.7095438e-01
  9.2730537e-02
  2.7607939e+00
 -7.0128068e-02
  6.9173500e-02
  1.6151561e-01
  7.9977885e-02
 -3.9744589e-02
 -2.8270599e-01
  2.1860005e-02
  6.4979993e-02
 -1.8843620e-01
  1.1868002e-01
  1.5073280e-01
  1.8031886e+00
  4.0597703e-02
 -1.2774454e-01
  6.5622807e-02
  2.6090222e-03
  5.6783664e-01
 -2.4650085e+00
  5.2785601e-02
 -2.4680688e+00
  8.4911890e-02
  1.0616633e-01
 -8.9202039e-02
  2.1544825e-02
  1.9008325e-03
 -6.1753565e-01
 -1.2533212e+00
  6.4116001e-02
 -7.7527761e-02
  4.3083787e-02
 -7.5777560e-02
  6.2751941e-02
  4.5874670e-02
 -3.1576782e-02
 -2.0592017e-02
  9.7716972e-02
  7.9073958e-02
 -1.4251281e-01
 -6.8046528e-01
 -4.6733248e-01
  1.4898011e-01
 -4.3409771e-01
 -3.2934923e-02
 -5.7119802e-02
 -3.2533881e-01
  7.4843436e-01
  2.0573352e-01
 -4.1412824e-01
 -6.6311732e-02
  2.3101484e-03
  1.2714349e+00
 -2.8376901e-01
 -1.3168319e-02
  3.4318220e-02
  1.0189897e-01
 -1.0840077e-02
  6.7055792e-01
 -1.5506786e-01
 -1.7508817e-01
  3.0172774e-01
 -6.2564641e-01
 -2.6030045e-03
  8.1887536e-02
  9.3087703e-01
 -3.4126058e-01
 -1.0174985e+00
 -4.0085939e-01
 -2.7626801e-02
  8.2377806e-02
 -5.2103605e-02
  2.3160687e-01
 -1.0209520e-02
 -8.2988158e-02
 -1.2384645e-01
  1.2847061e-01
 -1.2644351e-01
 -5.7357408e-02
 -4.3112300e-02
 -2.4486935e-01
  1.7642090e-01
 -1.0547080e-01
 -1.4418700e-01
  2.4119575e-02
  4.0768422e-03
 -1.5678820e-01
  6.6892102e-02
  8.3530836e-02
  1.7390533e-01
 -1.8275112e-01
 -2.7673081e-02
  1.4876382e-01
 -1.6763662e-01
  1.1443879e-02
  1.3367699e-01
 -5.1193340e-03
 -1.4196919e-01
 -1.1451772e-01
  1.9617099e-01
 -4.8119806e-02
 -6.3574076e-02
  2.3319218e-01
  9.1811538e-02
 -1.6907696e-01
  6.8247758e-02
 -6.8980432e-03
 -2.8829020e-01
 -1.2096348e-01
 -6.3635007e-02
 -1.8485570e-02
 -3.7705719e-02
 -7.6519859e-01
  8.9241885e-02
  2.3201115e+00
  3.5190909e+00
  5.3788297e-02
 -1.1141421e+00
  1.0700022e-01
  7.3046941e-01
 -2.3249736e-02
  2.3851454e-01
 -9.7133502e-02
 -1.5028676e-03
  3.5930708e-01
  2.1325548e-01
  1.4068459e-02
 -1.0533955e-01
  1.8625597e-02
  2.8174937e-01
  9.3028478e-02
  1.2477857e+00
 -7.5246915e-02
  4.5459414e-01
 -9.4348051e-02
  3.1502819e-01
  3.4230059e-01
  6.6994041e-02
  4.4442672e-02
 -2.7731711e-01
 -2.5069037e-01
 -8.2120723e-01
  6.6980296e-01
 -3.0330172e-01
 -7.7474989e-02
 -1.4895692e-01
 -1.6148895e-01
 -2.2493457e-02
 -1.7434834e-02
  1.3649121e-02
  1.3542019e-01
  4.3741304e-01
  2.0981789e-02
  6.5361805e-02
  6.4610404e-01
  9.0048231e-02
  1.0138393e-01
 -1.4434549e-01
  2.8626484e-01
 -9.3206689e-02
 -6.1558895e-02
 -3.2531908e-01
  2.8840750e-02
  2.8249307e-02
  3.7207179e-02
 -7.1922652e-02
 -4.8735421e-02
 -5.7365924e-02
 -8.3490089e-02
  4.1738864e-02
  1.9042635e-02
  1.3987030e+00
  3.5441224e-02
  2.1842922e-01
  1.4600144e-01
 -4.4901553e-01
  3.0102193e-01
 -6.7735001e-02
 -2.5464019e-01
  1.3592112e-01
 -1.5907434e-01
  3.0793369e-01
  3.0854684e-01
 -5.5859815e-02
  1.1422783e-01
  7.5508928e-01
 -3.5491634e-02
 -2.5076559e-01
 -2.9872679e-03
 -2.8707735e-02
 -3.9261084e-02
 -5.8945515e-03
 -4.2794041e-02
  3.4356016e-01
 -5.9141882e-02
  7.7765226e-02
 -2.6985729e+00
  1.1734318e-01
  1.1576164e-01
 -2.8032018e-02
 -2.3582844e-01
 -1.1776635e-01
 -1.8950346e-01
 -9.7095728e-02
 -4.5358039e-02
  1.3226119e-01
  2.6783392e+00
 -2.0580627e-01
 -9.6585359e-03
 -2.6302515e-02
 -1.3564885e-01
  1.6365711e-02
 -7.9687983e-02
 -1.2782441e-02
 -2.6090467e-01
  9.3376994e-01
  9.6349448e-02
  9.1256037e-02
 -4.3579049e-02
  1.9083372e-01
 -7.8316770e-02
  4.3554273e-01
 -7.0236847e-02
 -3.8318172e-02
  6.5320149e-02
 -3.3554181e-02
  1.4872593e-01
  1.6849543e-01
  3.8734135e-01
  4.4690922e-02
 -1.5592046e-02
  1.4895809e-01
  1.1915579e-01
 -9.2022724e-02
  2.7512106e-01
  5.4240074e-02
 -4.9908656e-01
 -1.4400311e-02
  5.4916275e-01
  3.7334257e-01
 -1.1365135e-01
 -6.8279530e-04
 -3.8084266e-01
  6.7814581e-02
 -5.4848272e-02
  4.9498785e-02
 -1.6736405e-01
  1.8773703e-01
 -5.4953331e-03
  9.3781643e-02
  6.6299990e-02
 -8.9875680e-01
 -4.4811923e-02
  2.1240771e-02
  2.7605122e-01
  5.6371093e-02
 -2.3166888e+00
 -9.0335729e-03
 -5.3607740e-02
  2.0824160e-01
  2.9955516e-02
  6.6052298e-03
 -2.7635347e-02
 -4.3870028e-02
  3.7562597e-01
  7.4059684e-03
  3.1976268e-02
  5.8709830e-02
  5.8221739e-02
  1.4961408e-01
 -5.9035867e-02
 -6.8278186e-02
 -2.5441928e-02
 -8.8161677e-02
 -2.7827087e-03
 -1.0744565e-01
  1.8615197e-02
 -6.6233769e-02
 -6.9481298e-02
 -4.0150329e-02
  5.9266072e-02
  1.3073283e-01
  1.4770183e-01
 -1.2945040e-01
  1.0420729e-01
  3.6113564e-02
  6.2303614e-02
 -1.2917265e-01
  7.5933143e-02
 -1.4437778e-01
 -4.0245220e-02
  8.8357359e-02
 -6.0036935e-02
  1.1833617e-01
 -2.3117377e-01
 -7.1452712e-03
  1.8491702e-02
  5.7120059e-02
 -2.4598768e+00
 -1.6349241e-02
  7.7402107e-02
 -6.8582453e-02
 -5.1244050e-02
  8.4302433e-02
  1.4374760e-02
  2.3692973e-01
 -3.9383836e-02
  2.8642353e-01
  3.0967879e+00
 -2.9112765e-01
  2.7794365e-02
 -5.0212425e-01
 -6.8423427e-03
 -1.6102613e+00
 -1.1191011e-01
  1.0757165e-01
  7.9100788e-02
 -8.8135060e-03
  3.1276844e-02
 -9.4474003e-02
  8.6708587e-01
 -7.9192287e-01
 -3.9004588e-03
  2.1815141e-01
 -2.1310589e-01
  1.6703698e-01
 -3.1670052e-01
  6.8260208e-02
  6.3644953e-02
  2.0551715e-02
 -3.3944353e-01
  2.6018767e-02
  4.5746610e-02
  9.0635024e-02
 -7.0001230e-02
 -1.0686866e+00
  1.3021340e+00
 -8.5876718e-02
  3.2431272e-01
 -3.7565950e-02
 -7.9769693e-02
  2.4121453e-01
  1.4606942e-01
  3.6204904e-01
  3.8245622e-02
  1.7107156e-01
 -1.1074627e-03
 -2.2353042e-02
 -3.5678729e-02
 -3.5865493e-02
  4.1302409e-02
 -1.4866683e-01
  7.6110880e-03
 -1.3296068e-01
 -1.2412585e-01
 -1.5824900e-03
  1.4653004e-02
 -4.3806066e-03
  9.1139600e-02
 -5.1100940e-02
  5.0244149e-02
 -1.5425909e-01
 -4.6982065e-01
  5.0597612e-02
 -7.4549015e-03
 -9.7164482e-02
 -1.5552944e-01
  3.7499521e-02
  4.7109801e-02
  2.1908067e-02
  1.0154832e-02
 -2.2046269e-01
  2.8252020e-01
 -4.8048541e-02
 -2.3149997e-01
 -6.5635897e-02
 -6.3744813e-02
 -1.4780247e-01
 -9.5847219e-01
  4.6433892e-02
 -2.3017220e-01
  1.4304020e-01
 -7.5541519e-02
 -4.5202851e-02
  8.7030102e-03
  5.2160490e-02
  4.9437065e-02
  2.3253824e-01
  2.3781523e-01
  2.7694790e-02
  1.7085990e-02
 -6.9610029e-02
  2.0953754e-02
  8.6979143e-02
  1.0119944e-01
 -8.7836966e-02
 -4.6753690e-02
 -2.1058077e-01
  1.2221313e-01
 -3.4857716e-02
  2.6306368e-02
  5.8244321e-02
  1.0208130e-02
 -5.3535696e-02
 -5.1063905e-03
 -1.1284281e-02
  1.4289740e-02
 -3.6583948e-01
  6.7198925e-02
 -1.9860792e-01
 -1.7106296e-01
  1.4279160e-01
  1.3200190e-02
 -2.2879228e-01
 -1.1605070e-02
  4.5697048e-02
 -2.5869367e-01
 -2.5403166e-01
  4.3703128e-02
 -4.0258128e-02
 -1.0279028e-01
  7.3801035e-01
  6.7251578e-02
 -8.9118034e-02
  1.8650381e-01
 -7.9523169e-02
 -1.3698031e-01
 -1.2745613e-01
  1.1999135e-01
 -8.3042897e-02
 -5.2558172e-02
  4.6038002e-02
  1.5848060e-01
  1.3709223e-01
 -1.3114335e-01
 -2.2708821e-01
 -2.9874826e-02
 -2.2429462e-01
 -2.2735298e-01
  3.6562230e-02
  8.1861094e-02
 -3.1969264e-02
 -1.5687534e-01
  2.2780028e-01
  2.1360454e-01
 -7.9116441e-02
  3.4975667e-02
  1.6895738e-01
  4.4851821e-02
  2.7424592e-01
 -2.6762643e-01
 -5.7298678e-01
 -1.5639642e-01
  3.0861866e-01
  3.4054630e+00
  2.5551990e-01
 -2.5631753e-01
 -2.0736091e+00
  2.5232198e+00
  2.7242680e+00
  4.4293780e-02
  2.8324103e-01
  1.3104088e+00
  5.4251313e-02
 -1.9487292e-02
 -2.8614593e-01
 -2.0541757e-01
  3.5952938e-01
 -1.6094966e-02
  1.2303845e-01
 -7.0740073e-03
  2.0081255e-01
 -4.4035263e-02
  2.2435082e-01
  4.6009511e-01
  9.2309184e-02
  5.8840527e-03
 -1.6105868e-01
  3.7737036e-01
  2.3738898e-01
 -1.1884950e-01
 -1.0553052e-02
 -1.3597987e+00
 -1.9143982e-02
  1.5259683e-01
  2.8270042e-01
 -1.9774478e-02
 -9.7871530e-01
  1.8580042e-01
  2.4086885e-01
  1.2305938e-02
 -1.8284302e-02
 -3.3673558e-03
 -1.5675819e-03
 -1.6523208e-01
 -3.1859357e-02
  1.0697237e-02
  3.3193205e-02
 -2.0761789e-01
  7.0342615e-02
  2.0425750e-01
  1.6283366e-01
  2.2387538e-02
  6.4459089e-03
  4.4174504e-01
 -2.0199459e+00
 -2.6833621e-01
 -3.5123768e+00
  1.8102278e-01
  1.9712440e+00
 -8.2150811e-01
  3.1772476e-01
 -1.3570531e-01
 -8.2136303e-01
  7.7281825e-02
  1.1964536e-01
 -1.2456363e-02
 -1.5986888e-01
 -2.8326072e-02
 -1.9084398e-01
  1.3816534e-01
  9.3496531e-02
  7.5707585e-02
 -4.7416065e-02
  3.9575048e-02
  7.0515424e-02
  2.6544319e-03
  5.3301162e-01
 -1.1077990e-01
  8.8639922e-02
 -2.0541536e-02
  1.6472636e-01
  3.2910232e-02
 -1.9353447e+00
  7.5638664e-01
 -5.8098942e-02
  8.0207103e-01
 -1.5466653e-01
 -6.8702422e-02
  3.2587204e-02
 -7.3711716e-02
 -4.0574830e-02
 -4.2310013e-03
  1.7150462e-02
 -6.6282123e-02
  3.3334065e-03
 -1.2385733e-01
  1.0040166e-01
  1.5409423e-01
 -4.5911286e-02
  1.3055757e-01
 -7.5129806e-03
  8.8729747e-02
  2.3685940e-02
 -6.8504177e-02
  4.3545410e-02
  2.9296344e-02
  6.2484432e-02
 -8.8969037e-02
  3.4519382e-02
 -6.5578654e-02
  7.2083876e-02
 -1.1979362e-01
 -5.0910991e-01
 -1.9708689e-02
  1.2199023e-01
  1.3221448e-02
  1.9168270e-01
 -9.7470716e-02
 -8.0391325e-02
  8.2527846e-02
 -6.5914422e-02
 -2.8172636e-02
 -2.9058771e+00
  1.2018110e-01
 -1.6767707e-01
  3.7394561e-02
  1.1336421e-01
 -2.7179385e-02
 -4.9032938e-02
  3.6542580e-02
  6.0695898e-02
  2.2805536e-01
  1.8848528e-01
  8.4461249e-02
 -2.3191531e-01
  3.0317435e-01
 -3.4647814e-03
 -1.7775723e-01
  6.7543887e-02
 -6.0699420e+00
  9.5562756e-02
 -2.1883590e-02
 -4.6673387e-02
 -1.6091661e-01
 -1.4838246e-01
 -1.0238238e-01
  1.2493731e-01
  9.6824951e-02
 -8.4251828e-02
 -1.6799982e-01
 -8.5197929e-03
  3.5012238e-02
  1.0873009e+00
  3.8431622e-02
 -1.5821382e-03
  1.7914829e-01
 -8.8802464e-02
  7.4306703e-03
  1.4767148e-01
 -5.4617915e-02
 -3.0101174e-01
 -9.4392526e-01
  1.1693408e-02
  1.8063267e+00
 -3.3628547e-01
  1.1414742e-02
 -1.3619174e-01
  1.3907051e-01
 -4.7609136e-02
 -1.7135242e-01
 -5.8190014e-02
  2.9676102e-02
 -4.4954520e-02
 -1.7133269e-02
 -1.9372733e-02
  3.3201545e-01
 -1.5140162e-01
  3.0888967e-02
  5.4257229e-02
 -9.5477417e-02
 -1.6596907e-01
  1.9921616e-02
 -1.8708396e+00
  1.3076994e-01
  1.2766559e-02
  1.3516437e-01
 -2.5205886e-02
 -7.5170826e-03
  1.1521564e-01
 -5.4577515e-02
 -2.4156480e-01
  1.9258991e-02
  5.8052402e-02
  5.0689865e-02
  2.2937304e-01
  5.7404276e-02
 -1.7506666e-01
  4.3528471e-02
  3.0309820e-01
 -2.0578611e+00
  9.6598566e-02
  7.1181901e-02
  1.8809038e+00
  6.6369557e-01
  2.1934628e+00
 -2.5991876e+00
  6.9202051e-02
  8.9757986e-02
  1.3720888e-01
 -1.6649673e+00
 -4.6195755e+00
 -3.2592273e-01
 -3.4458699e+00
 -7.6977926e-01
 -1.7343058e-01
 -4.3505886e-01
 -1.5916223e-02
 -1.4901471e-02
  1.6434975e-01
 -9.5998907e-01
 -2.4321620e-01
 -6.2006158e-01
 -2.2674352e-02
  3.8204646e-01
  2.9773984e-02
 -3.4132040e-01
 -7.5129740e-02
 -1.0743966e+00
 -1.7425802e-01
 -1.0245576e+00
 -1.8179402e+00
 -3.4658980e-02
  3.5952992e+00
 -1.4228940e-02
  3.1731245e-03
  4.5913015e-02
 -8.7564878e-02
  1.2397907e-01
  1.0882335e-01
  2.0158964e-01
  7.9184815e-02
 -3.7862456e-01
 -1.1285958e-04
 -9.8592125e-02
  8.5599519e-02
  8.1528157e-02
  1.4343557e-01
 -2.3852531e-03
  1.2252308e+00
 -1.1150237e-03
  5.8812454e-02
 -4.1109204e-02
 -2.8453995e-02
 -7.3740847e-02
  5.2222874e-02
  4.9476206e-01
 -2.2702812e-01
 -3.8477808e-02
 -8.5120791e-01
 -2.4575464e-01
 -5.5074520e-02
  5.6042266e-01
  8.8129848e-02
  1.9698755e-01
 -4.1255243e-02
 -2.2741963e-01
 -6.5713942e-02
 -6.6819799e-01
  1.0363438e-01
  1.6141063e-02
 -4.6593666e-02
 -4.0356877e-01
  1.1273827e-01
  8.1669472e-02
 -2.3334831e-01
 -3.6526334e-02
 -1.3649721e-02
 -6.1105145e-03
 -4.4687237e-03
 -3.6186153e-01
 -6.4846933e-02
  6.9820374e-02
  3.4760207e-02
 -3.1956768e-01
 -2.9621359e-02
  2.2467675e-02
 -4.3090254e-02
  6.9473572e-02
 -4.1463308e-02
  3.2435540e-02
 -2.8294004e-02
 -3.4438306e-01
 -1.9029550e-02
 -7.9934718e-03
 -1.3227463e-01
  1.0838440e-01
 -1.7437890e-01
  5.4627436e-01
  1.8758135e-02
  2.1879905e-01
  6.7517048e-01
  3.0273816e-01
  1.0038839e-01
  1.5026461e+00
  8.2158208e-02
  5.5198116e+00
  1.3934834e-02
  1.9514567e-01
  2.5831440e-01
  1.0706756e+00
 -7.6566011e-01
 -4.3093973e-01
  5.3436124e-01
  9.9747647e-03
  1.1287959e-01
 -4.2867482e-02
  1.0010581e-01
 -3.8812175e-02
  4.0217891e-01
  2.3296882e-01
  5.4897472e-02
  6.0719222e-02
  5.8563076e-02
  1.3002982e+00
  4.1258264e-02
 -2.6112345e-01
 -1.5629254e-01
  2.1509399e-01
  1.2895061e-01
  3.4331825e-01
  3.3445010e-01
 -3.1150319e-02
 -2.7351880e-01
 -5.4441165e-02
 -2.9871080e-02
  1.9203447e-02
  7.1195342e-02
 -8.2079366e-02
 -5.8611471e-02
 -7.0582032e-02
  2.5904712e-01
  1.1287409e-01
 -2.2532156e-02
 -8.5484814e-03
  1.3412446e-02
  1.0989293e-01
 -3.4475622e-01
 -7.5898081e-02
  3.4277286e-02
  7.1577191e-02
  3.2314051e-02
 -1.7962028e-01
 -1.2810907e-01
 -1.0918532e-02
 -1.3169082e-01
 -1.2285237e-01
  3.1062989e-02
  9.3547709e-02
  3.2402042e-02
 -4.9279913e-02
 -6.3051865e-02
  4.5256991e-02
 -7.1928665e-02
  1.3290289e-01
 -1.5456208e+00
  1.4362681e-01
 -7.1718991e-02
  1.6465534e-01
 -1.0934773e-01
 -5.3684628e-03
  5.3482894e-03
  7.3331766e-02
 -2.4141587e-01
  2.2195950e-01
  3.9389983e-01
 -1.8212612e-01
  4.8890820e-01
  3.1292844e-01
 -6.0651895e-02
  1.6586635e-02
  1.5362052e-02
  2.1510096e-02
  2.0137274e-01
  1.6140029e-01
 -2.4446291e-01
 -8.2716048e-02
 -1.0728133e-02
 -2.8604341e-01
  1.7220689e-01
  4.0546581e-02
 -1.5994340e-02
 -2.1862904e-02
  6.1317289e-01
 -4.1712780e-02
 -6.6277966e-02
 -2.4530594e+00
 -1.4354155e+00
 -4.1300362e-01
  6.6340119e-01
 -1.2998800e+00
 -2.1934915e-01
  1.3371279e+00
  6.2925565e-01
 -2.5201461e+00
 -1.1032646e-01
 -2.2836151e+00
 -1.3835622e+00
 -1.3548553e+00
 -5.0622492e+00
  9.4309121e-01
 -2.2462549e+00
 -8.4070218e-01
  4.7371302e-02
 -6.2310314e-01
 -1.8446611e-01
 -1.8528405e-01
  2.2250841e+00
 -2.2987323e+00
  3.8438714e-01
  9.3340778e-01
 -1.6828850e-02
  3.7488875e-01
  9.7665626e-01
  1.4854447e+00
 -1.3962661e-01
 -4.0316406e-01
  5.7340760e-02
  3.3612091e-02
  6.2364513e-01
 -1.0480989e+00
  7.9802640e-02
 -1.1985778e+00
 -3.3342102e-01
  1.8727416e+00
  1.1552954e-02
 -1.6607418e+00
 -4.9656636e-01
 -1.9078862e-02
 -3.5901127e+00
  2.5028872e-01
 -2.9593837e-01
  9.6049882e-02
  1.0028145e-01
 -6.6895606e-03
 -1.4570138e-01
 -3.4827013e-02
 -5.8414519e-01
 -1.9949241e-01
  3.0235726e-01
  2.5407514e-01
 -4.5691907e-02
 -1.4552504e+00
 -4.5081076e-01
  2.2184642e-01
  2.5392473e-02
 -9.9237459e-03
 -1.2339543e-01
 -1.3445970e+00
  1.5093896e-01
 -4.1255500e-02
 -1.5828435e-01
  3.1334662e-03
 -8.9198790e-02
  3.4797415e-02
 -1.1869672e-01
  4.2708352e-02
  1.2587880e-01
  4.0195696e-02
  1.4569450e-03
  1.1907991e-01
 -2.6185358e-01
  1.8409744e-03
 -6.0993996e-02
  1.6752934e-01
 -1.6183457e-01
 -3.8235042e-02
 -2.1036901e-02
  1.2548806e-02
 -1.6048986e-01
 -1.7258732e-02
  6.1840247e-02
  7.0048250e-02
  1.8804817e-01
  7.2978809e-02
 -2.0366332e-01
  1.2967190e-01
  5.0587659e-03
  9.1110036e-02
  1.0247633e-01
  2.1583099e-02
  1.1871742e-01
  1.0620069e-02
 -3.3538833e-02
 -1.8792868e-02
 -2.5211275e-01
 -1.1872727e-01
  8.8474797e-03
 -1.5736841e-01
 -1.8336238e-01
 -8.4542617e-02
 -6.0421869e-02
 -5.4413524e-02
  6.9702834e-02
 -1.4936613e-02
 -2.8800681e-02
  1.0833521e-01
 -8.9133494e-02
 -1.3412049e-01
 -5.9022450e-01
 -2.0731071e-01
  5.5605400e-01
 -8.8426538e-02
 -3.2063475e-01
  3.1458879e-01
 -3.1651019e-03
 -1.5892468e-01
  1.4566024e-03
  3.9961688e-02
 -1.1051661e-02
  1.3077377e-01
  1.5841426e-02
  1.5424272e-01
  1.2828276e-02
  6.2095098e-02
  2.3295970e-01
 -1.1674232e-01
  5.5008352e-02
  3.7993651e-02
  1.5334109e-02
  6.4615183e-02
  3.6171132e-01
  2.8951103e-03
  1.7159332e-02
 -5.3749964e-02
  1.2239067e-01
  1.1459659e-01
 -2.4804439e-02
  9.6437082e-02
  4.2171035e-02
  3.2435944e-03
  8.3944455e-02
  7.2852992e-03
  9.2138700e-02
 -4.2832214e-02
 -1.1082281e-01
 -2.0467512e-01
  1.7924618e-02
  1.1602494e-01
 -2.7953213e-01
 -2.4673091e-02
 -1.1542699e-01
 -3.0812371e-01
 -6.3060015e-02
 -5.8862220e-02
  2.8511196e-01
 -1.3863473e+00
 -5.2526493e-02
 -5.4775521e-02
  1.8386848e-01
  1.0582433e-01
 -3.1511072e-02
 -4.5371503e-02
  2.3043262e-02
  3.6095092e-03
 -9.2778720e-02
  4.6149857e-02
 -7.4561931e-02
  1.0302330e-03
 -1.5034039e-01
 -6.0502486e-03
  6.7836367e-02
 -4.4362359e-02
  1.3845706e-01
 -3.2046024e-02
  2.2131959e-03
 -2.9148560e-02
 -7.2577350e-02
 -4.3741152e-01
 -1.6676711e-01
  7.0660658e-02
 -3.6186174e-02
  7.2225377e-02
  2.0097874e-01
  2.5076741e-01
  2.0512909e-02
 -1.2498396e-02
  4.6554234e-02
  3.6103189e-02
  2.3848381e-02
 -4.4639577e-04
 -1.1291866e-01
 -1.3848908e-02
 -8.6330762e-03
 -1.8084544e-03
  2.1176030e-01
 -9.3666077e-02
  1.1770686e-01
 -4.0873292e-01
 -8.2866056e-03
 -2.0507291e-02
 -2.1503402e-01
 -3.0788901e-01
 -3.7619133e-02
 -5.1719505e-01
 -1.3809046e-01
 -3.9235672e-01
 -1.5690980e+00
 -4.2149681e-01
 -5.8915347e-01
 -5.9469306e-01
 -1.2554425e-01
  5.3375855e-02
  1.2998308e-01
  1.0370531e-01
 -9.0459168e-02
 -2.7491579e-02
  2.1124570e-01
  4.2054880e-01
  9.3872435e-02
 -6.0285073e-02
  1.2347257e-01
  2.2883767e-02
  3.4678885e-01
  7.0986837e-02
  8.4428549e-02
  4.9481299e-02
 -4.6702202e-02
  6.6416018e-02
 -9.6120477e-02
  2.8684668e-02
  2.7667148e-02
  6.4679116e-02
 -5.7183838e-01
  1.2443587e-02
 -1.0468387e-01
 -4.3199472e-03
 -4.0901729e-01
  5.7760268e-02
  7.8419738e-02
 -1.8648392e-01
 -8.7271854e-02
 -2.8790060e-01
 -1.2644664e-02
  4.7475692e-02
 -6.7070141e-02
 -3.9100055e-02
 -1.4829070e-02
  7.1090452e-02
  4.2093009e-02
 -1.2765488e-01
 -1.2147817e-02
 -1.9316839e-02
 -4.9947236e-02
  4.5519911e-02
 -2.4469033e-01
 -3.7836584e-01
  7.0348114e-02
 -1.2138762e-01
  1.0769917e-01
  8.4149754e-03
 -9.2275709e-02
  6.4187951e-02
  5.7121483e-04
  1.1326372e-01
  1.1351044e-01
  6.7423046e-02
 -3.9612412e-01
  4.9371563e-02
  1.2014643e-01
  4.9995355e-02
 -7.4712798e-02
 -1.0186049e-01
 -6.5138109e-02
  2.2177839e-01
  3.1699602e-02
 -2.3287334e-01
 -2.4180083e-02
 -2.3840412e-02
  9.2981711e-02
  2.1482173e-02
  6.8265647e-02
  4.0430480e-01
 -7.5557083e-03
 -4.8650898e-02
  1.1246005e-01
  1.2839215e-01
  1.6034812e-02
  2.8869044e-03
  1.4606421e-03
 -2.2137156e-02
  1.5140006e-01
  6.5386221e-02
 -2.3668531e-02
  1.7632990e-01
 -1.3409957e-01
  9.3758553e-02
 -5.7819504e-02
  7.8315409e-03
  1.3733421e-01
  2.7700186e-01
  1.1255783e-01
 -3.3313297e-02
  1.7606154e-01
  1.0382019e+00
 -3.4836319e-01
 -6.3137531e-01
 -1.5508190e-01
  2.8717540e-02
  2.9737484e-01
  7.8609608e-02
  4.7109764e-02
  1.5415654e-01
  3.3507504e+00
  1.4647961e-02
 -4.1537941e-03
 -2.3913601e-01
  8.8225447e-02
  1.5054609e-01
  8.2903787e-02
  3.9261957e-03
 -2.2820412e-01
  9.5860556e-02
 -7.9578184e-02
  3.9104372e-01
  7.2109804e-02
 -1.5215537e-01
  5.4087158e-02
  3.3932585e-02
 -3.4058890e-01
 -9.0476144e-03
 -1.3783493e-02
 -9.8371347e-03
  1.7243541e+00
 -4.0374540e-02
 -1.1194495e-01
 -4.2165261e-02
  2.6006752e-01
 -1.0312953e-01
 -1.0625615e-01
 -1.7227427e+00
  2.2333128e-02
  2.2396171e-02
 -2.3891365e-02
 -9.7975455e-02
  1.2376165e-01
  9.9747218e-03
  3.8566470e-02
 -1.6289885e-01
  1.0376830e-01
  1.1398440e-02
 -4.9637388e-02
  2.0216012e+00
 -1.2099979e+00
  1.6497784e+00
  2.3131710e-03
 -5.7499032e+00
  1.8102199e+00
  3.8328726e-02
 -1.5062965e-01
  1.4962091e-01
 -2.5852260e-01
 -1.2123274e-01
 -1.6121098e-01
 -4.7165044e-02
 -1.1824791e-01
 -1.0413533e-01
  5.0401814e-02
  4.3263517e-02
  1.3917933e-01
 -1.6943295e-01
 -1.8237385e-01
  6.3112617e-02
  2.2144833e-01
  6.0911370e-03
  2.0267103e-02
 -3.3730898e+00
 -5.8144469e-02
 -7.7318452e-02
 -1.2442863e-01
 -5.7915773e-02
  5.5315781e-02
  1.4320163e-01
  4.6303608e-03
 -6.1756391e-02
  1.4317144e-01
  1.7830618e-01
 -1.0616023e-02
 -3.8202658e-02
  2.7858909e-02
 -1.1033096e-01
 -8.0679756e-01
 -1.3155048e-01
 -4.7099359e-02
  1.0911188e-01
 -1.6910342e-02
  8.2841560e-02
  1.6769321e-01
  3.3997137e-02
 -7.6598234e-02
 -2.2073454e-01
 -1.0378388e-01
  4.1675288e-02
  2.2342244e-02
 -1.0733215e-01
 -9.1559485e-02
 -2.9666590e-02
 -4.7083028e-02
  2.2764838e-01
  5.1323220e-02
  2.0039022e-01
 -1.1710425e-01
  6.4053750e-03
  5.3638954e-02
  1.5786842e-01
 -2.5059459e-01
 -1.4149959e-01
 -1.6392745e-02
  6.0419377e-02
  3.6252759e-02
  1.5317045e-01
  2.5203550e-01
 -7.8178756e-02
 -7.2528617e-03
 -2.2375761e-01
 -2.3218684e-01
 -1.4976339e-01
  3.3722052e-01
  1.3770214e-01
  9.5876426e-02
 -3.6814131e-02
  1.0076122e-02
  1.0236941e-01
  8.1611924e-02
  6.2442511e-02
 -7.2683260e-02
  3.7013456e-01
  1.7936954e-01
 -5.0448962e-02
  1.1037102e-01
 -6.2304802e-02
 -3.3318959e-02
  1.4572182e-01
  2.2512978e-02
  8.7588832e-02
 -2.2064803e-02
  1.0086460e-01
  1.2934452e-01
 -2.0336901e-01
 -9.4792522e-02
 -1.6443947e-02
 -2.8892092e-02
 -1.2274075e-02
  6.4492196e-02
 -1.4149053e-01
 -4.8014019e-03
 -1.2144370e-01
  1.8980093e-02
  4.5041487e-01
 -2.0820093e-01
 -4.0136468e-01
  3.9294928e-01
  5.2860402e-02
  7.1508683e-02
  1.4878884e-02
 -1.8580485e-02
 -3.8293723e-02
 -1.3920896e-01
  8.5619867e-02
  5.1699627e-02
  8.3178371e-02
  3.6892846e-02
 -3.3173030e-03
 -1.0626490e-02
 -1.5734513e-01
 -3.7411544e-02
 -7.8326590e-02
  1.9282725e-02
  3.6551040e-02
 -1.3886656e-01
  8.5930526e-02
 -3.4821603e-02
  4.1093931e-01
  7.7694999e-03
 -9.1701515e-02
 -1.6472831e-01
 -1.6151643e-01
 -5.6996629e-02
 -7.7417582e-02
 -1.7013678e-01
  2.0111614e-01
 -1.4883062e-02
  2.5236472e-01
 -2.8674634e-02
 -1.4787342e-01
 -3.5126621e-01
 -1.3773909e-01
  5.1434211e-02
 -1.7652410e-01
 -4.7006469e+00
 -3.3227627e+00
  3.8446269e+00
 -1.0930322e+00
  1.5139389e-01
  1.3755100e+00
 -1.8030204e-01
 -5.5275098e-03
  5.2428186e-02
 -3.0827680e-01
 -5.4422212e-01
 -8.7840939e-03
 -5.6222463e-01
  1.1460082e-01
 -2.3567965e-02
 -7.4977838e-02
 -1.3528657e-01
  1.0719404e-01
  7.1946494e-02
  2.8695661e-01
  3.7285252e-03
  1.6806200e-02
 -3.2040992e-01
  3.4020755e-01
 -1.5570186e-01
  2.0102388e-01
  3.7928142e-02
  2.3006349e+00
 -5.2386922e-01
 -1.8399797e-01
 -2.8384912e-01
 -7.9295054e-02
 -4.9286704e-03
 -1.4410086e-03
 -2.2778013e-01
  6.7796834e-02
 -1.7499272e-02
 -5.9069023e-02
  3.4239966e-01
 -4.8852850e-02
 -1.4856894e-01
 -2.7502919e-02
  3.1891506e-02
 -2.9514443e-02
  3.2504166e-03
 -1.3128844e-02
  5.0693680e-02
 -4.6375901e-02
  1.4601446e-02
 -6.5394223e-01
 -2.3204242e-01
 -3.8531446e+00
  1.5634033e-01
 -1.0002320e+00
  1.1184801e-01
 -5.5180591e-02
  1.9281229e-02
  1.5038240e-01
 -1.3582597e-02
  1.2227404e-02
 -5.0099503e-02
  2.1643914e-02
 -7.0952818e-02
 -6.5051973e-02
 -5.4584134e-02
  1.2057560e-03
 -1.0652240e-01
 -2.2959366e-01
  3.6404291e-01
  9.3867475e-01
 -4.9352553e-03
 -2.6696842e-02
 -4.5799151e-02
  3.7061534e+00
  5.8842581e-02
  1.4754380e-02
 -1.0074743e-01
 -4.4903204e-02
 -1.9052620e-01
  3.0516462e+00
 -5.0061963e-02
  2.9353205e-02
 -2.6756695e-02
 -4.0520456e-01
 -1.4143433e-01
 -2.8448084e-01
 -7.0802584e-02
  1.2703750e-01
  1.0300482e-01
 -4.0570024e-02
  1.8407460e-01
 -1.1461139e-01
 -1.4068156e-01
  5.5716749e-02
 -1.3004597e-01
 -7.8149855e-02
  5.1595416e-02
 -2.7117794e+00
  1.3464376e+00
 -3.8806140e+00
 -1.4172255e+00
 -5.9638523e-02
 -6.0353198e+00
  2.9586895e+00
 -1.5524404e-01
 -1.8405681e-02
  9.1313543e-03
 -3.0692570e-02
 -4.1933231e-02
 -2.4188885e-02
 -1.9001849e-01
  3.0412674e-01
 -3.3373351e-03
  4.6777884e-03
 -1.8391537e-02
 -5.8883604e-02
 -8.6018682e-02
  1.9450419e-02
  1.8647577e-01
  2.4576631e-01
 -3.5432628e-01
 -4.0059198e-02
  4.9365851e-01
 -9.7870149e-02
  1.3887408e-01
  4.8685264e-02
  8.3898568e-01
  1.4075238e-01
  5.2192230e-02
 -4.5744788e-02
 -3.7159929e-01
 -3.5455850e-01
  6.9874220e-02
 -1.9314989e-01
  2.8711388e-01
 -1.1335466e-02
 -3.4852767e-01
 -2.4020278e-01
  7.4795067e-02
 -5.5971596e-02
  1.1667294e-01
  7.3990606e-02
 -1.5466944e-02
 -7.9871990e-02
 -4.5118328e-02
  3.1129286e+00
  3.9820731e-02
 -1.2678406e-01
 -7.5251184e-02
 -1.4228598e-03
  1.1650693e-01
 -6.2355582e-02
  1.1553489e-01
  4.1688666e-02
  5.1695269e-02
  1.7724030e-02
 -4.4306946e+00
 -6.0449317e-02
 -2.7133408e-01
 -2.3315574e-01
 -6.2754087e-02
  9.4704099e-02
  1.5668374e-01
 -3.9510673e-01
  2.2182734e-01
  8.8908449e-02
 -1.8710960e-01
 -6.3377857e-02
  2.9905254e-02
 -6.2626489e-02
 -4.3710992e-01
  5.5682708e-02
 -3.6088988e-02
 -6.3944444e-02
  6.3989505e-02
  3.3219181e-02
 -2.3141164e-02
  2.1681648e-02
 -1.2100775e+00
  5.6093600e-02
 -1.0999647e-01
 -1.9011471e-01
  1.9850534e+00
  1.7649744e-01
 -5.5154685e-02
  2.2369680e-01
  1.7104846e-01
 -1.4180416e-01
  2.4325247e-03
  1.0646140e-01
 -3.4267429e-02
 -1.5153537e-02
  2.9198587e-02
 -5.2589349e-02
  1.5727047e-02
 -6.1769746e-02
 -7.3519945e-02
 -2.2474164e-02
 -2.1296081e-03
  1.3634900e+00
 -5.7379849e-02
  3.7232675e-02
  2.4026231e-01
  5.2234717e-03
 -5.4783723e-03
  5.1488198e-02
  2.8496152e-01
 -1.4238454e-01
 -7.5042553e-02
 -4.3631591e-02
 -3.3458035e-02
  1.2861785e-01
  1.0783649e-02
  1.1572580e-01
  7.8835785e-02
  4.9689132e-01
 -1.4440444e-02
 -7.2477782e-01
 -1.9551078e-02
 -1.8003544e-01
  2.0997804e-01
 -2.7954133e+00
  5.9622234e-01
  1.5639686e-03
  9.0009339e-02
 -4.2217311e-02
 -2.1211248e-02
  1.0124682e-01
 -6.8658382e-02
  1.7746009e-02
  7.8571022e-02
  1.1911111e-02
 -1.5369098e-01
  1.7640005e-01
 -6.2552974e-02
  1.2404870e-01
 -1.1584987e-01
  3.4517470e-01
  1.7248546e-01
 -5.5432871e-02
  1.1043106e-02
 -2.2739547e-01
 -1.3150445e-01
 -6.0798395e-02
 -7.1658112e-02
 -1.5643592e+00
  1.3591224e+00
 -7.4194139e-01
  3.7381373e-02
 -2.2994156e+00
 -1.3886973e+00
  1.0730626e-01
 -3.6126041e-01
  4.9385022e-02
 -2.3927420e-01
 -1.0029620e-01
 -3.7874416e-01
 -6.9759682e-02
 -6.9172561e-02
  2.3218771e-02
  4.0953287e-01
  5.0203256e-02
  1.2933290e-01
 -1.1789126e-01
  1.1253686e-01
  1.6033715e-02
  6.8746455e-02
 -2.3632200e-01
 -6.9614202e-03
  3.5168949e-01
  1.0312636e-01
 -6.9666043e-02
  4.4349959e-01
 -2.6017976e-01
  5.9569482e-02
 -1.6036357e-01
  8.3869629e-02
 -7.6542988e-02
  2.0911413e-01
  2.2246926e-01
 -2.0264038e-03
  3.5129640e-01
 -5.1629908e-02
 -1.1604697e-01
  2.2634225e-02
  1.3636278e-02
  1.9632438e-02
 -3.2419350e-02
  3.6209255e-02
  3.3364240e-02
 -1.6406928e-01
 -7.2478070e-03
 -1.5846542e-01
 -1.6975669e-02
  7.8880882e-01
 -5.3530289e-03
 -4.7296993e-02
  8.7041926e-04
  4.1873474e-02
  9.5537066e-02
  3.4315705e-02
 -4.9850787e-03
  1.4724459e-01
  1.0476220e-01
  1.1416276e-02
 -9.7254895e-02
 -8.4341563e-02
  1.6695362e-02
  3.3263797e-01
  2.4102877e-01
 -1.7373245e-02
 -9.1632411e-02
 -2.2823766e-01
 -4.1930690e-02
  2.5702154e-02
 -3.2289479e-02
 -3.4319556e-01
  2.4151679e-03
  4.7369678e-02
 -1.1554141e-01
 -1.5657324e-01
  3.6437577e-01
 -1.0748422e-01
 -5.1890250e-02
 -9.8943420e-02
 -1.4258365e-02
 -4.5332261e-03
  6.7288771e-02
  8.9507159e-03
  7.5299084e-02
  4.8115438e-01
  2.8685285e-02
  1.2014388e-01
 -3.9958245e-01
 -2.2523160e-01
  2.4348173e-01
  5.6363549e-02
 -2.6428369e-01
 -1.7046510e-01
  1.3054627e-02
  7.6609681e-04
  3.8459472e-02
 -7.6850641e-01
  2.0315776e+00
  1.5485880e-01
 -6.0919368e-01
  3.6749589e-01
  4.8444378e-01
 -2.6199242e-01
  4.7588655e-01
 -4.8265028e-01
  1.1388101e-01
 -6.3793793e-02
 -1.7059739e-01
 -2.2689404e+00
  5.7167433e-02
  1.3026147e-01
 -3.1526208e-02
  8.3821744e-01
 -3.4956643e-01
  6.8148243e-01
 -6.2066991e-02
 -9.6092261e-03
  2.6924264e-01
  1.9239397e-01
 -5.3001300e-02
  2.0363371e-01
 -1.3099967e-01
 -5.6474030e-02
  5.3667214e-02
  3.4869814e-01
  1.1858436e-01
  6.2615559e-02
  8.3416545e-01
  1.9108452e-02
 -1.7662090e-01
 -7.8363746e-02
  1.0358755e-01
  1.0313725e-01
  1.6476323e-01
 -1.5870649e-01
 -1.1359045e-01
  1.3966922e-01
 -9.0828545e-02
  2.7763495e-02
 -1.3469882e-02
 -1.7642939e-01
  1.3661428e-02
  2.4953198e-01
  5.8958661e-02
  2.3531985e-02
 -1.1895278e+00
  2.0301305e-02
  2.6148030e-01
 -1.1886356e-01
 -4.5195319e-02
  4.2756268e-01
 -1.6453610e-01
 -9.3525469e-02
 -3.1458536e-01
 -4.4065412e-02
  2.8680958e-02
 -3.8033992e-02
  6.7719100e-03
  8.9770503e-02
 -1.2288398e-02
  1.6726252e-02
  1.3080728e-01
  1.2424878e-01
 -5.6600875e-01
 -6.9052741e-02
 -6.4959742e-02
 -1.6231109e+00
 -7.8704648e-02
  1.6845880e-01
 -1.0209509e-01
  1.3710955e-02
  2.1615881e-02
  3.7061501e-02
  2.7218696e-02
  1.1708305e-02
  6.4741999e-02
 -7.7629127e-02
  1.2419719e-01
  1.1258361e-01
  6.2493142e-02
  6.6415615e-02
  1.2948835e-01
 -1.0344974e-01
 -8.5513048e-02
 -2.5356146e-02
  2.1017355e-01
 -8.5127950e-02
  2.9559996e-02
  5.2640170e-02
  5.8882821e-02
 -1.0409615e-01
  7.7109978e-02
  3.9022263e-02
  2.3098269e-02
  9.1894573e-01
 -1.2994899e+00
  9.7288090e-01
  8.9535818e-02
  3.6225858e-01
  5.2938092e-02
 -1.7323887e-01
  8.8580191e-02
  8.7156340e-02
  1.1418432e-01
 -1.0617797e+00
  1.1442667e-01
  6.9207273e-02
 -1.5235570e-01
 -1.8202586e-01
 -1.3074696e-01
  2.2976771e-02
  8.4520124e-02
 -1.9490860e-01
  3.4091339e-02
 -1.1113030e-01
 -2.6046520e-01
 -8.6886309e-02
 -1.1831862e-01
 -2.8119978e-01
 -1.3901927e-01
 -2.8096227e-02
 -8.4837936e-02
 -1.3748732e-02
 -4.2140198e-01
  4.0458429e-01
 -9.5552420e-03
 -6.5151042e-01
  3.1791428e-01
 -1.5469375e-01
 -6.4850501e-03
  2.8973588e-01
 -3.3051100e-02
  1.1439794e-02
  5.6679219e-02
 -1.7752843e-01
  2.0447069e-01
 -1.5630877e-01
  2.7553612e-01
 -9.1397531e-02
 -1.3564439e-02
  1.9123474e-01
 -6.9821939e-02
 -5.0252777e-02
  8.4145986e-02
  1.9272783e-01
 -3.5125523e+00
 -4.4058049e-01
 -4.3921123e+00
 -5.0665922e+00
 -1.5448897e+00
  1.5120450e-01
  6.9568321e-02
  2.3072466e-01
 -3.2213598e-02
  8.2399294e-02
  2.3856129e-01
  4.4427547e+00
  9.0255663e-02
 -8.6971112e-02
  1.4643644e-02
  5.6072775e-02
  1.0520101e-01
 -8.0777584e-03
  7.0824683e-02
  7.9013622e-01
 -1.6861601e-02
 -1.3255569e-01
 -3.2321367e-02
  8.9877911e-02
 -2.4490610e-02
  1.3231900e-01
  7.4953595e-03
  1.5030134e-01
  3.0707064e-01
 -4.1007753e-02
 -3.3262345e-01
  1.5475249e+00
  8.0831838e-01
  2.0606436e-01
  2.7371561e-02
  2.1895632e-01
  1.7584410e-01
  5.9803542e-02
 -1.4130470e-03
  2.2853790e-02
  3.6343955e-02
 -8.0082126e-02
 -2.4975915e-01
  6.6326231e-02
  1.2975578e-01
  7.1595460e-02
 -1.3266472e-02
 -4.8646569e-02
 -4.7381055e-01
  8.0768961e-01
  1.0047650e+00
  7.4924058e-01
  6.2891948e-01
  2.6302319e+00
  1.9328275e-01
 -2.3021998e-01
  1.9544140e-01
  2.2269934e-02
  2.6382077e-01
 -5.9459772e-02
  1.2748753e-01
 -3.2742377e-02
  2.3800684e-02
  1.4564145e-01
 -2.3779659e-01
  3.8171507e-02
 -8.8364547e-01
  2.2876301e-01
 -9.2132628e-02
  9.4142193e-01
  6.5201432e-03
 -3.4075528e-01
  9.7431444e-02
  3.4814157e-02
 -1.4307027e-02
  1.8384750e-01
  1.2866749e-01
 -2.4286622e-01
 -1.3296723e-01
  3.6084816e-01
  1.4311041e-02
  1.6083975e-01
  2.7136710e-01
  5.7418525e-02
  2.9386595e-01
  1.0378920e-01
  1.0454586e-01
 -1.7125461e-01
 -6.0267039e-02
  2.5284963e-02
 -1.6215909e-01
  1.7943949e-01
 -4.7887634e-02
 -8.2823019e-03
  4.5436849e-03
  1.5393689e-01
 -6.3241987e+00
  5.0861406e-01
 -2.1088253e-01
  5.1518804e-01
  2.9227290e-01
 -1.3474950e-01
 -1.4699121e-01
 -1.1134650e-01
  8.6296871e-02
 -3.3955459e-02
 -2.1844663e-01
 -5.8777921e-02
  8.2116537e-02
  5.3818506e-01
 -6.1543267e-02
  1.3256156e-01
  2.4143362e-02
 -4.4639442e-02
 -6.7351587e-02
  6.2879212e-02
  9.4597064e-02
  3.1254479e-01
  1.5167321e-01
 -6.4059824e-02
 -1.8568465e-01
 -4.8423931e-01
  6.1709765e-02
  3.4423016e-02
 -6.4293039e-03
 -6.9771245e-02
 -3.3804029e-01
  3.9349105e-02
 -3.0682337e-01
  2.0742188e-01
  6.2213425e-02
 -1.1775582e-01
 -6.7459069e-02
 -1.3124278e-01
 -7.6165670e-03
  2.6281694e-01
  5.7470195e-02
  5.6761395e-02
 -2.6180906e-02
 -8.0947988e-02
  1.7094027e-01
 -1.5355684e-02
  4.7244962e-02
 -3.5585411e-02
  1.7976552e-01
 -1.1735144e-01
  9.0573922e-02
  4.6808091e-03
 -5.5645204e-01
  1.4796808e-01
  1.6253677e-01
  1.9671437e-01
 -1.5376265e+00
  1.3106215e-01
 -6.3446201e-02
  2.1205673e-01
  2.9091803e-02
  6.5251388e-02
  7.2863631e-02
 -7.4712388e-02
  8.6861607e-03
 -1.7423224e-01
  8.6457856e-02
 -6.1504703e-02
 -2.1752805e-02
 -2.8698504e-02
 -3.4718964e-02
  1.4168961e-02
 -2.0719364e-01
  1.6826057e-01
 -2.4788412e-01
 -9.0392001e-02
  9.9873401e-02
 -9.5714964e-02
 -2.0578590e-01
 -1.6030462e-02
 -5.4739326e-01
  9.2653902e-03
 -1.9985802e-01
  4.3304555e-02
  4.6010662e-02
 -1.9106336e-02
  2.5554991e-01
  8.3069101e-02
  1.9491484e-02
  1.0292131e-01
  1.0779161e-01
  1.7333229e-01
 -6.1956258e-04
  3.7277762e-02
  9.0586327e-02
 -8.1193723e-02
 -1.7367776e-01
 -2.9234307e-02
  6.9055647e-02
 -7.9835868e-01
  3.0348401e+00
 -4.0424097e-01
  2.8733058e-02
  1.1755892e+00
  3.0926659e+00
  2.8174293e+00
  3.3591351e-01
  3.0623218e-01
 -3.9912276e-02
  2.7492940e-01
  7.6785766e-02
 -9.7841913e-01
  1.9407989e-01
  8.9677289e-02
  2.7111229e-01
  6.2267624e-02
 -1.6415510e-01
  3.9660472e-01
 -4.4076167e-02
  2.7102527e-01
 -3.4469131e-01
  2.8950489e-01
 -1.8617901e-01
  4.9326252e-02
  2.1145262e-01
 -1.8653177e-01
 -6.2450908e-02
 -2.0942757e-01
  4.6315596e-02
 -1.2561062e-01
  1.7054776e-02
 -1.9920106e-01
 -1.4373875e-01
 -3.2057384e-01
 -1.3649122e-01
 -4.8236288e-03
  3.6728051e-02
  6.0346022e-02
 -1.4774100e-01
 -5.3906422e-02
  2.8848008e-03
 -1.5146582e+00
  8.7952271e-02
  1.9116032e-01
 -3.5684556e-01
 -2.6745919e-02
  1.7423740e-01
 -2.1532708e-01
 -1.4484805e+00
 -2.0416415e+00
  7.4699596e-02
  9.9932708e-02
  1.6511294e+00
  1.2060415e+00
 -7.3604025e-03
 -8.4719568e-02
 -2.4372709e-01
 -1.4554724e-01
 -9.5675722e-02
 -1.7901640e-01
  4.6967363e-01
  2.7998509e-02
 -1.8599769e-02
 -1.0752836e-01
  2.3019333e-01
 -6.1672103e-02
 -1.3095924e-02
  3.7157547e-02
  1.7907980e-01
 -1.9690314e-01
 -1.9726828e-02
  3.6472136e-01
 -2.7785614e-01
  5.7666738e-02
  6.0357746e-02
  4.4283632e-02
 -2.7213046e-01
  9.7673506e-02
 -5.7824243e-02
 -8.2206555e-02
 -1.1106815e-01
 -2.8141648e-02
  5.5241007e-02
 -5.7696197e-02
  4.8720799e-02
  1.1026192e-02
  1.7823270e-01
  1.8077321e-02
 -1.2231654e-01
 -8.3512947e-05
  5.5890369e-01
 -3.4742895e-01
 -9.5231682e-02
  2.1363022e-02
 -2.4250709e-01
 -8.6786160e-03
 -4.1240454e-02
 -1.2080021e+00
 -1.0036818e+00
  7.1319884e-01
  3.5384752e-02
  4.9769315e-01
  5.4977190e-01
 -1.0374436e-01
 -1.2521076e-01
  1.6387123e-01
 -7.4487798e-02
 -5.4458324e-02
  2.5323528e-01
 -5.0283941e-03
 -5.4364003e-02
 -4.3282371e-02
 -6.7015797e-02
 -3.2060161e-05
 -1.4191402e-01
  2.5542682e-02
 -7.5439751e-02
 -2.8881213e-02
 -2.5806502e-01
 -6.2833028e-04
  1.9707501e-01
  1.1645201e-01
  3.0733159e-01
  5.2871469e-02
  7.0566900e-02
 -2.8116390e-01
 -1.0525547e-01
 -7.2533585e-02
  3.4110129e-02
  1.6171046e-01
  4.4360298e-01
  1.5043746e-01
  3.4042403e-02
 -3.5205358e-03
 -6.1024107e-02
  1.0445035e-01
  1.2622450e-01
  7.4837087e-03
  4.5277725e-04
 -3.0132260e-02
  4.1980565e-02
 -5.0332792e-02
  1.1629517e-03
  5.8026393e-03
 -8.2394302e-02
  4.7342144e-02
  1.7432278e-01
  9.4531514e-02
 -9.6912220e-02
  1.8192689e+00
  3.8830563e-03
  3.0740583e-01
  4.4483382e-02
 -2.8105373e-02
 -1.1209630e-01
 -1.5522139e-01
  8.2900417e-01
 -5.2404385e-03
 -1.4462932e+00
 -4.3142739e-01
 -1.2769490e-01
 -2.9530117e-02
 -7.6297401e-03
 -1.0608230e-01
  1.5408195e+00
  6.1130419e-02
  2.5480086e-01
 -3.4984693e-02
 -1.6549896e-01
  2.7811101e-02
  3.1222481e-01
 -1.0961936e-01
  7.7065870e-02
  7.6750077e-02
 -1.8129593e-01
  6.4818010e-02
  3.9724529e-02
  1.6820438e-01
 -2.1379828e-01
  1.4674611e-01
 -5.0512534e-02
  5.8746506e-02
  1.3216276e-03
  7.3540933e-02
  9.3345150e-02
  1.7041358e-01
 -5.8994934e-02
  6.0400594e-02
  4.3934863e-02
  6.6180624e-02
  1.5257546e-01
  5.8319699e-02
 -1.1929255e-01
  1.7540602e-01
 -4.9316324e-02
 -1.6463876e-01
 -3.4346586e-01
 -8.4277667e-02
 -2.5060037e-02
 -2.3258187e-02
 -1.3581493e-01
 -5.0348319e-02
 -9.4218932e-02
 -5.2649401e-02
 -8.5553445e-02
  2.5091591e-01
 -8.1044221e-01
 -7.1282946e-02
  2.6234674e-01
 -4.5362212e-02
 -1.0313268e-01
 -6.1513674e-01
 -3.7926104e-02
 -8.6438075e-02
  2.8868681e-02
 -3.1836096e-02
 -3.9804142e-02
  1.0211705e-01
 -9.0836547e-02
 -9.5187454e-03
  7.2993167e-02
  1.3645144e-01
 -2.0339403e-01
  1.1317728e-01
  9.4775774e-02
  3.5173330e-03
  4.6937761e-01
  7.3331863e-02
 -2.3675476e-01
 -5.4937422e-02
 -7.4006982e-02
  9.3861061e-01
  1.9088386e-02
 -4.0183991e-01
 -1.4569217e+00
 -1.7231999e-01
 -9.2952456e-03
 -7.2325784e-01
  1.9487904e-01
 -4.2594537e-02
 -4.5368895e-02
  5.3942438e-02
  2.4155506e-01
  2.6720269e-02
 -5.4418254e-01
  9.8106742e-02
 -8.3037323e-01
  5.5189222e-02
  6.6502106e-01
 -4.9778232e-03
 -1.5686655e-01
 -7.0619971e-02
 -9.0587050e-02
  8.6368851e-02
 -3.7733160e-02
 -1.0049064e-01
 -8.0082156e-02
 -4.2234037e-02
  4.2641391e-03
  5.9751142e-02
 -5.1834688e-02
 -2.6304004e-01
  1.7411546e-01
  9.3641490e-02
 -1.2827170e-01
  2.1573290e-01
  4.2634059e-02
  2.2475551e-01
 -1.0032006e-01
  3.2335874e-02
 -2.3075050e-02
 -3.2886869e-01
  5.0602591e-01
  3.4069069e-02
  1.4663940e-02
 -1.5753977e-01
  1.3635740e-02
 -5.3334434e-02
 -7.9456130e-03
 -1.3936485e-01
 -1.0592911e-01
  6.1679445e-02
 -6.1547086e-02
  2.3608536e-01
  1.6588537e-02
 -3.0408476e-02
 -7.7247098e-02
  1.4448278e-01
  5.6905009e-02
  5.3630141e-03
  1.1328490e+00
  5.6786168e-02
  3.5161832e-01
 -1.6741393e+00
  3.5833368e-01
  2.3068200e-01
  1.7155303e+00
  1.9435645e+00
  1.6023588e+00
 -2.8591476e-02
  1.9006433e-01
 -3.9582927e-02
 -1.1174409e-01
 -1.2861076e-01
 -3.1389974e-02
  3.1118509e-01
 -1.7558436e-01
  4.8706703e-02
  1.0575418e-02
  7.9036124e-02
  4.3241061e-02
  8.0814265e-02
  3.1502008e-01
 -4.4679295e-02
 -3.7973408e-02
  3.3432671e-01
  2.8441924e-01
 -1.3986260e-02
 -2.8515039e-02
 -1.3319390e-01
 -1.8078234e-02
 -1.0240345e-02
  1.0107879e-01
 -4.6873190e-02
 -1.3105915e-01
  3.2417243e-03
 -2.0025486e-01
 -2.7013314e+00
 -9.6821435e-02
  1.5419804e-01
 -6.7376904e-03
 -6.4391084e-02
  9.3407072e-02
  9.5243044e-03
  4.6587694e-03
  6.4263985e-02
 -8.5083455e-02
 -1.9094673e-01
  1.1583465e-01
 -3.4907916e-01
  5.6890279e-02
 -9.8716134e-01
  8.7912428e-01
 -1.4061658e+00
  3.1580660e-01
 -8.0520384e-02
 -1.1245309e+00
 -3.7889256e+00
 -5.6761044e-01
 -1.3084270e-01
 -8.2281792e-01
 -1.8191259e-01
 -2.5117280e+00
 -2.6012695e-01
  2.4374124e-01
  6.0186040e-01
 -8.3274400e-01
  4.9022010e-01
 -1.3527094e+00
 -5.6771696e-01
 -3.2734663e+00
  1.7739111e+00
  1.7263660e+00
  7.3348057e-01
  3.8137195e-01
  8.2895666e-01
  9.0844566e-01
 -8.6883388e-02
 -2.7547617e-02
 -6.1867547e-01
  3.2083082e+00
 -2.3075399e-01
 -3.0339861e-01
 -4.3675357e-01
 -4.6474746e-01
  4.7958024e-02
 -1.6043451e+00
  5.9574628e-01
  1.8866129e-01
 -9.3877211e-02
 -6.0048652e-01
 -7.5319481e-01
  1.3330579e+00
 -4.0268920e-02
  1.1849278e-01
 -4.6098059e-01
  5.3833503e-02
 -7.4731010e-01
 -5.3273636e-01
  1.9359823e+00
  5.0989646e-01
 -5.6101441e-01
  1.1181946e+00
 -2.5723785e-01
  1.3834910e+00
 -3.3361268e-01
 -7.3778224e-01
  8.6457349e-02
 -1.9630438e-02
 -1.0041825e+00
 -1.0512378e+00
 -2.6519067e+00
 -3.1752295e+00
 -7.3925503e-02
  2.1131566e+00
  1.2647913e-01
 -1.6961669e+00
  4.4125465e-01
  6.6315830e-01
 -8.4951615e-01
  1.7538700e-01
 -1.4071123e-01
 -1.0899240e-01
  1.4410942e-02
  5.2773362e-01
  3.7861072e-02
 -2.7714309e-01
  2.1515233e-02
  4.8038080e-02
  2.9235989e-01
 -1.4939062e-01
  1.1367472e-01
  1.7911808e-01
 -1.8995482e-01
 -3.8631190e-02
 -4.3464983e-03
  2.0759869e-02
  3.8367820e-01
  9.2662601e-03
  1.2492207e+00
  1.2516505e-01
  7.3409051e-02
  5.4316920e-01
 -1.5633591e-02
 -1.1970880e-02
 -3.4863776e-01
 -5.8421469e-01
 -1.0081159e-01
 -1.2074691e-02
  1.3470858e-01
  1.0870017e-01
 -2.1955855e-01
 -3.0234328e-01
  2.2453460e-01
  4.9486253e-02
 -1.0806641e-02
 -2.0197809e-02
 -3.6834556e-01
 -7.8814328e-02
 -2.7329305e-01
 -1.2120820e+00
  7.8376913e-01
 -1.0220649e+00
  5.8471990e-01
 -2.4965792e+00
  9.1467988e-01
 -4.0919933e+00
  1.3289145e-02
  1.2444913e-01
  1.2516325e-02
 -2.4333556e-01
  1.2906562e-01
  9.7384445e-02
  1.2910233e-01
  7.0643306e-02
  1.8882273e-01
  4.5684986e-02
 -4.7428355e-01
 -3.4549952e-02
  3.4860231e-02
 -4.3091950e-01
 -9.4137239e-01
 -5.2509683e-01
 -9.6416898e-02
 -2.7952236e-01
 -1.4973396e-01
  1.1867642e+00
 -2.1595971e-01
 -3.3530170e-01
 -5.7195235e-02
  1.0279899e+00
  3.2744390e-01
  1.5450472e-01
 -6.5155244e-01
 -1.2659478e+00
  3.1038195e-02
 -8.8130362e-02
 -4.6615198e-01
 -1.7252034e-01
 -4.2630129e-02
 -4.9034547e-02
 -7.1951196e-02
 -9.7090065e-02
  3.4543571e-01
 -2.0744437e-01
  4.0264811e-02
  6.6399223e-01
  1.8440889e-01
  2.7485497e-02
  3.0174488e-01
 -1.0852880e-01
  2.8583501e-02
 -3.7055439e-01
 -1.0140931e-01
  6.1319686e-02
 -3.2301751e-01
  3.2551371e-02
 -8.4297888e-02
  4.8152497e-03
  2.1397574e-01
  1.1628886e-02
  3.4770586e-02
  7.6729216e-02
  2.5992435e-01
  3.6539000e-02
  1.4717759e-02
 -2.2653712e-01
 -3.0420080e-02
  1.2935343e-01
 -6.2676109e-02
 -1.7993774e-02
  2.1410983e-02
 -1.1354212e-03
  4.6159941e-01
 -2.4298612e-02
  4.2912420e-02
  3.7821122e-02
 -2.3832771e-01
 -7.9838343e-02
 -1.7168573e-01
  2.0124310e-01
  9.5333457e-02
 -4.9632844e-02
  8.0357462e-02
  1.2710901e-01
 -9.5718220e-02
  1.1702293e-02
 -1.7945032e-01
 -1.6979137e-01
 -2.0156941e-01
 -6.4468853e-02
  8.5645789e-01
 -3.7826589e-01
 -5.2140597e-02
  9.0761029e-04
  2.7527219e-01
 -3.6162344e-01
  9.1177784e-02
  9.9521512e-01
  1.5910885e-01
  4.0328774e-01
  5.9086005e-03
 -5.7728446e-01
 -3.6343056e-01
  1.1462349e-01
 -4.8935089e-02
 -1.0857377e-01
  1.3336219e-01
  3.1249629e-02
  2.3731422e-02
  1.7672166e+00
 -6.3286833e-02
 -2.6350499e-03
  7.9936297e-05
  1.2317134e-01
 -3.7982333e-02
 -1.8287583e-01
  1.4728790e-02
  2.4709961e-01
 -1.1154877e-01
  2.2743577e-01
  5.5505648e-02
  7.4657172e-02
  7.9821520e-02
 -3.8209567e-03
 -4.9145680e-02
  2.4300551e-01
  1.9762127e-02
  1.0208910e-01
  6.1752512e-03
 -1.3180569e-01
 -8.7916426e-02
 -1.5819727e-01
  2.2808775e-02
 -3.9391272e-02
 -1.8416304e-02
  1.5670834e-01
 -1.6343458e-01
 -1.5245179e-02
  1.5179987e-01
  3.1591911e-02
  3.1148314e-02
  7.7823095e-02
 -7.7077881e-02
 -1.9241452e-01
  2.5660403e-03
 -3.0978063e-01
  4.0812049e-02
  2.3509438e-01
  1.6159816e-01
 -6.1316732e-02
 -1.2694352e-02
 -1.0115275e-01
 -3.8464723e+00
  4.6782151e-02
 -7.1257696e-02
  2.7958873e-01
 -3.9475683e-02
 -6.6998020e-02
  1.2292216e-02
  1.5323004e-02
 -1.6244704e-02
 -5.4544933e-02
  8.1553555e-01
  6.4957671e-02
 -1.8796580e-02
 -7.3513798e-02
 -2.5065777e-01
 -9.4558217e-02
 -3.6074445e-01
  1.8714885e-01
  1.3388629e-01
 -3.2925996e-01
 -8.3840694e-03
  1.0430440e-01
  2.9000107e-04
 -2.3768082e-02
  1.0095642e-02
 -2.3810575e-02
  1.7124278e-02
 -1.8226931e-02
 -7.8725733e-02
  6.9460191e-02
 -2.0700699e-02
  1.7732595e-01
  9.6724750e-03
  8.2428902e-02
 -1.0760047e-01
  8.4496044e-02
  5.6271106e-03
 -3.8360897e-01
 -2.1964569e-01
  1.0575970e-01
 -7.1805261e-02
  1.6636786e+00
 -1.0223953e-01
  5.2345198e-01
 -1.8750571e-01
 -5.5806822e-01
  1.7801632e+00
  1.8422912e+00
  8.7012522e-02
  1.8871658e+00
 -1.2106050e-01
 -1.0911824e-01
 -3.6612146e-02
  1.0131014e-01
 -5.8357522e-02
 -2.1290444e-01
 -1.3663840e-01
  3.4023006e-02
  1.8178966e-02
  1.4921587e-02
 -2.7746296e-01
 -3.7471592e-01
 -9.8523507e-03
  2.0193571e-01
 -1.6211435e-01
 -3.8808670e-02
  1.5149044e-01
  1.8689510e-01
  8.0770969e-02
  8.5437305e-02
  6.1137404e-02
 -1.5771355e-01
  7.6189965e-02
  3.0540144e-01
 -8.2139140e-03
 -2.5545505e-01
  8.0526233e-02
  3.4500238e-01
  1.5930835e-02
 -1.5632160e-02
  1.9262114e-01
  7.0129655e-02
 -1.0959282e-01
  1.7387532e-02
  3.1074110e-02
 -1.1279013e-02
  2.1710449e-01
 -5.3958032e-02
 -9.1016721e-03
  3.1086773e-01
  1.4850652e-02
  2.7997783e-01
  1.8438734e-01
  9.1395521e-01
  5.3883481e-01
  8.7533206e-01
  6.3648552e-01
 -1.6650465e+00
 -2.6221153e-01
  2.4487348e-01
 -7.4979864e-02
 -1.7706755e-01
  8.1847019e-02
 -8.3897114e-02
 -3.7662800e-02
 -1.0119557e+00
 -3.3677649e-02
  1.0363472e-01
  8.1081413e-02
  8.5119113e-02
 -5.1376972e-02
  1.9541036e-02
  1.0426874e+00
 -4.0732631e-01
 -2.7160209e-01
 -4.1108686e-02
 -7.3954159e-01
 -3.6668312e-02
  2.1231586e-02
 -5.3844381e-02
 -4.5503864e-01
 -9.8745115e-02
  1.0363480e-01
  1.3670350e+00
  7.1506552e-02
 -4.7556841e-01
  2.9444802e-01
 -1.1495434e-02
  3.4594357e-02
  1.9020030e-01
 -7.0316380e-01
  6.0961787e-02
 -7.5333059e-02
  1.4652519e-01
 -9.2219830e-02
  1.8131676e-01
  3.2456181e+00
 -4.6596896e-02
  8.8184953e-02
  1.0215677e-01
  4.1601311e-02
  3.8279691e+00
 -1.0805668e+00
 -8.2642215e-01
 -2.2747550e+00
 -3.3800471e+00
 -9.1933334e-01
  1.1355652e+00
  4.4492066e-01
 -3.2344304e-02
  2.6107168e-01
 -5.5239577e-02
 -6.3110247e-02
  5.0457828e-03
  1.6880617e-02
 -1.9035807e+00
 -3.5978514e-01
  3.9158225e-02
  3.5344854e-02
  3.5484114e-01
 -1.7067918e-01
 -3.2136433e-02
  1.7707966e-01
 -1.7696831e-01
 -1.9767125e-01
  1.1167793e-01
  7.1791455e-02
  5.9519336e-02
  1.6175492e-01
  2.0225896e-01
  4.8791379e-02
 -2.6168242e-02
 -1.9226514e-01
 -1.6487233e-02
 -3.0887201e-03
 -1.6078936e-01
  1.2859432e-01
 -1.6250999e-01
 -4.3930657e-02
  4.4484314e-02
  3.1589177e-01
  6.5251932e-02
 -1.1325499e-01
  2.8401911e-02
  1.3911724e-01
  1.0663256e-01
  2.8125567e-03
  5.0560445e-02
  1.2289441e-01
  1.0373659e+00
 -1.0738013e+00
 -1.1766814e-01
  3.2360937e-02
  7.0999660e-02
 -3.1812567e-01
  1.6121233e-01
 -4.6048693e-02
  1.7442191e-02
  4.4846106e+00
 -3.9186683e-02
 -2.9684175e-02
  4.1257642e-02
 -2.8029832e-01
  6.4108789e-02
 -1.5858468e-01
  9.0053402e-02
  3.9853152e-02
 -1.5669381e-02
  2.9381594e-02
 -1.9427642e-02
 -1.3074628e-01
  3.6298358e-01
  5.0072696e-02
  1.5283403e-02
  7.5250849e-02
  1.6682456e-01
  6.1766166e-02
  9.0367369e-02
 -2.7955148e-01
  1.1339828e-01
 -5.7681926e-02
 -3.0774927e-01
 -1.3477589e-01
 -1.4861287e-01
 -6.0634758e-02
 -1.1089953e-02
 -3.3071771e-02
 -1.0204538e-01
  1.3319992e-01
 -7.3838495e-02
 -7.5065285e-02
 -2.7613747e-01
  1.8504241e-01
  1.5473016e-01
 -6.0272478e-03
  1.3632625e-01
  4.9749576e-02
  8.9053847e-02
  1.8532000e-01
  1.2323428e+00
  8.6588192e-01
  9.2144680e-01
  9.1942078e-01
 -1.2207445e+00
 -2.4603699e-01
 -3.0053856e+00
 -1.1653981e-01
 -2.4929733e+00
  5.0377977e-01
  2.9607174e-01
  3.5834871e-02
  2.3150313e-01
  8.9174695e-02
  5.3698558e-02
  1.1021523e-01
 -5.1984854e-02
  1.1168643e-03
  1.5185549e+00
  3.4395408e-02
 -1.3874832e-01
 -8.4527723e-02
 -9.3288682e-02
 -1.2221243e-01
  1.8639438e-02
  8.2237273e-02
  2.2036843e-03
  5.2309204e-03
 -2.1250840e-02
 -4.9121860e-02
 -8.5425757e-02
 -5.9988942e-02
  2.6454768e-01
  9.9052927e-03
  6.3877620e-02
  2.9685335e-02
 -2.1596995e-01
  1.1550365e-01
  2.7199769e-01
 -6.6910617e-02
 -4.4534574e-03
  1.2878461e-01
  3.1529084e-02
 -4.3164715e-02
 -6.8955050e+00
 -4.8924994e-02
 -7.6145739e-03
 -2.8181067e-01
  1.4447233e-01
  4.7299135e-02
 -6.6436656e-02
  2.3072840e-01
  1.0931987e-03
 -1.2049434e-01
 -1.9123326e-01
 -4.5401841e-02
 -4.8800275e-02
 -3.3170116e-01
 -1.1538200e-01
  1.1008884e-01
 -7.9741254e-02
 -1.6076142e-01
  2.1047834e-01
 -1.5255499e-01
 -1.6475288e-02
  1.9284061e-01
 -1.2925191e-01
 -1.5408477e-01
  4.8930462e-02
 -1.5053756e-02
  1.9673008e-01
  1.3074320e-02
 -2.2921135e-01
 -5.7219908e-02
  1.9800399e-01
  9.9248119e-02
 -7.4266471e-02
 -1.7624553e-01
 -2.6638521e-02
  9.3044480e-03
  1.1445291e-01
 -2.0935697e-02
 -4.9215725e-01
  5.5164736e-02
  3.7635453e-02
 -1.2166728e-01
  1.3216776e-01
  6.5908199e-03
 -2.7643379e-02
  1.2962693e-01
 -1.5039142e-02
 -7.6862119e-02
 -9.9437401e-02
  3.4415983e-02
  6.8149522e-02
  1.2684312e-02
 -3.0552378e-02
  9.8800644e-02
  2.5557950e-01
 -5.8700651e-01
 -5.0498432e-01
 -1.6430441e+00
 -1.1365933e+00
  1.6129100e+00
  8.4965968e-01
  1.8680008e-01
 -7.2979259e-01
 -1.0432404e-01
  8.8634100e-03
 -7.8861862e-02
  1.3778926e-01
  9.1379732e-01
 -5.2835453e-01
 -1.1542847e-01
 -1.4854079e-01
  1.9109538e-01
 -2.5681172e-02
  1.3572808e-01
  7.0183896e-02
 -2.5775412e-02
  2.6721686e-02
  8.5317247e-02
  7.9301715e-02
 -1.4387573e-01
  9.1605954e-02
  3.5117649e-02
  2.4420288e-01
 -1.3274921e-01
  8.7064290e-01
  2.8966349e-01
  1.1718096e-02
  3.8534459e-02
 -1.5716666e-01
 -1.8752237e-01
  1.4077646e+00
 -2.6371527e-01
  1.4846604e-01
  1.5312098e-01
 -1.0642381e-02
 -8.6605363e-02
  1.4450843e-02
 -7.0184752e-02
  1.8756790e-01
  4.5535460e-02
 -4.2101342e-02
  1.9187689e-02
  2.4349752e-01
 -7.8996703e-02
  1.1295877e+00
  2.5630977e-03
  6.7275241e-02
 -1.5402313e+00
  6.2844282e-01
 -3.8530214e+00
  4.6935123e-01
 -2.0310460e-02
  3.3499175e-01
  2.3316528e-01
  2.6483864e-02
 -3.8090461e-01
  8.4638767e-02
  2.9287481e-01
 -2.8733936e-01
 -1.3905485e-01
  7.8540131e-02
 -1.4729992e-02
 -1.2898213e-01
 -5.7297368e-03
  1.1287209e+00
 -1.5358746e-01
  5.0058208e-02
  1.4140648e-01
 -2.3854139e-01
  5.6110390e-02
  1.6678475e-01
  3.9463017e-02
 -2.2082685e-01
  3.2192983e-02
  9.6972376e-02
 -1.7839791e-01
  5.5013556e-02
  1.2046075e-01
  6.4268842e-02
  7.5281367e-02
 -1.2757201e-01
 -1.0266580e-01
 -2.7924773e-01
 -3.1655666e-01
 -4.4330183e-02
  4.2659007e-02
 -8.4869549e-02
 -2.8113490e-01
 -1.3842507e-01
  1.2473334e-02
  1.6085483e-01
  2.2905713e-01
 -9.5938051e-01
 -1.1022409e+00
 -3.5194618e-01
  2.9752812e-01
 -2.0589741e-01
 -2.7537022e+00
 -1.6099972e+00
 -5.2405113e-01
  3.1572074e-02
  3.5380289e-01
 -1.5517953e-01
  2.0137660e-01
 -2.4628169e-03
  2.1487615e-01
  8.7204300e-02
  5.5347662e-02
 -1.1891539e-01
 -3.3486769e-02
  1.2760969e-01
 -5.3308330e-02
  5.0925434e-01
  3.5948244e-01
  2.7909794e-01
  2.7409607e-01
 -8.0640830e-02
 -2.2716958e-02
  9.4752319e-02
  8.1605965e-01
 -8.4781575e-01
 -8.9681961e-02
 -1.9405302e-01
  5.9387195e-01
  1.5042110e-01
  8.4343078e-03
  1.5639871e-01
  1.9136737e-01
  4.9679723e-02
  2.9237201e-03
  2.2552754e-01
 -2.2092043e-01
 -3.1298730e-01
 -1.0837082e-02
  1.1243119e-01
 -6.1710246e-02
 -2.5594261e-01
  2.4904752e-01
  1.2796509e-01
 -1.9108953e-01
 -7.2797410e-02
  2.6793656e-01
  2.3087909e-02
  1.7857647e-02
  2.1641098e-01
  4.4364486e-02
  3.7640703e-01
  8.5127346e-02
 -2.5098357e-02
  1.0465738e-01
 -2.6705575e-01
 -4.9341865e-02
  1.8583912e-02
 -3.4324279e-01
  1.6968198e-01
  2.9697828e+00
  1.4460997e-02
  3.3756167e-02
 -7.9776689e-02
 -8.4024988e-02
 -1.6928911e-02
 -2.9276350e-01
 -7.2010212e-02
 -3.8422891e-01
 -5.0723597e-02
 -2.9275423e-02
 -1.3083363e-01
  2.0524564e-01
 -7.5660922e-02
 -1.8689351e-02
 -1.0983101e-02
 -4.2642925e-02
 -1.5768676e-01
 -1.1206834e-01
 -2.8588725e-02
  1.1100652e-01
 -2.9742949e-02
 -6.0067486e-02
 -2.5270524e-02
  1.6097547e-01
 -3.8045794e-02
 -5.1032420e-02
 -8.9067958e-02
  6.6507302e-02
 -1.2835190e-01
 -2.9526281e-03
 -1.6684465e-01
 -4.9038209e-02
 -2.0673363e-01
  2.3001149e-02
  1.9507967e-01
 -6.1749246e-02
  2.9658202e-02
  3.4581028e-02
 -8.3818622e-02
 -5.5632509e-02
  3.1606428e-02
  3.5380647e-02
 -4.7928452e-02
 -2.9263502e-01
  1.9312949e-01
 -3.4904595e-02
  2.8763069e-02
 -1.7308427e-01
 -8.3977684e-02
  7.1900733e-02
 -4.4981692e-02
 -1.7024291e-01
 -2.5355518e-01
  5.2618943e-02
  1.5504256e-01
  6.4027831e-02
  1.5951946e-01
  7.1152978e-02
  1.5707743e-01
  4.2984746e-02
 -2.3702447e-01
 -1.8553946e-02
  5.7672385e-02
 -8.2998291e-02
 -2.9741043e-02
  5.4590777e-02
  2.8540825e-02
 -7.8248277e-02
  3.4250986e-02
  6.8917811e-01
  5.4963369e-02
  6.4377196e-02
  1.9479810e-01
  2.0285821e-01
 -4.1346047e-02
 -8.8383484e-01
 -6.2588245e-01
  2.4079558e-02
 -6.4079799e-02
 -1.8336728e-01
 -1.3659699e-01
  1.5527421e-01
 -6.9976874e-02
  5.0315452e-03
 -1.0445186e-01
  2.4929073e-01
  2.3138974e+00
  1.0996387e+00
 -1.1697981e-01
 -3.6080846e-01
  3.1970158e-01
 -7.7713400e-02
  1.5724826e-01
 -2.1626812e-01
 -2.1981159e-01
  2.9076973e-01
 -3.5316569e-01
 -1.8242471e-01
 -1.0745403e-01
 -6.3878179e-01
  3.6635479e-01
 -8.5802890e-02
  2.9609224e-02
  1.9102454e-01
 -5.1026739e-02
 -6.2083449e-02
  1.6563211e-01
  4.4115830e-02
  5.5701196e-02
 -1.1709886e-01
  2.5526488e-01
 -2.3355292e-02
  5.5108313e-02
  1.3526565e-01
 -9.8214760e-02
 -1.1015391e-01
  7.6202683e-02
 -1.9750376e-01
  1.0659158e-01
  1.1287302e-01
  3.0730161e-01
  5.2111257e-02
 -1.1004210e-03
 -1.6600534e-01
 -4.7729727e-02
  1.5239680e-01
 -3.8913339e-01
  3.9757259e-02
  8.9378797e-02
  4.5681514e-02
 -5.5904973e-02
  5.9731547e-02
 -9.9356331e-02
  8.7977657e-03
  1.0409536e-01
 -5.4637160e-02
 -4.5146111e-02
  6.5977715e-02
 -6.4704632e-03
 -1.3533990e-01
  1.7230628e-02
  2.6769644e-02
  2.3543352e-02
 -2.7686313e-03
  5.3017374e-02
  1.7117874e-01
 -2.5066588e-02
 -1.1115610e-01
  1.6987920e-01
 -8.2132272e-02
  5.9586700e-02
  3.0128751e+00
 -6.8237379e-02
  1.4244483e-01
  2.3168564e-02
  1.6806360e-01
  5.2476893e-03
 -3.6845222e-01
 -2.1277040e-02
  8.2717299e-02
  5.3234078e-02
  6.0966164e-02
  1.3022566e-01
  1.4390265e-02
 -1.2121979e-01
 -6.5906920e-02
 -1.8548619e-02
 -1.6823874e-01
 -2.8942591e-02
  2.1434785e-01
  7.9046562e-02
 -2.3271808e-02
 -8.6543951e-03
 -1.5592435e-02
  4.3501593e-03
  1.7685838e-01
 -2.2183631e-02
  8.7819599e-02
 -2.2630666e-01
  1.2927644e-01
  9.4166204e-02
 -2.6881388e-01
  2.5192278e-02
  1.7907302e-01
  8.7229252e-01
  3.5794970e-01
 -6.9426801e-03
 -2.7977247e-02
 -3.0042812e-01
 -2.1542417e-01
  1.1619975e-01
  7.9911962e-02
  2.3877095e-02
 -7.8315884e-02
 -2.4526241e-01
 -1.1919688e-01
 -3.9479289e-02
  2.7027661e-01
  4.1241581e-03
  2.9566646e-01
  1.2217096e-01
  1.4185448e-01
 -7.1571991e-02
 -1.4453214e-01
  1.3055187e-01
 -1.9577581e-01
 -6.4063363e-04
  8.9310795e-02
 -2.3164725e-01
 -1.0328360e-01
 -9.9898204e-02
  6.3280396e-02
  1.3148183e-01
 -8.4395565e-02
 -2.6304814e-01
  9.7241156e-02
 -2.1948655e-01
  2.6892927e-01
 -5.3502724e-02
  1.2065722e-01
 -2.9899515e-02
  1.2967023e-01
  6.0406651e-02
  1.4610705e-01
  3.4985349e-01
  6.2858039e-01
 -2.7913600e-02
 -2.5241333e-01
  1.3379729e-02
  8.9258263e-03
 -9.7899780e-02
  8.4519193e-02
 -8.4262183e-03
 -5.9721339e-01
  8.7145433e-02
  8.0619417e-02
  2.1957383e+00
  6.3014686e-02
 -1.7702736e-02
  1.9162932e-01
 -5.4808348e-02
 -1.9976950e-01
  1.4404433e+00
  8.8608846e-02
  2.1948190e-02
 -1.2953688e-02
 -1.9393346e-01
 -3.3059124e-02
  2.5417787e-01
 -2.4689836e-02
 -5.2596666e-02
 -8.4772751e-02
  1.2290983e-01
  6.3382648e-02
 -9.1020174e-02
 -5.1311057e-02
  2.0083273e-02
 -2.6864414e+00
 -8.3681326e-03
 -1.4849801e-01
 -1.2185047e-02
  2.6564591e-02
 -2.0317098e-01
  7.4956074e-02
  3.7325021e-02
 -1.8331587e-02
 -1.6876213e-02
 -5.2962255e-02
  2.9354778e-01
  2.9851413e-01
  4.0377676e-03
 -9.0097256e-02
  8.4897468e-04
  1.1425904e-01
  1.1560579e-01
 -4.1730091e-01
  8.1901893e-02
  8.0710724e-02
 -3.1972086e-01
  1.8572394e-02
 -4.1068015e-03
  1.0806220e-01
 -1.1787614e+00
 -1.1078482e+00
 -5.2661210e-01
 -2.9501781e+00
 -6.9324088e-01
  5.9434193e-01
  6.5012522e-02
  1.4466612e-01
  1.2046671e+00
 -8.6373113e-02
  5.1067206e-03
  1.7622549e-02
  4.2249182e-01
 -5.8231121e-03
 -2.5931532e-02
  1.1771604e-01
 -1.6841227e-01
  2.6498038e-01
  1.2079862e-02
 -8.4937721e-02
 -3.2013443e-01
 -6.0687229e-02
  1.0011187e-01
  5.2972293e-01
  1.4846954e-01
  1.5836677e-01
  1.0277107e-01
  5.7732310e-02
  3.8871753e-01
  1.0640278e-01
  2.8252287e-03
 -5.3553410e-02
 -7.3740268e-01
  1.0262193e-01
 -6.3995302e-02
 -1.2201384e-01
  4.5255754e-02
  2.6433560e-01
 -7.9565212e-02
 -1.2771436e-02
  2.2949603e-01
 -2.3508269e-01
 -2.2141110e-02
 -9.7213507e-02
  4.7407206e-02
  3.8562763e-01
  3.0072957e-01
 -3.9952457e-01
  5.6318814e-01
 -3.3575341e-01
 -4.5195422e-01
  4.4887453e-01
 -3.1224620e+00
  5.3692549e-03
 -1.3740869e+00
  2.5362405e-01
  2.5352302e-01
 -3.7914964e-03
  1.3411061e-01
 -2.8252500e-01
  2.6160821e-01
 -6.1529476e-02
  7.6260760e-02
  3.7575328e-01
  9.4937887e-03
  3.2455385e-02
  1.7930892e-01
 -2.4910033e-02
 -2.1308167e-02
 -1.0951987e-01
 -1.0253911e+00
  1.1060208e-01
  8.8557303e-03
  8.7150494e-03
 -6.2298335e-02
 -1.2585139e-01
 -1.6062674e-01
  2.6793790e-01
 -2.8209571e-02
 -1.7229874e-02
 -3.2632986e-01
 -1.0712044e-01
 -3.6308983e-01
 -1.5326753e-01
  6.6397399e-02
  4.5689035e-02
 -9.1226481e-02
 -5.6661494e-02
 -1.2533656e-01
 -6.5324314e-02
 -1.8160298e-01
 -1.6343939e-01
 -1.2923072e-01
  1.4702578e-01
 -1.2429697e-01
  3.6045661e+00
 -7.3969930e-01
  6.3242745e-01
 -4.8467221e+00
  9.5593745e-01
  5.1077938e-01
  2.1201303e+00
 -1.2680450e-01
 -2.8129326e-02
  2.6800817e-02
  5.9597369e-02
  1.0944909e-02
  2.2322674e-01
 -6.5762579e-02
 -8.0696993e-02
  5.5009361e-02
 -2.5766146e-01
  1.9568816e-02
 -2.0155655e-01
 -4.5600124e-02
  1.0388083e-01
  1.3372478e-01
  3.3901766e-01
 -6.4082943e-02
 -1.7375599e-01
 -1.4536659e-01
  3.7777264e-02
  2.8759787e-02
 -6.3005966e-01
  1.9728413e-01
  2.0146586e-01
 -3.0693823e-01
  2.7654519e+00
 -7.8641951e-01
  8.3518231e-01
 -1.0421214e-01
  1.8609850e-01
  2.5631627e-01
 -1.7015073e-01
 -2.8177172e-01
 -1.0138307e-02
 -1.7546073e-01
 -3.6152825e-01
  1.5518214e-01
  4.5026723e-02
  3.0664360e-02
  3.0913757e-02
  1.4738487e-01
 -4.5367591e-02
 -1.7351685e-02
  1.0938795e+00
  1.6212950e-02
  2.5289091e-01
 -8.0414224e-01
 -1.7351302e+00
  8.1399906e-01
  3.8391778e-01
  1.1121032e-01
  1.4433949e-01
 -2.6636347e-02
 -1.0457683e-01
  2.5581935e-02
  3.3340326e-01
 -1.2298819e-01
 -4.1531113e-01
 -1.2190521e-01
  1.1478712e-01
  1.9400360e-01
 -1.0635836e-01
 -6.1148071e-01
  4.0291193e-01
 -2.7250621e-01
  1.9412106e-01
  1.7670315e-02
  2.3420097e-01
  1.0256545e-01
  3.1383193e-01
 -8.7432255e-04
  2.0013453e-01
 -2.0225793e-01
 -3.7423143e-01
  3.2323742e-01
 -2.6386268e-02
 -1.8040955e-01
 -2.2677808e+00
 -2.3565145e+00
  6.1868120e-02
  4.0969659e-02
  8.9806832e-02
  2.1182568e-01
  6.7273108e-03
 -4.3715686e-03
 -5.4500126e-03
  8.6361467e-04
 -2.0309588e-02
 -4.7592111e-03
 -7.1328543e-02
  1.0475875e-01
  3.6407448e-02
 -2.4300992e-02
 -2.4812859e-03
 -5.0864482e-01
 -4.3702421e+00
  9.0530112e-02
 -1.9931442e-01
  1.3064915e-02
 -2.3998914e-02
  6.1477020e-02
  4.1114517e-02
 -2.0948324e-01
  5.7514124e-02
 -1.3232580e-01
 -1.1497072e-01
  1.0749552e-01
 -1.4493300e-01
  6.1174924e-03
  2.0742993e+00
  1.0588346e-01
 -2.6071981e-01
  1.1271992e-01
  4.0383540e-02
  1.5209535e-01
 -2.1862604e-02
 -4.4503223e-02
  7.1225971e-02
  5.9798300e-02
 -9.4120497e-01
 -2.3856971e-01
  1.1666575e-01
 -6.7661926e-02
 -7.6648176e-02
 -4.9429424e-02
 -3.4885313e-02
  1.7739710e-01
  8.4949322e-02
 -1.2389320e-01
  1.6439238e-01
 -3.7283424e-01
  1.2090325e-01
  3.2225016e-03
  6.9091243e-01
  5.2821115e-03
 -3.8679861e-02
  1.4679663e-01
 -1.5377696e-01
 -1.2532108e-01
 -3.1617962e-02
 -1.9913732e-01
  5.0675634e-02
 -6.5371834e-02
  9.0830630e-01
 -4.6520583e-02
 -2.1329844e-02
  6.0501199e-02
 -6.3924822e-03
  1.5956554e-01
  1.3271907e-01
  3.0260202e-01
  2.1001603e-02
  1.8480284e-03
  9.0270385e-02
 -2.5258073e-01
  1.6179563e-01
 -2.6673200e-02
  1.4601626e-01
 -7.0006080e-02
 -6.0144626e-02
  3.6362689e-02
  2.0651758e-02
  1.4392720e-01
  8.9867055e-02
 -7.6099089e-03
 -2.4741127e-01
 -2.0289537e-01
  2.2028582e-02
 -8.0483139e-02
  8.6366469e-01
 -7.2723143e-02
  3.0386323e-02
 -1.5441984e-01
  7.4700015e-03
 -5.5527426e-02
  1.7252112e-02
  8.4814196e-03
  2.4292199e-02
 -1.7692398e-01
 -1.1488842e-01
 -2.1310844e-01
  7.9394035e-02
 -6.7181088e-02
 -2.0452212e-01
  2.8530853e-02
  4.0379030e-01
  6.0436234e-02
  3.5086565e-02
 -5.4636069e-02
 -3.9146677e-02
 -1.7125225e-02
 -3.3553109e-02
 -3.0714080e-03
 -2.5910611e+00
  1.2768362e-02
  4.1667739e-01
  1.1281162e-01
 -3.1305313e-01
  8.0299698e-02
  4.2099119e-03
  3.1235808e-01
  2.1505628e-02
 -4.5716153e-03
 -5.4443952e-02
 -8.1084274e-02
  3.6128677e-02
  5.9450090e-02
 -5.0558567e-02
 -1.4411281e-01
 -2.3944403e-01
 -2.0850813e-02
 -1.3854980e-02
  9.6926145e-02
 -1.9523269e-03
  1.8679107e-02
 -1.7795529e-03
 -4.0802009e-02
 -1.2705150e-01
  5.2069612e-02
 -2.0576829e-01
 -2.1034923e-01
 -4.7542250e-01
  6.5610446e-02
 -4.9954180e-02
 -6.3490503e-02
 -5.0719452e-01
 -9.2996126e-03
 -8.8625096e-02
  3.0822750e-02
  3.0836160e-03
 -6.6567108e-02
 -6.6674542e-01
 -1.2795955e-01
  1.2704797e-01
  1.2210242e-01
 -1.2485911e-01
 -5.1651695e-03
 -1.5405045e-01
 -7.4466411e-03
 -4.6714698e-03
 -6.6499096e-01
  2.6364659e-03
  3.9103499e-01
  2.5773752e-01
 -3.5532882e+00
  7.0260242e-02
 -1.8660983e-01
 -8.3484408e-03
  2.3546946e-01
  1.5309462e-01
  1.9487266e-03
  3.9251927e-02
  8.6191565e-02
  8.4225629e-03
  6.5018445e-02
 -1.6305439e-01
  1.0890243e-01
 -1.6315809e-01
  1.4384955e-02
 -2.5579554e-01
 -1.2091124e-01
 -4.4235978e-03
  1.6141912e-01
 -1.1020573e-01
  1.1199164e-01
  1.0606632e-01
 -5.1301699e-02
 -1.6332349e-03
 -1.4319497e-01
 -1.0847174e-01
  1.9128975e-01
 -5.1473808e-02
  6.1142072e-02
 -7.6817736e-02
  2.9697690e-02
 -1.6972387e-01
 -5.3668972e-02
  1.2651013e-02
  1.6164488e-01
  1.0963078e-01
 -3.8286284e-02
 -2.4521853e-01
  2.0675106e-01
  7.5170405e-02
  3.0650824e-01
 -3.8574666e-02
  3.0892905e-02
 -9.3412563e-02
 -1.8251194e-01
 -1.3248038e-01
  1.6822647e-02
 -5.9337825e-01
 -1.6340053e-03
  1.9195054e+00
  6.2645175e-02
  3.6162598e+00
 -8.7004013e-02
 -1.7089047e-01
  8.6887963e-02
  2.4784757e-02
  1.1866155e-01
  7.3273465e-02
  1.6777712e-01
  8.1493728e-02
 -2.0334208e-01
  1.5404558e-01
 -1.5567240e-01
  1.5839460e-01
  1.7099777e-01
 -4.9541354e-02
  2.1278670e-02
  8.0300821e-03
  4.4466086e-02
  1.7018034e-01
 -3.7098162e-02
  6.6165447e-02
  1.2313172e-02
 -5.7609029e-02
  2.6072276e-01
  1.1178830e-01
  3.6662173e-01
 -1.5249316e-02
  6.9409437e-02
  9.7663596e-02
  1.0717835e-01
 -1.4625712e-01
  1.6358559e-01
  2.3500814e-01
  1.5886796e+00
  1.3875460e-02
 -4.9289823e-02
  1.7579053e-01
  1.4818618e-01
  2.0041956e-01
  5.7946857e-02
 -3.3927944e-01
  4.1369524e+00
 -2.5424156e+00
  4.6645194e-02
  1.6692885e+00
 -1.8708551e+00
  1.2331526e+00
  9.9360436e-01
 -1.7694452e-01
 -6.4095646e-01
 -1.6218291e-01
 -2.4056360e-01
  8.9727914e-01
  1.2263556e-01
 -5.9103206e-02
 -2.4905558e-01
 -1.0472266e-01
  1.0765195e-01
 -1.5556159e-02
  6.0721718e-02
  4.8058834e-03
 -1.2935989e-01
  7.7208661e-02
 -9.5704541e-02
  4.0655881e-02
  9.4815522e-02
 -3.2546580e-01
  2.2471040e-01
  3.4396526e-01
 -2.1896152e+00
  1.3671477e-01
  1.5444096e+00
 -3.6500514e-01
  1.4625160e-01
 -1.1599897e-01
 -4.9861580e-02
 -4.9692888e-02
  3.6068314e-03
 -2.3155038e-01
  8.4381148e-02
  2.4994764e-02
  1.3397101e-01
 -1.2719451e-01
  2.8236559e-02
 -1.9667615e-01
  5.9742210e-03
  6.1920527e-03
  1.4446037e-01
 -1.1665574e-01
 -3.5650298e-02
  1.0655812e+00
 -1.0709503e+00
 -4.7115084e-02
  1.7814665e+00
  6.1582708e-01
  2.4559803e+00
 -8.9620537e-01
  8.0525750e-01
  2.0385244e-01
 -1.6813672e+00
  1.7013165e-01
  2.2330227e-01
 -2.9532874e-01
  1.2814988e-01
  3.7292972e-01
  7.3967273e-03
 -1.1737509e+00
  1.4455057e-02
  1.3990498e+00
  9.5126891e-01
  1.0498653e-02
 -2.6459444e+00
 -1.0301247e+00
  1.8346953e+00
  3.7727948e-02
  1.4327140e+00
 -1.3660671e+00
 -2.8952186e+00
  1.8230145e+00
  3.3905235e-01
 -4.2951173e-01
  5.9348917e-01
  6.9779225e-02
  1.1580193e+00
 -3.5670319e-01
  6.2035292e-01
  1.0353543e+00
 -3.4946111e-01
  1.0737809e-01
  3.1937900e-01
  1.8319260e-02
 -3.0383435e-01
  2.4151510e-01
 -3.1148306e-01
 -1.3131836e-02
 -2.2319958e-02
 -6.5738618e-01
 -8.3896608e-05
  4.5079228e-01
 -4.4851635e-02
 -3.0234525e-01
  2.6728019e-01
  3.7909749e-01
 -3.7755343e-01
  1.4010349e-01
  2.3231742e-01
  4.3044612e-01
  1.0991302e-01
 -1.2334942e-01
 -4.5033199e-01
 -1.7220165e+00
 -4.7452015e-01
  1.7136472e+00
  8.0267131e-02
  4.2069241e-02
  2.5895337e-02
 -3.2169797e+00
  4.4518563e-01
  1.2927703e-02
  9.1145951e-01
 -5.5407566e-01
 -4.1752970e-01
 -1.6241920e-01
  7.8622410e-03
  8.1833297e-01
 -4.0960917e-01
 -4.6512231e-01
  5.7707813e-02
 -3.2926229e-01
 -1.8967811e+00
  1.9040290e-01
  9.4110024e-01
 -6.3455451e-01
  2.7613804e-01
 -1.8765083e-01
 -3.1416285e+00
  3.5953379e-01
 -5.2744293e-01
 -1.9226353e+00
  5.1937956e-01
 -1.6235551e+00
  9.6380043e-01
 -6.1551082e-01
  1.3362962e-01
 -2.1587830e+00
  4.0001809e-03
  5.3644663e-01
 -8.5547864e-03
 -8.0099756e-01
 -1.1773235e+00
 -1.7334903e+00
  5.3875613e+00
  1.6270635e+00
 -1.3101518e+00
  1.3142236e+00
  2.7618067e+00
 -1.7888442e-01
  4.6942520e+00
 -1.7018515e+00
 -4.2281231e-01
 -1.0321946e+00
  8.3906257e-01
 -2.2429817e+00
 -1.0007054e+00
 -2.2457368e+00
  2.1000547e+00
 -4.3907146e+00
 -2.4660449e-01
  6.8173236e-01
 -1.6878929e-02
  8.1729674e-01
 -1.0268494e+00
 -6.5393656e-01
 -1.8244114e+00
 -3.9957321e-01
  1.6773709e+00
 -1.8804395e+00
  3.9052830e+00
 -1.7387831e+00
 -1.2812175e+00
 -1.8729405e+00
 -6.1629641e-01
 -2.3228161e-02
 -3.4951048e+00
  2.5138450e+00
 -1.9335499e-01
 -1.0062358e+00
  1.7081099e-02
  1.1640231e-01
 -5.7290914e-03
  2.5439670e+00
 -2.3087027e+00
 -2.2361896e+00
 -4.2483273e-01
 -5.8656192e-01
 -6.2829061e+00
 -2.3930630e-01
  3.6727194e-02
  3.4570742e+00
  3.9660854e+00
  2.3430741e+00
  6.4450806e-01
 -1.5811307e+00
 -9.6602477e-02
  3.3993025e+00
 -3.0745399e-01
  7.9455143e-01
  1.3785461e-01
 -5.6989186e-02
 -1.8796280e-01
  6.9366373e-02
  7.2896582e-01
 -6.2162995e-01
 -4.9025157e-01
  3.8129199e+00
  3.4092245e+00
  1.0913422e+00
  6.0708176e-02
 -2.0867398e-02
  1.6395452e+00
 -1.1438562e+00
 -5.9867489e-01
 -1.6530794e+00
  3.3067161e-01
 -2.1999514e+00
 -3.5653511e-01
 -1.7213537e-01
  1.0160788e+00
 -2.3325956e+00
  3.5490651e-02
 -1.0367440e+00
  1.1170918e+00
 -2.1506488e+00
