nep4_polarizability 2 C H 
cutoff 7 4 194 39
n_max 6 6
basis_size 10 10
l_max 4 2 1
ANN 30 0
 -1.2822316e-02
  3.8804580e-04
  6.3725766e-03
 -3.3535466e-03
 -2.7841231e-01
 -1.9776499e-01
  3.3249557e-01
 -1.1485817e-02
  2.1068946e-02
  1.5170817e-02
  4.1561775e-02
  4.6269003e-02
 -3.9057646e-02
 -3.9762524e-03
 -3.5453006e-03
 -1.2147945e-03
 -7.8941397e-03
 -2.3779434e-01
 -1.0533221e-02
  1.5260830e-02
  9.9530667e-03
 -2.6817571e-03
 -3.1598252e-03
  6.4392136e-03
 -7.7002724e-03
 -1.4927573e-02
  1.3489202e-03
 -1.7701078e-02
 -6.4189844e-02
  2.5202379e-02
 -1.9726085e-02
  1.8348891e-02
  1.0100135e-02
 -1.1661950e-02
  1.9294736e-01
 -1.2052944e-03
 -1.1885695e-02
  3.9071892e-03
 -2.4953425e-02
 -9.6827494e-03
 -1.1050488e-02
  8.8742645e-03
  1.2346726e-02
  3.9798249e-03
  4.6769556e-02
  8.4260413e-03
  6.9822515e-03
  1.4646948e-02
 -8.0408351e-03
  5.0845095e-03
  6.1836094e-03
  4.4899497e-02
 -4.5075636e-02
  1.3663261e-02
 -7.6660782e-02
 -2.6659278e-02
  1.4207087e-01
 -9.0925977e-02
  2.2311497e-01
  2.1597238e-01
  3.7768772e-03
 -2.1982715e-03
  3.9286708e-04
 -2.6078351e-02
 -5.3437898e-04
 -6.7584366e-02
 -3.4148121e-01
 -2.0493521e-01
 -3.5738463e-03
 -8.7734483e-02
 -7.3137708e-02
 -1.6153625e-01
 -3.9019624e-03
  1.1095168e-02
 -6.3940808e-02
  7.5646512e-02
 -1.9232919e-02
 -1.1981205e-02
  2.0342210e-02
 -5.2111987e-02
  7.6433502e-02
  3.0806646e-02
 -4.4960673e-03
 -4.3364607e-02
  4.8191082e-03
 -9.7774556e-03
  1.0418411e-01
  4.6950383e-03
 -3.3346556e-02
  4.0943660e-03
 -6.0004398e-02
  1.3439986e-03
 -3.7835836e-02
  1.9564221e-02
 -2.6786077e-01
  2.8572348e-03
  5.5258228e-03
 -3.6930724e-03
 -7.7912229e-01
  6.7411727e-01
  2.5531590e-01
 -2.1553738e+00
 -1.8838249e+00
 -5.0912595e-01
  8.6525750e-01
  8.8189859e-03
  6.0416764e-01
  7.9385452e-03
 -1.8838907e-03
  4.9147680e-01
  2.6053412e-02
  1.2293097e+00
 -5.6080022e-03
 -7.1580249e-01
  1.7095816e-01
 -2.1433099e-01
  1.3962176e+00
  7.5164311e-02
  2.0230351e-02
  1.0947154e+00
  1.5442726e-01
 -1.5277277e-01
  1.0251864e-01
  5.3466959e-03
  8.1139458e-03
  1.1220659e-02
 -6.3315395e-04
  4.7546944e-01
  3.9778626e-01
 -1.0250567e-02
 -3.0807638e-01
  1.0240422e-02
  9.5740539e-01
 -1.8973712e-02
  5.2382182e-02
  6.2889908e-03
 -5.4091775e-01
 -3.2212086e-02
  1.6702561e-02
  4.2002029e-03
 -2.7632061e-02
 -1.5662465e-02
  2.9785521e-04
 -1.1169170e-02
  6.0556182e-03
 -3.9954207e-04
 -4.5822966e-03
  3.4992896e-02
  5.9101696e-04
 -4.4294591e-03
  1.2890150e-02
 -1.7118275e-02
 -1.4838758e-03
  8.8951979e-03
  4.9415850e-03
  7.8084937e-04
 -5.3547346e-03
  2.4244380e-03
  7.3517165e-03
  1.5342144e-02
  5.4088519e-03
  5.8502718e-03
 -1.5408638e-02
 -1.3482330e+00
  6.4497895e-04
 -3.1443734e-03
  1.9844856e-02
 -6.4959154e-02
 -1.1190055e-02
 -8.7466352e-03
 -7.1389428e-03
  9.7143126e-04
  9.3122004e-03
  2.4697392e-03
 -4.4658321e-01
 -2.8303911e-03
  3.8696916e-04
 -2.4638876e-02
  2.3576599e-02
 -4.9564294e-03
 -8.0884658e-03
 -1.3420378e-03
 -1.3253204e-02
  1.6736960e-03
  5.2502583e-04
  7.3227966e-03
  3.5149110e-03
  2.6130851e-04
 -4.6900301e-03
 -1.0098197e-02
  5.8074892e-03
  6.8744309e-03
 -1.1945546e-02
 -3.5851663e-03
 -2.3495024e-02
 -2.7716905e-03
 -1.7496524e+00
  2.5230031e+00
 -4.6246285e+00
 -1.1550732e+00
 -1.9924312e+00
  2.4040661e+00
 -2.2932580e-02
 -4.2195478e-01
  6.7357784e-03
 -9.7505283e-01
 -4.0072408e-01
  6.2764567e-01
  6.6892742e-03
 -9.7134179e-01
  1.5175463e-01
  7.0053473e-02
 -2.5190897e+00
 -6.3174337e-01
  3.0864936e-01
  1.8181260e+00
  7.8894300e-03
 -4.6851773e+00
  8.0919617e-01
  6.3634762e-03
  3.1583064e+00
 -1.8176187e+00
  1.5557303e+00
 -1.9971239e-03
  4.2204237e-01
  1.7350711e-02
 -9.2244340e-04
  1.2644374e+00
  5.1855251e-02
 -4.0498338e+00
 -1.3512179e+00
 -8.2483981e-03
 -7.9384902e-03
 -4.0672046e-01
 -3.3047479e-01
 -2.6596568e-03
  4.9654678e-02
  5.9796281e-02
 -7.8087752e-03
  6.1728680e-03
  3.3595308e-04
  2.1385890e-02
  8.0362102e-03
  4.3256879e-03
  9.4094090e-03
  2.2512206e-03
 -1.7897553e-04
 -5.0981855e-03
  1.2445484e+00
  1.2551778e-02
  3.3001156e+00
 -1.3925726e-02
 -4.1352948e-03
  5.5618528e-03
 -5.4919623e-02
  7.6959589e-03
  4.4995276e-03
 -2.5919452e-03
  3.1347681e-02
 -1.0747682e+00
 -2.5086502e-02
 -3.9356328e-03
  3.5365901e-03
  1.0857126e-02
  2.7211121e-04
  3.8801415e-03
 -1.5615291e-03
  1.8099041e-03
  4.2156838e-03
 -8.7048039e-03
  1.0221955e-02
  2.3270821e-02
 -2.0052331e-02
 -1.1962367e-02
  2.8237037e-02
  2.6068207e-02
 -7.2637452e-03
 -4.6613202e-03
  5.7316206e-02
 -1.9983368e-02
 -1.2564703e-02
 -1.3914998e-03
 -1.7241149e+00
 -2.2973809e-02
  7.0290355e-04
 -3.2335946e-03
  3.2642563e-03
 -7.2606602e-03
 -1.2400423e-02
  7.6448275e-03
 -1.5011601e-02
  8.8890776e-02
  4.6856008e-03
 -1.5061009e-02
  6.4700179e+00
 -1.4341351e+00
 -4.2692798e-01
 -9.0685022e-01
 -5.1355915e+00
 -1.1693661e+00
 -3.1931767e+00
 -1.8845659e-02
 -6.0533005e-01
  8.6998504e-01
  1.6996649e-01
 -6.8376428e-01
 -6.9657266e-01
  7.7078134e-01
  1.1829864e-02
 -1.2232226e+00
  3.2209000e-01
  6.9492817e-01
 -6.9974953e-01
 -5.4484260e-01
  1.2554049e-01
 -4.9648498e-04
 -2.0256184e-01
  3.5404873e-03
 -5.7193613e-01
 -3.4216380e-01
 -9.2605668e-01
 -1.5831132e-01
  1.1964147e-01
 -4.2138708e-01
 -9.3250843e-03
 -3.0653689e+00
  4.1316104e-01
  6.4411461e-01
  2.0200843e-02
  8.6473823e-03
  1.1335676e+00
 -8.1350552e-03
  1.5188901e-01
 -1.3262644e-01
  1.9443210e-02
 -9.2372680e-03
  5.9422415e-02
 -3.0300871e-02
 -3.7200853e-02
 -3.2500297e-02
 -1.9251651e-03
 -1.9248244e-03
  1.3356946e-02
  3.9041382e-03
 -9.0622939e-02
 -9.4623394e-02
 -7.0302993e-01
  1.4817059e-02
  1.7999503e-01
 -1.2800446e-01
 -1.3108800e-02
 -7.0856825e-02
 -1.3829732e-01
 -3.4771036e-02
 -4.4569805e-02
  5.3226318e-02
 -1.6779024e-02
  1.6637189e-02
 -2.5632547e-03
  5.4609284e-02
  5.7436280e-02
 -3.6989835e-01
 -1.8174273e-01
  3.1003013e-02
  6.3973233e-02
 -1.7407748e-01
 -1.1768434e-02
  2.4273973e-02
  2.7816002e-03
 -5.2399659e-03
  1.9000857e-01
 -1.2694680e-02
  1.4812048e-01
  4.2988624e-02
 -1.5343089e-01
 -5.9589100e-01
  5.9651291e-01
  4.2016176e-03
  7.8453636e-03
 -1.3115257e-03
 -5.7860788e-02
  3.2490224e-02
  1.6597572e-01
  3.1088979e-03
  1.4181859e-03
  4.2297668e-03
  1.0032468e-02
 -1.9768430e-02
 -1.7128054e-02
  1.5544839e-02
  9.3219988e-03
 -2.9562050e-03
  1.2283627e-01
 -2.5719612e+00
  1.2757514e+00
  2.7430906e+00
 -5.6083550e+00
 -8.5882962e-01
 -7.1904820e-01
 -5.6263828e-01
  7.7658880e-01
  9.5276199e-03
 -4.8408324e-01
  4.7493690e-01
  1.2804773e-02
 -3.2474214e-01
  5.2914005e-05
 -6.5984559e-01
  2.4624305e+00
 -1.7626804e+00
  6.3704269e-05
 -9.7568458e-01
 -4.4429596e-03
  1.5044117e+00
 -9.2114359e-01
 -2.0910854e-02
 -2.3343644e-01
  1.7289644e+00
 -9.5746353e-02
  2.8239694e-01
 -2.8860276e+00
 -3.2066646e-01
 -6.1107192e-02
  1.0639523e-02
 -9.2744818e-03
 -1.5000638e-02
 -3.1607124e-01
  1.6311878e-02
  5.3435993e-01
 -5.7660151e-02
  1.1716418e+00
 -2.0113982e-02
 -3.9604679e-03
  1.0105940e-02
  4.7322800e-03
  6.3969134e-03
  8.2549406e-03
 -1.3375275e-03
  9.9326363e-03
 -6.7078564e-03
  2.9812938e-02
  3.0181477e+00
  2.7859988e+00
  3.0537617e+00
  3.9336386e-01
 -8.9640504e-01
  2.2410777e+00
 -2.0360265e+00
  7.0010111e-02
 -4.3718207e-01
 -5.8879066e-01
  1.6702535e-02
  5.9200621e-01
 -1.3120857e-02
 -1.6465638e-03
 -9.7301863e-03
  1.8364419e-01
 -1.5132707e-02
 -5.1506385e-02
 -3.8290288e-02
 -4.0320955e-02
  8.7707609e-01
  5.4600592e+00
 -1.0537644e-01
  1.0258577e+00
  3.6798930e-01
  2.3955168e-01
  5.3947735e-01
 -3.6971220e-03
  4.1390726e-01
  2.1365764e+00
 -2.6581737e-03
  4.2969939e-01
 -2.0857894e-01
 -1.2193100e+00
  3.5930298e-02
  1.0869842e-03
 -1.4625866e+00
  5.3970348e-02
 -1.9855604e-01
 -1.1815222e-03
 -1.1767189e-02
  1.5879858e-02
  5.5239392e-03
 -8.6831267e-04
 -6.5970579e-03
  5.8835195e-03
 -3.0720014e-02
  1.4107306e-02
  1.9331691e-03
 -6.3534647e-01
  2.7391460e+00
  9.2379165e-01
 -8.6146945e-01
 -2.0336494e+00
  7.1811688e-01
  2.7068167e+00
 -8.7743175e-01
  1.1384186e+00
 -3.9521584e-01
 -1.1802204e+00
 -1.4412656e+00
  1.7445374e-02
  2.2323778e+00
  1.3081728e-02
  5.1035676e-03
 -1.1463534e-02
 -1.5874484e+00
 -4.7177213e-01
 -1.6444629e-01
  6.3469820e-02
 -3.4971614e+00
 -2.4401376e-01
  1.3393780e-02
 -9.7664088e-01
  5.7312721e-01
  4.5606068e-01
  1.2230807e-02
 -1.8251457e+00
  1.4272287e-01
  2.0024605e+00
 -1.1112670e+00
 -2.9458851e-01
 -1.2019528e-02
  1.5924791e-01
  3.1685855e-02
  1.9317252e-03
 -1.9283494e-03
  6.8441979e-03
  7.0802346e-02
  1.8326353e-02
  3.7338622e-03
  8.9637983e-01
 -2.0648111e-02
  2.9704795e-04
  4.5105571e-01
  6.1121001e-03
  3.5705805e-02
 -1.7247980e-03
 -1.9229321e-01
 -1.0059246e-01
  9.4828367e-01
  4.4390309e-01
 -6.2135361e-02
  1.1442284e-01
  4.6100542e-01
  3.2663658e-01
  3.8401753e-01
  2.6285995e-03
  4.0844965e-01
 -7.3719126e-01
 -1.6928665e-01
 -4.7693294e-01
  4.9298713e-03
 -5.6407505e-01
 -2.6133510e-01
 -2.1414492e+00
  4.9290128e-02
  1.7319216e-01
 -5.9438115e-03
  1.2943597e+00
  4.7799027e-01
  3.5628864e-01
  2.2383575e+00
 -7.0373937e-02
 -3.9614230e-01
  1.4383717e-02
  1.3299471e-01
  7.4418910e-02
  3.2148024e-01
  3.6263865e-01
  1.3260287e-01
  1.7049158e-01
  3.4541377e-01
 -7.5647528e-03
 -7.4215390e-02
  3.0924097e-01
  1.1698107e-02
 -7.2688729e-02
  6.4242870e-04
 -4.2056378e-02
 -2.4291659e-02
  8.7002860e-03
 -2.0260084e-03
  2.6819307e-02
 -5.1698298e-04
  2.1116735e-02
  3.2390628e-03
  7.2929799e-03
  4.2284880e-02
 -2.3446750e-02
  1.8676783e-01
  2.4554750e-03
  6.1318530e-03
  6.4951931e-03
  8.0465963e-03
  6.0122283e-03
 -3.8736144e-03
  7.3682759e-03
  6.4346776e-04
  1.0154635e-02
 -2.4800228e-02
 -1.4086522e-02
 -2.0724034e-03
 -1.9841293e-02
 -3.0455638e-03
 -3.1855388e-04
 -1.3759217e-02
 -1.7578000e-03
 -2.6319001e-03
  1.1844790e-03
 -4.7746473e-03
 -7.4094236e-03
  9.3599863e-04
 -2.2629467e-03
 -2.9236469e-03
 -5.2929358e-03
 -1.2406076e-02
 -6.4635307e-02
 -5.3174007e-03
 -4.5947791e-03
  9.6435361e-03
  3.1349731e-03
  1.6622942e-02
 -7.8223348e-03
 -6.6165919e-03
  4.0203021e-04
  1.2393772e-02
  6.4958236e-03
 -1.8294264e-02
 -3.2534406e-02
  1.9420093e-02
  1.0406812e-02
  1.2633011e-02
  2.6406229e-02
  2.8963484e-02
 -4.7273692e-03
 -8.6859983e-01
 -4.5067906e-02
 -1.1904010e-02
  2.4168139e+00
  1.8853409e+00
  8.8923168e-01
  6.0287125e-02
  2.2953827e-02
  9.8714703e-01
 -4.1199503e-03
 -2.2896008e-01
  6.3292122e-01
  1.4805514e-02
  7.1659195e-01
 -8.4126061e-03
  2.3907271e-01
 -9.0459836e-01
 -5.5802995e-01
 -2.6349884e-02
  2.5270343e-01
 -6.2310499e-01
  1.1926843e-02
  6.4902745e-02
  7.4528985e-02
 -4.6991866e-02
  6.0180858e-02
 -3.3195925e-01
  2.1371748e-03
 -5.4774505e-01
  1.2476277e-01
 -7.3906798e-03
  9.0196766e-03
  1.1157650e-01
 -1.6664453e-03
  4.3569235e-03
 -8.8565471e-03
  9.8660188e-03
  8.2551412e-02
 -5.1560235e-01
  1.2107948e-01
  2.9578386e-03
 -1.8835478e-02
 -2.5750531e-02
 -4.1237415e-04
  5.2686119e-03
  1.8571207e-02
  7.4802674e-03
 -6.5097613e-03
  6.4363228e-03
 -8.5922283e-01
 -4.4925049e-01
 -2.2649381e+00
  4.9171019e+00
 -1.1363338e+01
  1.1951215e+00
  3.2007871e+00
  4.1816845e-03
  3.4622053e-04
 -1.0860510e-02
 -4.2122384e-03
  1.1234602e-02
  1.8722339e-02
  2.6120225e-02
 -5.9881960e-03
 -2.8929655e-03
  1.0697332e-02
  1.0813849e-02
  3.6215002e-04
  2.9727632e-02
  5.6065939e-02
  1.3674879e-02
  5.0681874e-02
  1.2292027e-02
  9.0934113e-03
  5.7303034e-02
  1.1699859e-02
  1.5978187e-02
 -1.3977534e+00
  1.9258952e-01
  1.7473906e-02
  3.9082956e+00
 -6.9749586e-02
  8.4943944e-01
  1.3232701e+00
  1.3057158e-03
 -7.2211069e-03
  2.5176913e-02
  8.9693712e-03
  6.2692477e-03
 -1.1853556e-02
  5.7388615e-02
 -5.8208248e-03
 -3.2498220e-03
  3.1581339e-03
 -4.5220874e-02
  1.6657600e-02
  1.2186286e-02
 -2.4558725e-02
 -6.3585125e-02
 -6.2978929e-01
 -5.1261210e+00
  8.0007648e-01
 -1.1879025e-01
 -4.0021176e-05
 -2.0281304e-01
  4.1868910e-04
 -2.9766313e-03
 -1.3020260e-02
  6.8470284e-02
 -6.4901635e-03
  4.8070946e-03
 -1.0205990e-03
  1.3898384e-02
 -3.4597083e-03
 -2.1363128e-02
 -1.5773002e-02
  3.8337160e-03
  3.7998478e-03
  9.9351630e-03
 -1.4992710e-02
  7.6135777e-02
 -7.2420831e-03
  3.7006207e-04
 -6.8589702e-04
 -4.8962319e-03
  2.7582323e-02
  5.7082213e-03
  2.7679492e-02
 -2.5549662e-04
  1.8814489e-02
  4.3400072e-02
 -3.6925701e-03
 -1.0500125e-02
  1.3901575e-02
 -2.9579487e-02
 -6.6867569e-03
  1.8370043e-02
 -1.9043121e-02
  1.3108144e-03
 -2.2477405e-02
  1.4519005e-02
 -2.5876924e-02
  1.6032683e-03
  3.8286701e-02
  3.6096682e-03
  1.0795304e-02
  4.1181846e-03
  5.1210493e-01
 -4.3186188e+00
 -1.6803992e-01
 -8.2300657e-01
  1.1712927e-01
 -2.4777963e+00
 -9.1416985e-01
 -7.4220048e-03
  1.0272677e-01
  1.3449935e-02
  7.4445868e-01
  1.4725073e-02
 -2.5907228e-02
  6.9857144e-01
 -2.8075239e-01
 -6.2714434e-01
 -8.7047064e-01
  3.3494288e-01
 -6.2077534e-01
 -1.1714993e+00
 -1.2119014e-02
  6.4321983e-01
 -6.6339508e-02
 -4.5630690e-02
  1.7677244e+00
  1.8039417e-03
 -5.0855255e-01
 -1.3391523e+00
 -3.0765885e-01
 -2.4631472e-01
 -2.2579534e+00
 -2.1004937e+00
 -1.9172948e-02
 -5.5277938e-01
 -1.6044147e+00
 -5.0871177e-03
 -5.1693082e-01
  1.8368226e-01
 -2.1196716e+00
 -1.3042979e+00
  4.6642981e-03
 -2.5503058e-03
  7.0271352e-03
  1.0503942e-02
  4.3312092e-03
 -1.4255884e-04
 -3.0637776e-02
  9.9306395e-03
  5.6078113e-03
 -6.1726756e-03
 -4.2410960e-05
 -8.0076624e-03
 -2.9486062e-02
  2.6919288e-03
  1.6999111e-03
  1.8901637e-02
  3.7763051e-03
 -3.3625367e+00
 -6.6986578e-03
  5.9485756e-04
  8.8883555e-03
  1.1461970e-04
  1.0787146e-02
  7.1349912e-03
 -7.3612817e-03
  2.5386175e-02
  9.8201782e-03
  3.8785625e-03
  1.6223526e-02
  5.0292709e-03
  1.9599870e-02
  3.7512433e-02
  3.8920571e-03
  8.3618332e-03
  8.6870380e-03
 -4.0584648e-04
  1.3706737e-02
  4.3985499e-03
 -1.1542386e-02
 -1.0728671e-02
  1.7801767e-03
 -1.4950702e-03
 -7.8857886e-03
 -1.5174322e-02
 -6.1386172e-03
 -3.6258774e-03
 -1.4928335e-02
  4.1732122e-03
  5.7006981e-03
 -1.8533627e-02
 -3.3793587e-03
 -5.2213152e-03
 -1.4899755e-02
  3.7800238e-02
 -4.8564379e-03
 -1.0780372e-02
  3.8516874e-04
  1.9098023e-01
  4.1015050e-01
 -4.1232750e-02
 -1.9632533e-02
 -6.5940106e-01
 -2.7217099e-01
  2.2516191e-01
 -6.8656623e-02
 -2.2421195e-01
  3.5034207e-01
 -3.3757290e-01
 -1.6414817e-02
  1.0018971e+00
 -4.3410089e-04
  2.8468913e-01
  4.7521587e-02
  1.4461115e-01
 -5.5877662e-01
  7.7452642e-01
 -3.8727008e-05
 -2.0718606e+00
  4.9962793e-02
  1.8448333e-01
  1.1320503e-01
  6.2064594e-03
  2.7846940e-02
  5.3581244e-01
 -1.7760110e-01
  2.2063355e-01
 -1.3770801e-01
 -9.0870768e-02
  4.5672938e-02
  4.5604538e-03
  3.0800366e-01
  2.6629980e+00
 -3.0717689e-01
  1.5450470e-02
 -2.8168794e-04
 -3.5660449e-02
 -3.6767456e-01
  2.7704008e-02
  2.6668257e-03
  1.0521345e-01
  2.8918197e-02
  3.3264957e-02
  2.6377907e-03
 -5.8622425e-03
  1.4871369e-02
 -8.6708441e-03
  2.1445138e-02
 -7.3509929e-03
 -1.0571430e-02
 -1.2190564e-02
  1.2878446e-03
 -2.8591910e-02
  2.1849114e-02
 -3.7420071e-03
 -1.2632767e-03
 -7.9522487e-03
 -2.7310994e-04
 -1.0827079e-02
  5.3181499e-05
  3.0615712e-03
 -1.1564189e-02
 -7.8252936e-04
 -4.2997871e-02
 -1.5468459e-02
  3.6408950e-02
 -1.2411210e-03
 -2.9929090e-04
  1.5253447e-02
 -8.5753796e-04
  2.9349217e-02
  4.3459856e-03
 -1.1651058e-03
 -1.3249113e-02
  7.8286324e-03
  8.4545808e-03
  2.7357159e-02
 -2.7002925e-01
  1.8352831e-02
  2.9008852e-03
 -3.0724581e-03
  7.3663415e-03
  4.0031821e-03
 -3.8165040e-04
 -6.1804456e-01
  5.6860507e-03
 -5.8497190e-03
  1.3611311e-02
 -1.8320391e-02
 -6.1078179e-03
 -1.8668544e-02
  1.2101613e-03
 -7.1964734e-03
 -4.5770705e-03
 -4.9197576e-03
 -1.2413231e-02
  3.9551720e-02
  8.8332109e-03
 -3.2046065e-03
  3.9593568e-03
  2.2878057e-01
  2.2336830e-01
  3.5158922e-03
 -9.4382775e-01
 -7.7044941e-03
 -1.1251884e-02
 -2.2479638e-03
  2.3560505e-02
 -5.2254931e-03
 -1.1882721e-02
 -1.0338999e+00
 -1.7612047e-03
  8.9668274e-02
 -6.5838308e-03
 -8.9945151e-03
 -1.7678878e-01
 -1.7247928e-02
 -1.5580142e-02
  1.4755803e-02
  1.5838183e-02
 -5.4703341e-03
 -1.8975995e-02
 -3.7815459e-02
  3.7791482e-03
 -1.3120330e-03
 -1.7196214e-02
  3.0799011e-02
 -2.8908594e-02
 -4.5667426e-03
  1.9446447e-02
  5.2564446e-02
 -1.2553523e-02
  1.4894684e-02
  2.2075694e-02
  1.3196196e-02
  4.3534217e-03
  3.6756419e-02
 -3.6408296e-03
 -1.5371060e-03
 -1.8500442e-02
 -1.3328566e-03
  9.6124172e-04
 -1.3707103e-03
 -1.7687714e-02
 -1.6769730e-02
  1.9135285e-02
 -2.6165503e-01
 -1.3670905e+00
  7.1739733e-01
  1.6782752e+00
 -1.7930977e+00
  5.1994616e-01
  3.9940047e+00
  1.2441265e-01
 -4.1189438e-01
 -9.6672875e-01
 -6.3297462e-01
 -1.9192064e-02
 -1.8098611e-01
 -1.0967607e-02
 -5.5700821e-01
  2.5408648e-02
 -8.7871093e-01
  2.5069248e-02
 -1.1102102e+00
  5.7923395e-02
 -2.6256338e-02
 -6.2487864e-01
 -2.1595897e-01
  1.0242947e+00
 -2.1166441e-01
 -2.4170007e-01
 -2.5346699e+00
 -2.6539803e-01
 -7.8028208e-01
 -1.6991258e+00
  6.4501762e-03
  1.0767347e-02
 -5.4474909e-02
  1.8566757e-01
  4.5034835e-01
  1.1473262e-02
 -7.3844886e-01
  3.1358689e-02
 -1.6112367e+00
  1.5001799e-01
 -4.5610149e-03
 -5.1450498e-02
 -4.8397179e-03
  1.4866604e-02
  7.1187485e-03
  6.1892401e-03
  4.1524218e-03
 -4.9389922e-03
 -6.8615264e-01
 -5.4955906e-01
 -1.6057394e+00
 -2.9034975e-03
  3.2037613e+00
  1.7162290e-01
  7.2851384e-01
  8.1391174e-01
 -1.7916951e+00
  4.2547446e-02
  1.2215883e-01
  2.9150336e+00
 -1.6026031e-02
 -8.1715928e-03
  9.4693071e-01
 -5.2420292e-03
 -3.2003742e-01
 -1.3127348e-02
 -1.0042157e+00
 -1.6797372e+00
  2.3419859e-03
 -6.2354901e-03
 -3.0218980e-01
 -3.2239057e-02
  2.7117977e-02
  1.8530389e+00
 -3.3286167e-04
 -2.5048938e-02
 -1.0860514e-02
  7.3565847e-01
  4.3348849e-01
 -3.3036348e-01
  1.9382121e-02
 -8.9037068e-02
  3.7134370e-01
  2.2758517e+00
  2.9872909e-02
 -2.1703319e-04
  8.4472029e-03
 -6.1444901e-03
  8.3782017e-02
  1.1677565e-02
 -1.1775802e-02
  1.5646134e-02
 -2.2865187e-02
 -4.4370028e-03
  3.2000130e-03
 -5.1289127e-04
  7.4490495e-03
  1.1126328e-02
 -1.5842896e-03
  3.1547569e-02
 -6.7076579e-02
  1.0070323e-01
  1.1132347e-02
  6.6739663e-02
 -1.2374087e-02
  3.1858522e-03
 -7.8605831e-02
 -1.2646299e-02
 -3.2155711e-02
 -9.5181791e-03
  3.7190085e-03
 -1.9101650e-02
  1.0208467e-02
 -1.3922369e-02
 -3.2262996e-02
  2.1313372e-01
  1.3042129e+00
  8.4416084e-03
  1.9353272e-02
  1.2698122e-03
 -7.2479349e-01
 -9.8277535e-03
 -4.9413946e-03
 -2.3390803e+00
 -4.1736986e-02
  3.6456641e-03
 -5.7777250e-03
 -2.0361044e-02
  5.5496186e-02
 -1.5125073e-02
  1.6927168e-03
  2.7780280e-02
 -1.1410326e-02
 -2.1666743e-02
  8.3881551e-03
 -1.8862143e-02
 -2.3175582e-02
 -1.5036963e-03
  9.2865974e-03
  4.8026429e-03
 -7.2182347e-03
 -1.1651081e-01
 -3.2104570e-02
 -5.5760196e-03
  2.9650154e-02
 -1.6532285e-02
  1.1384592e-02
  2.6743986e-02
 -5.4870176e+00
 -5.7538617e-01
  2.4486425e+00
  3.9299718e-01
  3.3867666e-01
 -8.4290105e-01
 -2.4122685e-02
 -2.3240791e-01
 -5.3826571e-03
  1.8483386e+00
  3.3298481e-02
 -3.3381385e-01
 -1.3151494e-02
 -1.2913513e-01
  2.8448814e-01
  4.6877819e-03
 -6.6672093e-01
  4.1644430e+00
  3.3476804e-03
 -7.4338794e-05
  7.1329999e-01
  4.2149976e-01
  1.5576680e+00
  1.5267215e+00
 -4.8981199e-01
  1.8536036e+00
 -7.0388041e-02
 -3.2273823e-01
  3.0458519e-01
  3.3190399e-01
  1.0828954e+00
  2.8564626e-01
  1.9831814e+00
 -1.8320302e+00
 -2.7245967e-02
  5.1102825e-03
  2.7884832e-01
 -9.3477719e-02
  2.1324237e-01
  5.1740236e-03
  4.9012569e-03
 -1.7987824e-03
 -6.0525546e-03
  5.0349059e-03
  2.0157289e-02
  2.9422941e-03
  1.9614378e-02
  2.9679250e-02
 -4.6683201e-01
 -7.5092718e-02
 -4.8224624e-02
  5.8839943e-02
 -6.7047542e-01
  2.1083881e-01
 -1.1127861e-01
 -2.6916778e-01
  7.8534037e-01
 -2.2805418e-01
 -3.9300373e-01
  2.7796635e-02
  1.1527699e-02
 -1.7943911e-02
  1.7475350e-02
  4.8293877e-02
  1.0514867e-02
 -3.5028839e-01
 -1.6825527e-01
 -2.2208463e-02
  4.9854673e-02
  5.4042673e-01
 -1.4184558e-01
 -9.1435593e-01
 -1.8150160e-01
  3.0971579e-02
 -1.5381815e-01
  1.8559295e+00
  1.2604176e-01
 -1.2541060e-01
 -4.5043221e-04
 -2.6386967e-01
 -1.6098315e-01
 -6.2322702e-02
  1.7519955e-01
  3.2278027e-03
  1.4202463e-02
 -4.5099044e-01
  2.3040177e-02
 -3.2914587e-04
  1.9741561e-02
  4.5311999e-02
  2.8308020e-03
 -2.2506030e-02
  5.0772545e-03
 -3.0264459e-03
 -8.9837972e-04
 -2.0931172e-03
  4.4268263e-03
  1.6091125e-02
  3.3164474e-01
  1.5303515e-03
  2.1361396e-01
  1.4611524e+00
 -2.0304287e-02
 -6.2216654e-02
 -5.1151682e-03
  6.0570911e-03
  4.5103431e-02
  7.7955271e-03
  1.1817395e-02
 -1.7212335e-02
  6.1637806e-03
 -9.0011274e-03
  1.1517012e+00
  5.2256081e-03
  4.5877411e-03
 -2.0401319e-03
  1.8139966e-02
 -1.0062380e-01
  5.4243785e-01
 -3.5895200e+00
 -1.7741675e+00
  4.1016657e-03
  4.2473604e-03
 -2.9729855e-01
 -3.1847609e-03
 -4.9197164e-01
  2.4942845e-01
  1.4671960e-02
 -2.2019821e-03
 -2.2658762e-03
  5.4028559e-02
 -8.5279038e-03
 -7.8039574e-03
 -2.6104253e-02
  1.1427375e-02
  1.2759258e-02
 -2.5407068e-02
 -1.8549914e-02
 -1.4187695e-02
 -7.8291604e-03
 -9.2158215e-03
 -3.8716595e-03
  1.4592116e-03
 -2.2348312e-03
 -9.7953547e-03
 -1.1208471e-02
 -4.5756188e-01
 -8.6062336e-01
  1.0252649e+00
  3.1822506e-01
  2.4201521e-01
  9.6989877e-04
  8.4400606e-01
 -8.5860901e-02
 -1.2122803e+00
 -6.4124781e-01
 -3.3347747e-01
 -1.0260631e+00
  2.0962182e-02
 -6.1024821e-01
  5.7389773e-02
 -6.5580791e-01
 -6.1201388e-01
 -2.8578305e+00
  1.3754176e+00
 -5.7159867e-02
 -9.4692089e-02
  6.8088430e-03
 -2.7746084e-01
 -1.6260097e-02
 -7.1882091e-02
 -2.0756071e+00
  2.0341315e+00
  9.1758132e-01
  1.5706339e-01
 -3.2438907e-01
  2.3977656e-02
  1.0380529e-01
  9.5848115e-03
  1.8027921e-01
 -2.8409021e+00
  3.6581813e-03
 -2.5779815e-02
 -2.1052158e-01
  3.3810075e-02
 -9.9725248e-03
  2.3511913e-02
 -2.5403141e-03
 -1.1819309e-02
 -2.9470352e-02
  4.1371506e-02
 -9.9798134e-03
  8.0064945e-02
 -3.0028017e-02
  1.3317108e-02
  2.5672400e+00
 -1.9213448e+00
  2.3326812e+00
 -4.8206803e-01
  6.0704141e+00
 -2.8010378e+00
 -1.5062841e+00
 -2.7550321e-02
  7.5341217e-02
  3.1607378e-01
 -1.9891375e+00
  3.7413694e-02
  1.4227256e-03
  2.6194882e-01
  9.9833375e-03
 -1.1349705e+00
  4.4009122e-01
 -4.1069061e-01
 -1.0055945e+00
  5.3188020e-01
 -1.4094672e-03
  1.2430332e-01
  1.5225435e+00
  5.3618759e-01
 -1.2085733e+00
 -2.3431608e-02
 -1.8613065e+00
 -1.4144537e-01
 -9.6847725e-01
 -6.2652653e-01
  1.1531456e+00
  1.0609798e+00
 -2.0632300e-01
 -3.0539349e-01
 -1.6431901e+00
 -4.0244794e+00
  2.3480900e-02
  9.6033975e-02
 -1.7164372e-01
  2.9656243e-01
 -2.3311262e-03
 -1.3279140e-02
  6.7309444e-03
  5.7124868e-03
  1.7862678e-02
  5.3142145e-04
  7.5886032e-04
 -3.4142844e-02
  1.4957256e-03
 -3.0183953e-03
 -9.1420263e-02
 -2.6559975e-02
 -6.7449498e-01
  7.5568967e-03
 -4.0707667e-03
  4.7184853e-04
 -8.7717090e-05
 -3.9638899e-02
  1.4774300e-02
  3.6572404e-03
 -9.3397582e-03
  4.3798261e-03
 -4.5661315e-02
  2.7781226e-02
 -5.4148883e-02
 -1.2578436e-02
  2.5668619e-02
  3.5034185e-03
 -1.2187961e-02
 -1.6765137e-03
  9.4026411e-03
 -7.2156591e-03
 -1.6138783e-03
  1.1174799e-02
 -4.9103092e-02
  7.5074174e-02
 -1.1761836e-02
 -1.7364547e-02
 -1.0190524e-02
 -9.7709242e-03
 -8.1586614e-03
  5.3940671e-03
 -1.1445134e-02
  1.6976057e-02
  1.1402413e-03
 -1.2819439e-02
  9.9979127e-03
 -3.2056186e-03
  8.2714139e-03
 -1.6947997e+00
 -1.8186718e-03
  8.1039947e-03
 -1.8154144e-02
 -8.3204145e-03
  3.6735326e-02
  2.0673245e-02
 -2.2977537e-02
  6.4019486e-03
 -2.1280918e+00
  1.2797078e+00
  3.8563080e+00
 -2.6991166e-02
 -2.0685530e+00
  2.5344112e+00
 -8.7549114e-01
 -9.4367540e-01
 -1.3856782e+00
  2.1653132e+00
  1.0908939e+00
  1.5463730e+00
  7.9655638e-03
  8.5028011e-01
  3.3630342e+00
 -2.6136680e+00
 -1.3109666e+00
 -3.4857381e-03
  1.5190430e+00
  1.7602834e+00
 -9.4332021e-01
 -1.3355325e+00
  2.6078239e-01
 -9.4169295e-01
  3.0838301e+00
 -4.4039598e-01
 -3.4741414e-01
 -1.1024570e+00
 -1.3813349e+00
 -1.3330377e+00
 -1.7555660e+00
 -9.1886753e-01
  4.9929240e-01
 -9.2720792e-02
  2.0825331e+00
 -5.7798296e-01
  4.6193891e+00
  6.8907154e-01
  2.8658719e+00
 -2.5989003e+00
  2.5972036e-01
 -1.2644423e+00
 -3.2601289e-02
 -2.2126772e+00
  9.3166836e-02
 -6.7368537e-01
 -1.7944965e+00
  9.9909324e-03
  3.9343178e-01
  4.1394272e-01
 -1.1457027e-01
 -1.3206859e+00
 -1.9299699e-01
  1.3345358e-01
 -2.2480488e+00
  3.4013450e-01
 -1.0681930e-01
  4.9955022e-01
 -2.3108689e-01
  3.6352172e-01
  7.6911785e-02
  4.2060537e+00
  2.9868777e+00
  1.4945858e+00
  8.4224285e-04
  4.3147262e-02
  1.7023002e+00
 -2.8366597e+00
  3.2769400e-01
 -2.0022168e+00
 -5.8461979e-02
  3.9390664e+00
  9.7009969e-01
  2.9664540e+00
 -1.8774077e-01
 -6.1697137e-01
 -7.4314170e-02
  3.5857722e-01
 -3.6606815e-01
  3.1408790e-02
  6.5378344e-01
  4.4314928e+00
 -5.6844467e-01
  4.3768916e-01
 -2.0881809e-01
 -4.1569901e-01
 -4.8034254e-01
  1.4311550e+00
 -5.5175748e-02
  9.2508847e-01
 -5.2692895e+00
 -5.1014810e+00
 -4.9072546e-01
 -5.4277028e-03
  3.1131333e-01
 -4.5025297e-03
 -9.5150461e-03
 -6.4297188e-03
  1.5021251e-02
 -1.6089929e-02
 -2.5815682e-02
 -2.0606302e-02
  1.3099452e-02
 -6.0139759e-03
 -1.8262870e-03
 -6.3819429e-03
 -1.2964375e-02
 -1.7792145e-02
 -1.2705446e-02
  5.2819210e-01
  9.4837469e-01
 -1.4373577e+00
 -3.0169537e+00
 -2.1756469e-01
  1.9867151e+00
  2.9407220e+00
 -1.9807272e-02
  1.1680753e-03
 -4.5499619e-02
  2.6570318e-02
 -7.8620194e-03
 -1.3335806e-01
  1.0579693e-01
 -6.8303764e-01
  7.9305398e-01
 -7.3514031e-03
 -2.6335660e-01
 -8.0541354e-03
 -3.2087755e-03
 -2.3629479e-01
  2.7167854e-01
 -1.6071554e-02
  2.6372069e-01
  8.3600983e-02
  3.7034905e-01
  3.2316327e-02
 -2.8737128e-01
  2.3289554e-01
  8.5605282e-01
  1.6369978e-02
  1.4307196e+00
  3.0440232e-01
  2.1449665e-02
  1.0620532e-02
  3.7474306e-03
 -2.3578340e-03
 -9.3452297e-03
  1.9033027e+00
 -5.2424092e-02
  1.0323039e-02
  8.9741871e-04
  1.1165094e-02
 -1.7909624e-03
 -1.0408213e-02
 -1.6145064e-02
 -4.4286968e-03
 -1.2728044e-02
 -8.4853712e-03
  1.8195783e-01
 -1.0085080e+00
 -2.4318498e-01
 -1.7672741e+00
  3.9631395e+00
 -2.7565506e-01
  1.5450964e+00
  2.3939762e+00
  1.2287139e+00
  1.0345305e+00
  2.8534806e-03
 -2.3709385e-01
  3.0237719e-01
  1.2617378e+00
 -9.2235583e-01
 -7.8385389e-01
  4.6201655e-01
  2.2093232e-01
 -3.4914818e-03
  3.0165540e-02
  6.0458195e-01
  1.6805984e+00
 -2.4575427e-02
  2.5053737e+00
 -5.3365766e-03
  3.5138661e-03
 -5.5002835e-02
  1.0944358e-02
 -2.1968378e-02
 -4.8387870e-01
 -1.9764611e+00
  1.5255295e+00
 -9.7479916e-01
 -9.8565146e-02
  3.6477885e-01
  1.2604532e-02
 -2.7165504e-02
  1.3719705e-02
 -1.4181533e-03
  1.2683223e-02
 -6.1935693e-04
 -9.0036253e-03
  7.5160260e-03
  1.5556625e-02
  1.3112168e-02
  1.3727209e-02
 -8.0425749e-03
  1.6112063e-02
  1.4434543e-02
 -5.0528622e-03
 -1.4781069e-02
  7.5315000e-03
  8.1768416e-02
 -5.6650110e-02
 -3.0350003e-03
 -1.1260767e-02
  1.4509092e-02
  4.6960514e-02
 -1.2925974e-02
 -3.4840619e-03
 -3.6861734e-03
 -2.0929666e+00
  1.6044337e-02
 -1.8141461e-03
  5.6358678e-03
  1.3696576e-02
 -2.5002584e-03
  2.3659218e-02
  1.0839673e-02
 -8.4823137e-03
  1.3212708e-03
  7.6856571e-03
  7.5593777e-04
 -8.0793444e-03
 -1.6660945e-02
  9.6536661e-03
  2.6187780e-03
 -9.2938337e-03
 -2.1430517e-02
  9.7178975e-03
 -2.5215076e-02
 -1.5024946e-02
 -2.6254803e-03
 -4.9863499e-02
 -9.4013754e-03
 -1.7924853e-02
 -6.8111396e-03
 -2.1413730e-02
  6.8844535e-04
  3.4965943e-03
 -1.2782018e-02
 -7.8866840e-04
 -2.3481627e-03
  4.4304682e-03
 -2.9636608e-02
  3.2715779e-03
  2.7563353e-03
 -8.1580151e-03
 -4.5548428e-02
 -1.8094285e-01
  1.1612765e-02
 -1.2756273e-01
  5.5494022e-02
 -3.5493106e-01
  4.5983249e-01
  4.3645807e-02
 -2.1622912e-03
  1.6949674e-03
  3.2714561e-03
  4.0279012e-04
 -2.5061490e-03
 -7.9260776e-03
  1.5692715e-01
 -2.0793529e-02
  1.0944717e+00
  4.1695387e-04
 -9.4706444e-03
  1.7784875e-02
 -4.3618169e-02
  2.5745100e-01
  9.8031610e-03
  8.9634582e-02
 -8.5944021e-03
 -2.2644714e-02
  1.0635234e-02
  5.5929258e-02
  6.2638680e-03
  8.5991658e-03
  4.9661815e-02
  3.4790096e-01
 -1.3515106e-02
  2.6775501e-03
  2.8029624e-02
 -7.2119101e-03
  1.7211142e-04
  2.1528201e-02
  3.6021485e-03
 -3.0881722e-02
 -2.2034910e-02
 -3.3713609e-02
 -4.7602300e-03
  6.2780818e-03
 -1.0847969e-02
 -4.6912218e-03
  1.6463613e-02
 -2.9309256e-02
  3.5712089e-02
 -8.7807292e-01
 -1.1659027e-01
  2.9504335e-01
  3.0020733e+00
 -1.2739851e+00
 -2.3085656e+00
 -4.8285041e+00
  1.2855671e-01
 -2.3453558e-02
 -6.7204827e-01
 -1.6369559e-03
 -1.8173583e-02
 -1.9588300e+00
 -5.1034421e-01
 -1.7621227e-02
 -1.2840053e-01
 -7.3369709e-03
 -1.4538704e-01
 -5.7043722e-03
 -1.7638168e+00
 -3.9560431e-01
  2.5231494e-02
 -1.4215479e+00
 -3.9756247e-03
  8.1300333e-02
  2.9397854e-01
 -4.3461370e-04
 -3.6590433e-01
 -2.3263788e-01
 -3.1673738e-01
 -1.2008858e+00
  6.2590069e-01
  1.6547226e+00
  7.9184966e-03
 -1.8574949e-01
  8.6839721e-02
  1.8223602e-02
 -2.8597703e-03
 -2.9627558e-02
 -6.6498439e-03
 -1.5078190e-01
  7.5216338e-02
  4.3236278e-03
  3.7844901e-03
 -7.1124290e-03
  1.1425387e-02
  4.8652044e-04
 -3.4062283e-03
 -1.0012819e-02
  7.5436646e-01
  6.7805007e-02
  8.3138537e-01
  2.5908868e+00
  8.5616338e-01
  1.8790102e+00
 -1.7272652e+00
  2.6337667e+00
  1.4490935e+00
 -2.6550331e+00
  1.5213659e+00
  2.1629186e+00
 -7.7168262e-01
  8.1812310e-01
 -1.3562885e-01
  7.5858212e-01
 -2.3259861e+00
  1.5178293e-02
  2.3937036e-01
  1.3189545e+00
  1.5504169e+00
  1.7234648e+00
 -8.7668020e-01
  2.6583600e-01
 -4.7566976e-02
 -9.3567953e-02
 -6.5517980e-03
  7.1079350e-01
 -1.0493699e+00
  2.8198957e+00
 -5.0609076e-01
 -2.6854607e-01
  1.0073620e+00
 -3.3704782e-01
 -9.2620710e-03
 -1.5978239e-01
 -5.6719315e-01
  7.6734114e-01
  4.3410546e-01
  4.4630364e-01
  3.4517446e-03
 -6.3041568e-02
  6.8691517e-03
 -6.5911091e-03
  4.9877339e-03
  2.5466837e-02
 -8.6709382e-03
  1.0014395e-02
 -2.4241457e-02
  1.2658616e+00
  2.6587665e+00
  5.7532823e-01
  1.1931027e+00
  7.0559657e-01
  5.0379515e-01
 -1.1615869e+00
 -5.2719831e+00
  9.5644467e-02
  4.0411291e-01
 -1.0916615e-01
 -9.8502629e-02
 -4.0770614e-01
 -2.2727835e-01
 -5.8790941e+00
 -6.4511247e-02
  3.0539012e+00
 -5.1779991e-01
 -1.5524788e+00
  8.1154090e-01
 -7.6888388e-01
 -8.1465125e-02
  4.0688741e-01
 -2.5987442e+00
  7.2773388e-03
  9.9946815e-01
  3.8762355e-01
 -7.6314270e-01
 -2.2186918e+00
 -2.6193416e-01
  2.1514044e+00
  2.5719869e+00
 -9.5694531e-03
 -3.5925347e-02
  1.8813491e+00
 -3.5942370e-01
  2.1173814e-03
 -1.9253737e-03
  1.2430112e-03
  2.3407616e-02
  5.1062130e-03
 -2.7938622e-01
 -4.1930727e-03
 -4.4018717e-04
  7.7609331e-03
 -2.8225791e-03
 -1.9759829e-03
  8.0348691e-03
  2.9524993e-03
 -1.4229145e+00
 -3.9594841e+00
 -3.0735714e+00
  3.4449794e+00
  2.5056829e+00
  2.0889511e+00
  4.6731801e+00
 -1.4409866e+00
  4.8124054e-03
 -2.6509054e+00
 -4.3263471e-01
  2.5902314e-02
 -7.9942822e-02
  5.2192905e-03
 -5.1001406e-01
 -1.1688570e-02
 -1.4101012e-01
  4.8978906e-03
  3.3638749e+00
 -4.7770721e-01
  6.0765338e-01
  3.5247311e-02
  4.1201571e-03
  3.6056496e-03
 -5.5404049e-03
 -1.3727148e-03
 -2.1048246e-03
  1.3566774e-03
 -2.3093070e-01
 -4.3575951e-01
 -1.2887009e+00
  1.1375227e-03
 -6.8606976e-03
 -4.4372482e-03
 -1.3901557e-02
  8.1358878e-03
  4.8965830e-03
 -2.8023995e-02
 -1.8155074e+00
  7.0230919e-03
 -1.5650941e-02
  8.9670941e-03
 -2.9350549e-02
  9.6468218e-03
 -1.5791692e-02
 -2.8104940e-03
  1.0753507e-02
  9.3722306e-03
  1.5185091e-02
  4.9957542e+00
 -1.8741788e+00
  1.7226995e+00
  1.8117176e+00
  3.2415245e+00
  2.8499620e+00
  6.7957360e-01
  8.1940120e-01
 -1.2940646e+00
 -1.6047156e+00
 -4.3201696e-02
 -5.7227504e-03
 -2.6481349e-02
  6.5506555e-02
  4.9895144e-01
  6.2432996e-04
  3.0045667e-01
  4.0671462e-03
  1.3481507e+00
 -1.8347231e-01
  1.5745968e-02
 -7.7345386e-02
 -2.6452416e-01
 -1.2005785e-02
  1.8123090e-02
  7.6376513e-02
  3.6161714e-03
 -5.5473889e-03
 -2.2185707e-01
 -1.5244188e-02
 -9.0272529e-03
 -1.2740414e-02
  1.0714316e-03
 -2.3727855e-02
  1.2822377e-02
  8.2582049e-03
  5.3438814e-03
 -6.4568282e-03
  1.1746894e-02
 -1.6101070e-02
 -2.0147158e-02
 -1.2892744e-02
 -4.3512103e-03
  1.5000339e-03
 -1.5388280e-02
  1.5760053e-02
 -2.2884360e-02
 -6.0236268e-03
  3.4084867e-03
  6.3328969e-01
 -1.1361261e-03
  3.6862828e-03
  1.7583239e-01
 -2.7867561e-02
 -1.4425863e-01
 -3.6656195e-03
 -1.4759452e-03
 -2.1060406e-04
 -1.6662139e-02
 -1.0216167e-03
 -1.6930008e-03
 -2.8693594e-02
 -1.6788196e-02
 -9.2392340e-03
 -1.7037973e-03
 -3.9873321e-02
 -5.0837312e-02
  1.7880088e-02
 -5.8443435e-03
 -7.5933123e-03
 -6.2216770e-02
 -9.4673354e-03
 -3.9084954e-03
  6.8179592e-02
 -3.2560364e-03
 -7.0186062e-03
 -6.2051443e-03
 -2.5444920e-03
  1.0546722e-02
  1.4159290e-01
 -4.9734272e-02
  2.3529964e-02
  6.2373355e-03
  4.2626169e-03
  2.0397931e-02
 -1.3261843e-02
 -1.1049315e-02
  2.2053916e-02
 -6.3521741e-03
 -8.2954457e-03
  1.2121678e-02
  1.9565251e-02
  2.0904199e-03
  1.3855702e-04
  8.6940806e-03
  6.7290845e-03
 -7.9573382e-04
 -3.9884965e-03
  2.3820677e+00
  1.7997406e+00
  1.4781533e+00
 -4.0538373e+00
  1.6615798e-01
  3.4505010e+00
  3.6519210e+00
 -4.0871513e-01
 -4.2063524e-03
 -3.4048147e-02
 -3.2813899e-02
  1.5952110e-02
 -4.5330744e-02
  5.9734080e-02
  2.2650120e-01
  1.7166265e+00
  1.2414171e-01
 -2.8890932e-03
  4.4356126e-01
 -3.9529237e-01
 -3.3201015e-04
  1.4264896e-02
  1.6019483e-04
  2.2345603e-02
  3.0890718e-01
  6.1837381e-01
  7.8503676e-03
 -1.1104036e-02
  5.3966409e-01
 -2.3776390e-02
  3.3764499e-01
  8.0271699e-02
 -3.2837628e-03
 -1.9897673e-02
 -6.0288911e-03
  3.8135513e-03
 -6.7757996e-04
  2.9919451e-02
 -2.2613292e-03
  2.1250987e-04
  2.8491104e-02
 -2.7711515e-03
 -5.9407344e-04
  9.1088107e-03
 -5.8676251e-03
 -9.6824085e-03
  9.1289785e-03
  2.6780611e-02
 -4.3834439e-03
  2.6876974e+00
  3.4626479e+00
  1.5207986e+00
  2.1321712e+00
 -3.8192275e-01
  1.2292112e+00
 -2.3318002e+00
 -3.9635684e+00
  1.2041571e+00
  1.6460984e+00
  1.8002476e-03
 -4.6239141e-01
  2.2508249e-01
  4.0705952e-01
  4.0820007e+00
  5.2291638e-01
  1.7383932e-01
  1.4384155e-02
  3.1409875e-01
 -5.5201346e-01
  1.8066686e+00
 -1.0596960e+00
  4.9085380e-04
 -5.3253937e-01
  2.0100456e-02
  1.1788495e-02
  7.6421601e-01
  1.6374147e+00
  6.6320066e+00
 -3.5570779e-01
 -2.4897581e-01
 -6.7175990e-01
  3.1311372e-03
  3.0124170e-04
 -8.1829317e-03
 -2.6902515e-01
 -3.0267252e-02
  1.2001842e-01
  4.8221938e-02
 -6.0491166e-03
 -7.0071379e-03
 -5.4477002e-02
 -3.8731205e+00
 -1.2450522e-03
  2.5592323e-03
 -1.3822146e-02
 -7.4067232e-03
 -1.1761686e-03
 -5.6159362e-04
  1.3809249e+00
  3.2132801e-01
  3.7160617e-01
 -1.5638819e-01
 -1.4652387e+00
  4.8274200e-02
 -2.5358170e-01
  1.0574169e-02
 -9.1441097e-03
  1.7866463e-03
 -2.2370028e-01
 -2.7376594e-02
 -5.9292782e-02
  7.5845881e-03
 -8.5324302e-02
 -1.0808026e-01
  2.9333648e-01
 -3.1221737e-03
 -3.3307231e-03
 -8.0613798e-01
 -6.7438442e-01
 -2.9668266e-01
 -5.1369406e-03
 -3.8069658e-02
  6.2856837e-03
  2.0566612e-02
  3.5387124e-03
 -1.6142115e-02
 -5.9248358e-02
 -2.4003508e-02
 -1.0109880e-02
 -1.1678150e-01
 -9.3986345e-03
 -2.1476345e-03
  2.3149897e-03
 -7.2746319e-03
  4.4678235e-03
  1.0210429e-02
  8.4122187e-03
  7.8688096e-03
 -8.9494074e-03
 -1.1568582e-02
  8.9009395e-03
 -9.2780190e-03
  2.2507567e-02
 -5.6406707e-03
  1.7054828e-03
 -2.1385081e-02
 -5.0311800e-02
  2.7122313e-01
 -2.5019171e+00
 -1.0392006e-01
 -2.6865539e-01
  3.7402007e-01
  7.4893945e-01
  2.8217623e-01
 -2.1447471e-01
  1.9562437e-01
 -8.1601101e-01
  1.8842834e-03
  1.1006166e+00
  8.6554348e-02
  1.2345657e+00
  2.3126985e-01
  2.9844394e-02
 -4.9345633e-01
  2.7945019e-02
  2.4122247e-01
 -6.0820268e-03
  1.2961417e+00
  3.7492928e-01
  6.5982607e-03
  1.5601170e-01
 -1.4190577e-02
 -3.1384479e-02
 -5.0011724e-03
 -1.0630206e-03
  7.7539317e-02
  2.6761475e-01
 -9.1561431e-01
  1.4060065e-01
 -2.9210296e-02
  3.1276394e-02
  2.7304299e-02
 -5.6422697e-03
  1.4645270e-02
 -2.8814818e-04
 -6.6842879e-03
 -1.8263020e-01
 -1.0574857e-02
 -2.3170808e-02
  5.1999455e-03
  5.7767965e-03
  2.8817223e-02
 -4.4378708e-03
  2.8651994e-02
 -9.7321905e-03
  4.1948598e-02
 -1.7728903e+00
  2.4708540e-03
  1.0100502e+00
  2.3708358e+00
 -1.8458810e-02
  6.5148907e+00
 -4.2071247e+00
 -8.1332929e-02
 -1.9004799e-01
 -4.1314601e-03
  3.3422050e-01
 -5.8050286e-03
 -1.1547225e-02
 -4.5407471e-01
  2.0527928e+00
 -2.4667671e-02
 -3.5701859e-01
  5.3584840e-02
 -1.8156163e-01
  7.7132648e-01
 -8.5792527e-02
 -1.0927566e+00
 -3.3692497e-01
  2.2036545e+00
  7.8120241e-03
 -2.7458647e-01
  2.2313753e-02
  7.1966249e-01
 -2.6842338e-01
 -5.6604797e-01
  5.4736741e-02
 -8.9444786e-02
 -1.4350092e-02
  7.3859288e-04
  2.5069591e-01
 -1.2508945e-02
  1.1417846e-01
 -4.6968162e-02
  4.6084737e-03
  5.7825189e-02
  3.0707878e-03
 -1.4912331e-02
  1.2938279e-03
  2.2273719e-02
 -1.2829585e-03
 -9.4578266e-03
  2.4737060e-02
 -1.0014073e-02
 -2.1962409e-03
 -1.5262626e+00
  4.4267008e-01
 -1.7370745e+00
 -5.5680647e-02
  3.4711423e+00
 -1.5327420e+00
  1.7451272e+00
  1.5103456e+00
 -9.8632824e-01
 -9.1521579e-01
  7.1114510e-01
 -3.7322775e-02
 -1.3437282e+00
 -5.8621109e-02
  3.2434866e+00
  3.7730035e-01
 -1.4084728e+00
 -1.0962702e-01
 -5.3094584e-02
 -2.3937235e+00
  1.6358620e+00
  9.8131560e-03
  2.5814107e-01
 -3.9375837e+00
  1.0641697e-01
  2.1147223e-02
 -4.9488187e-01
  2.4839771e-01
  2.1221335e+00
  1.8853720e+00
  2.4599216e+00
  2.2656326e+00
 -9.0720274e-02
 -3.9106894e-01
  8.2817134e-03
  3.9836571e-01
  2.6009472e-03
 -7.0264202e-01
 -3.7689764e-02
 -3.6685947e-02
  2.1900633e-02
 -1.2166063e-02
  1.3261352e-02
 -4.7663446e-03
 -1.8348943e-02
  5.0096232e-03
 -1.6430160e-01
 -1.7389499e-02
  3.0919842e-03
 -6.0196160e-03
  5.1359809e-04
 -4.2433967e-03
  1.2275133e-02
  4.3326630e-03
  4.8584003e-02
  2.8523076e-02
 -5.0488650e-04
 -2.2253525e-03
  2.3948113e-02
 -9.3930131e-01
  5.0142041e-04
  2.0480328e-03
 -5.3353147e-03
  4.0703402e-03
  3.1017628e-02
  7.5171451e-04
 -1.4741487e-02
 -9.7374488e-03
 -6.3473987e-03
 -2.6553336e-03
  3.7913464e-03
  3.0538343e-02
  7.8417510e-03
  9.4772427e-04
  1.4638467e-02
  1.0513185e-02
 -9.2342347e-03
  4.2023957e-03
  8.6852340e-03
 -4.1391840e-03
  1.6193694e-02
 -6.5091057e-03
 -2.7511842e-03
 -7.0432648e-03
  3.7348524e-03
  1.6837225e-03
 -1.1280879e-02
  2.0951610e-03
 -1.9421823e-01
  6.0614515e-03
  1.0389023e-03
 -1.1038293e-02
 -1.9867348e-02
 -6.9908788e-03
  1.1860999e-02
  1.0885821e-02
 -3.7254563e-03
 -5.0324234e-03
  1.5146748e-02
  4.4654243e-02
  2.3634033e+00
  1.4581031e-02
  3.3013769e-03
 -1.7386926e-03
 -7.1560120e-04
 -3.4071048e-04
  4.1292282e-03
  1.0174595e-02
 -1.9329800e-03
 -4.2684604e-03
 -8.9568123e-03
 -1.3238796e-03
  6.5863444e-03
  5.1184356e-02
  1.8362232e-02
  2.7102491e-02
 -4.2034857e-02
  1.6804798e-02
 -1.5282583e-03
  3.2191095e-04
  1.6142002e-03
  6.6055050e-03
 -1.6953046e-03
  9.4359368e-03
 -3.8468245e-02
 -9.8507404e-03
 -2.5134988e-02
  4.3988433e-03
 -7.7389292e-03
  3.6145782e-03
  5.8744121e-03
 -1.5420852e-02
  7.0847371e-03
 -6.5383851e-03
 -4.1632399e-02
 -4.4255271e-03
  1.2489115e-02
  1.2973142e-04
  2.5382522e-02
  2.3328044e+00
 -8.1980526e-03
  6.7978213e-03
  2.5234795e-03
  5.3426349e-03
 -5.1926024e-02
  8.1533268e-03
 -1.3562267e-02
 -1.0645995e-02
 -7.0465164e-04
  2.7702542e-03
  1.2223587e-03
 -8.0412496e-03
  6.9044465e-03
 -1.6760344e-02
 -1.1923565e-02
 -5.3564240e-03
 -4.4261450e-03
  1.9128623e-03
 -6.5707834e-03
 -8.0572106e-03
 -1.1778254e-02
 -3.6421899e-02
 -6.0169003e-04
  3.7964732e-05
  5.0490741e-03
 -3.4007356e-02
 -1.3656288e-02
 -7.0975511e-03
 -1.6684298e-05
 -1.4375743e-02
  1.2789254e+00
  1.3747059e-02
  1.2027765e-02
  6.8583982e-03
  1.6872474e-03
 -7.9967060e-05
 -3.9745779e-03
 -6.9384207e-03
 -1.6936384e-02
 -3.4777284e+00
 -1.1512749e+00
 -6.9600884e-03
 -1.0572137e-02
 -3.1009147e-02
  3.1142887e-01
  3.5057773e-04
  5.7750419e-03
  9.6611790e-03
 -1.5163360e-02
  3.1876992e-02
 -1.9807437e-02
 -2.7181765e-02
 -1.8242065e-02
  3.2431532e-02
  2.8286366e-02
  1.8834500e-02
  3.2398757e-03
 -6.4788684e-03
  6.8113697e-03
 -4.8585355e-01
  9.0855202e-03
 -2.7681282e-03
 -1.3880763e-02
 -3.4807073e-03
 -9.9676736e-03
  2.6972378e-02
  4.2171888e-03
  8.9657549e-03
 -1.1364640e-02
  6.1307247e-03
  3.0508558e-03
 -8.3960574e-03
 -7.7023222e-03
  9.7334273e-03
 -3.2173849e-03
  7.4764271e-03
  6.1942302e-03
 -5.3101771e-02
  1.1954989e-02
  8.1754988e-03
  2.8912383e-03
 -9.2134792e-03
  4.0018936e-03
 -1.2187745e-02
  2.2621587e-02
 -6.8260483e-03
  2.9868060e-03
 -1.3581001e-03
  1.5425642e-02
  2.0749483e-03
 -3.3867516e-02
 -5.9016598e-03
  7.6588728e-02
 -1.9579364e-02
  2.4009360e-02
 -1.7653118e-01
 -3.6194231e-02
  5.8076805e-03
  6.9968444e-03
  8.3579746e-04
 -2.2698860e-03
  3.9454498e-03
  1.2845620e-02
  2.0109555e-02
 -1.6632041e-02
 -2.4434650e+00
 -3.8264345e-02
 -1.0126203e+00
 -2.2845235e-01
 -2.6719313e+00
  2.1047747e+00
 -1.5792183e+00
 -3.4251719e+00
  6.5305196e-02
 -8.6862877e-02
  7.6672127e-03
  2.8212089e-02
  8.2182944e-01
  2.4695485e+00
 -5.0288141e-01
 -4.8246798e-01
  9.8517317e-01
 -3.3518411e-02
  2.6401718e+00
  2.8720975e-01
  3.5091987e-01
  7.1117985e-01
 -1.9502457e-02
  3.3483639e+00
 -1.0470624e-02
 -4.2002995e-02
 -8.6785361e-02
  2.8130862e-01
  1.3197527e+00
  7.5096613e-01
  2.7894175e+00
  5.0308377e-02
 -1.4101645e-01
  2.0356135e+00
  3.5859320e-01
  2.3678098e-04
 -5.3490877e-02
  1.3435024e-02
  1.9763988e-04
 -8.6385179e-03
 -1.5172926e-02
 -6.9698252e-02
 -1.4544386e-01
  3.8996991e-03
 -1.4629284e-02
  6.8261903e-03
 -8.0112591e-03
 -5.7428824e-03
 -1.5716806e-02
  1.2466348e+00
  1.2497066e+00
 -2.9290547e+00
  6.7132115e-01
  5.3006897e+00
  1.1956605e+00
 -2.0973499e+00
  4.4809928e+00
 -5.5600423e-01
 -3.4538403e-02
 -1.0274238e-02
 -5.7771581e-01
 -1.3834631e-01
  1.5008350e-02
  4.6444726e+00
  7.7298330e-03
 -1.0053107e+00
  6.5427348e-02
 -5.5982415e-03
  2.2429051e-02
  6.5171856e-01
 -1.2928492e+00
  1.5273484e-02
 -2.4708924e+00
 -4.3357880e-04
  1.8180583e-02
 -1.1219907e-02
 -3.3220053e-02
 -1.0322372e-01
  1.5749479e-02
 -4.4212741e-01
 -3.2571352e-01
  5.9207499e-02
  2.0213947e-02
 -5.2856128e-03
  4.1265110e-03
 -9.6776774e-03
 -4.9100858e-03
  4.0311828e-02
  1.9818883e-02
  2.3804132e-02
  1.9344476e+00
 -1.0036470e-02
 -5.1596621e-04
  1.3291177e-02
  1.6508484e-03
 -1.7498799e-02
 -7.9285381e-03
  1.2744037e-02
  3.9645750e-02
 -9.9822357e-03
 -8.7977637e-04
 -4.3467429e-02
 -1.4456873e-02
 -6.1045760e-01
  1.0231636e+00
  1.2188312e-01
  4.4338014e-03
  9.2112282e-03
  7.3389299e-03
  4.3318677e-03
  1.9940499e-02
 -1.9639418e-02
  3.1944433e-01
  9.8444251e-03
 -1.5863366e-02
  4.1338953e-04
  6.2791640e-03
 -9.4013065e-03
 -5.3472754e-02
  1.3591410e-03
 -5.5179894e-03
 -2.9985644e-02
 -1.4709764e-02
 -2.3253873e-02
  1.1190987e-02
 -5.1250453e-03
  6.6248707e-05
  2.8490854e-02
  1.2343793e-01
  6.1410639e-02
 -1.0428007e-02
 -1.3767758e-02
  8.8082574e-04
 -1.0196676e-02
  3.9411909e-03
 -2.3943665e-03
 -2.9208336e-03
  9.1308109e-05
  1.4266544e-03
  7.6745306e-03
 -1.5724426e-02
 -2.5221463e-03
 -4.4320445e-03
 -5.1852972e-03
  4.4514933e-03
 -6.0760216e-03
  1.2132741e-04
 -3.4237739e-01
 -1.1140193e+00
 -3.5605973e-01
 -2.1408854e+00
  6.3225135e-02
 -2.3153855e-01
  3.1451325e+00
  7.8195733e-01
  1.9718505e-02
 -1.0948378e-02
  1.1661655e-02
  6.6445518e-01
  9.7082965e-02
 -2.9386524e-02
  2.4911970e-01
 -1.6089675e-01
  4.9428096e-01
  7.4100476e-03
 -2.8589189e-03
 -1.2710550e-03
 -1.8993542e-01
  1.3720791e-01
 -5.5743936e-02
  1.8708295e-01
 -8.4667439e-03
  4.8068482e-03
 -1.6007753e-02
  4.4541664e-02
 -3.9524348e-03
  1.8125674e-02
  1.0204337e+00
  2.2488082e-02
 -3.0107573e-02
  9.9721598e-03
  9.3178958e-02
 -1.0659448e-02
 -5.9637165e-05
  7.4549643e-03
 -3.1860536e-03
  9.2744362e-03
  4.0138387e-03
  7.7709737e-03
  2.9744655e-02
  3.1402430e-03
 -9.1026099e-03
 -6.2210835e-03
  6.3786753e-03
  1.3778952e-02
 -1.3407583e-02
 -8.2065016e-01
 -9.6799089e-03
 -1.4791954e-02
  8.4630990e-01
 -3.0503243e-01
 -4.4243783e-01
  1.5851740e+00
  5.2469824e-02
  4.6490259e-02
 -8.4774999e-04
 -5.4950803e-03
 -1.2370220e-03
  1.7447175e-02
  6.9956847e-02
 -4.4109365e-03
 -1.1435265e-02
  1.3874720e-02
 -4.1883909e-03
 -7.0948913e-03
  1.1321061e-02
 -7.0918411e-02
  2.7970510e-02
  2.9169125e-02
  1.8951531e-02
 -1.2424150e-02
 -6.9143511e-03
  1.0924650e-02
  1.0096488e-02
  2.9690223e-02
 -5.1006568e-03
  3.4785781e-02
 -6.0081035e-03
 -8.7762242e-03
  1.1854157e+00
  9.5708156e-03
  1.7362770e-02
 -5.3172726e-03
 -1.0979524e-02
  1.6547202e-03
 -1.8018611e-02
  1.0722330e-02
 -1.5102382e-04
 -1.9528589e-03
 -1.1975494e-02
  1.7755635e-02
 -9.1221500e-03
 -2.3688152e-02
  2.4170415e-03
 -1.0112134e-02
  1.0666250e+00
 -1.0539596e+00
  1.1925168e+00
  1.8943347e+00
  1.9235960e+00
 -7.3394388e-01
  8.6936313e-01
  1.0950388e+00
  9.7085148e-01
  9.8977906e-01
 -4.7764865e-01
  1.7489702e+00
 -1.3936857e+00
 -1.6226863e+00
  2.7732670e-01
  2.6768189e-02
  1.4293149e+00
 -9.2204767e-01
 -1.5765499e+00
  3.4681859e+00
  1.7763845e+00
  1.3677213e+00
  5.2845037e-01
  1.6342533e+00
 -7.9697877e-01
 -2.0910962e+00
  3.4859961e-01
  3.0168452e+00
  6.9527668e-01
  7.7011657e-01
  2.4527206e+00
 -4.9798802e-01
  3.2057831e-01
 -8.9550686e-01
  1.3227426e+00
  2.0897863e+00
 -2.1986314e-03
 -3.7613851e-03
 -2.4392666e-02
 -1.7248824e-01
 -3.1488130e-03
 -1.7783131e-02
 -2.6702704e-03
 -2.6158009e-02
  4.7024735e-03
 -1.2459923e-03
 -8.7548401e-03
 -1.0808910e-03
  5.7667680e-03
  1.4278264e+00
 -1.9890080e-01
  1.2817053e-01
  5.8705217e-01
 -1.0825316e+00
  1.2517842e+00
 -7.9649168e-01
 -3.3057806e+00
  3.0500701e-01
  8.4697753e-01
 -1.4176359e+00
 -1.7900437e-02
  1.3609500e-01
 -1.4687530e+00
 -2.3960578e+00
  1.0374838e+00
 -1.7972039e+00
 -2.4138658e-01
  5.5029547e-01
 -2.8531310e-01
  2.6605886e-01
 -2.9376192e+00
  3.4612158e-01
 -5.2992946e-01
  1.1175076e-02
 -4.5068018e-02
  4.7987334e-02
 -1.6452543e-01
  2.2795619e-02
 -8.1212714e-02
  1.6302691e+00
 -1.0407158e-01
 -7.5486757e-02
 -1.1987417e-01
 -1.0382484e+00
 -1.4956428e-01
  1.9436657e-04
 -3.0409789e-03
 -1.1107593e-02
 -2.6991011e-03
  1.0548270e+00
 -3.8864855e-02
  3.1139483e-03
  1.1842088e-02
 -1.2287737e-02
 -5.6698453e-03
  5.6335125e-03
  7.6369298e-01
 -8.4238616e-04
  2.9837012e+00
 -1.4129531e+00
 -1.6050913e-03
 -3.0132749e+00
 -1.1283153e+00
  1.9216092e+00
  1.2617728e+00
  7.7853167e-01
  2.5247099e-02
  1.6760565e+00
 -2.7554654e-02
  3.9082533e-03
 -3.4784901e-01
  2.2571359e-02
 -2.1154225e+00
  8.6882271e-02
 -4.8110881e+00
 -7.1170783e-01
 -8.3393725e-03
  1.5604526e-02
 -2.2943380e-01
 -1.5947731e-01
  3.4085098e-01
 -5.8881623e-01
 -1.7447324e-02
 -5.3060174e-01
  2.1502554e+00
 -2.5980528e-03
  1.9407501e+00
  6.3759935e-01
 -1.7540059e+00
 -1.0632637e+00
 -5.8948302e-01
 -3.1535946e-02
 -1.3677319e-02
 -4.2697215e-03
  4.0427572e-03
  5.4288432e-03
  5.2406430e-02
  2.8929429e-03
  3.1522713e-03
  6.3113468e-03
 -1.8505014e-02
  2.2456782e-02
  1.9545065e-02
  7.3240779e-04
  1.0104737e-03
 -1.4849851e-02
 -1.2484957e-03
 -1.6670523e+00
 -1.4996208e-03
  7.9696044e-02
  9.4414699e-01
 -3.9141160e-03
 -1.0600599e+00
 -4.2229333e+00
  3.0002346e+00
 -1.8798813e-02
  5.0984506e-02
 -2.0594774e-02
  3.5710582e-03
  9.6901256e-01
 -1.3680264e+00
  1.2842527e-01
 -7.2044156e-02
  9.0118861e-01
 -2.8315738e-02
  1.5490397e-02
  8.9753546e-02
  6.9893193e-01
  4.4754970e-01
 -5.7355698e-02
  5.3948653e-01
 -4.7263787e-03
 -1.8460437e-03
 -1.9634725e-03
  1.7755082e-01
  2.1291387e+00
  7.0022106e-02
  3.3211010e+00
  2.6395667e-04
 -8.7304783e-05
 -5.3700441e-03
  7.0226908e-02
  1.2070714e-04
  1.1784063e-02
 -7.7563641e-04
  4.5631302e-04
  1.6186852e-02
 -5.6956676e-03
  9.1510098e-03
  6.1798672e-04
  7.1219238e-03
 -1.7434412e-03
  8.7426696e-03
 -1.3808290e-02
 -3.0847597e-03
 -2.7760362e-02
 -2.0579900e-01
  1.4701910e+00
 -2.0180559e+00
 -2.4068894e+00
 -8.0513448e-01
 -2.1410046e+00
 -1.2644585e+00
 -2.9910729e+00
  2.2408535e+00
 -4.0322161e+00
  1.1219007e-02
 -2.4565678e+00
 -1.5758762e+00
 -1.8385452e+00
  1.2587957e+00
  2.5767243e-01
  2.2895257e+00
  2.4537658e-03
  1.5425787e-02
  8.3359957e-01
 -4.7006393e-03
  5.8327484e-01
  2.5215375e-01
 -1.0371121e+00
 -1.7429316e-01
  4.8644748e-01
 -1.3014395e-02
 -2.7947907e+00
 -1.2394205e+00
  2.8620498e+00
  3.8338554e-01
  8.4122413e-01
  3.0992897e+00
 -3.0191830e-01
  3.1786287e-01
  1.1553798e+00
 -6.5051758e-01
 -4.9302554e+00
  1.4246096e-01
 -1.5634912e+00
 -5.2187309e-02
 -2.4702583e-01
 -3.6765471e-01
 -8.1091726e-01
  1.5139054e+00
 -5.0063604e-01
  5.2736318e-01
 -1.9050138e-03
 -1.2725879e-02
  6.2102754e-02
  9.5186895e-03
  2.5860512e-01
 -2.4533926e-01
  3.0746755e-01
  1.7618033e-01
  6.4393006e-02
  6.8517959e-01
 -1.6257774e+00
 -1.7245074e-01
  2.8569756e+00
 -3.9580464e-03
  2.7944719e-02
 -2.5863683e+00
 -3.7028402e-02
 -7.8595338e+00
 -9.9732921e-02
  6.9294803e-02
  6.4079739e-02
 -2.6738071e-03
  1.3682257e-01
 -1.2356878e-02
  5.6833592e-03
 -2.3981403e-03
  1.9757297e-02
 -2.0603616e-02
 -1.1334863e-02
 -9.5473617e-02
 -2.5358599e-02
  4.1743103e-02
  1.3973347e-02
 -3.7609674e-03
  1.8116366e-02
 -9.1526713e-03
  5.7450645e-03
 -2.6274086e-03
 -3.9243763e-03
  3.8471357e-03
 -2.6229216e-02
  6.5275475e-02
  2.6253637e-02
  5.8928193e-03
 -2.2170057e-03
 -4.5383046e-03
 -2.7807294e-03
  1.3610628e-01
  8.9767240e-02
  9.4361221e-03
 -6.1895512e-03
 -5.8581075e-04
  1.9862529e-02
 -1.4377330e-02
 -4.6533160e-03
  6.8573527e-06
  1.0557747e-03
  1.5611830e-02
 -1.3564340e-02
 -2.8094416e-03
  1.5696049e-02
 -1.6933683e-02
 -1.9999668e-02
  9.4739497e-02
 -2.4653303e-03
  4.9317838e-03
 -8.4675401e-02
 -1.6841722e-01
 -5.0794020e-02
 -4.6969308e-03
  1.3439190e-02
  2.0833465e-03
  2.2733834e-02
  9.1490988e-03
 -2.8532194e-03
 -4.9180098e-02
 -1.7305216e-03
  9.0299947e-03
  1.3055198e-02
 -1.6173404e-02
 -2.0051317e-02
  1.4900330e-01
 -2.9919839e-03
 -1.1314452e-02
 -6.6644135e-03
  3.2815307e-02
 -7.5464770e-03
 -3.7222391e-03
  5.1561785e-03
  1.5147167e-02
 -3.6944638e-03
  1.9296181e-03
 -1.7124755e-02
  5.0716661e-03
  1.2713623e+00
  4.2015999e-03
  2.8028233e-02
 -2.0901905e-03
 -9.5326686e-04
 -6.2887166e-03
  2.5799453e-01
  2.2934439e-02
 -2.9938601e-02
 -1.5297833e-02
  6.2422701e-03
 -3.3673535e-03
 -1.0131302e-02
  1.5701501e-02
 -4.8897169e-03
  1.3170901e-02
  1.1748753e-02
 -1.0584490e-03
 -2.2936831e+00
 -4.9652958e+00
 -2.4451549e-01
  2.8603079e+00
  9.5372826e-02
  2.1975057e-01
 -3.6718173e+00
 -5.3070206e-03
  5.4568243e-03
  1.6255800e-02
  1.9643029e-02
  1.5480602e-02
 -2.5859755e-03
 -1.1594896e-03
 -2.9575538e-02
 -3.2286713e-01
 -2.5970352e-04
  5.6394977e-03
 -1.8527593e-01
  3.1070840e-02
 -9.4977487e-03
 -8.6372629e-02
 -4.6943594e-02
 -5.8173602e-03
  2.6911516e-03
 -2.6000845e-03
 -7.6516348e-01
  8.6984048e-03
 -7.0319422e-02
  6.2089479e-01
  3.0667309e-02
  1.2394330e-02
 -1.3291970e-03
  2.6088412e+00
 -6.4593474e-03
 -1.0510108e-03
  5.7830368e-03
  8.8710431e-03
 -8.4279440e-03
  1.6686375e-01
 -5.5055926e-04
  8.3015738e-03
 -2.0773713e-03
 -2.7953286e-02
  1.3153439e-02
  9.0507213e-03
  2.3102018e-03
 -2.4850415e-03
 -3.2914120e-03
  4.1266819e-03
  6.1970085e-01
  2.2569020e-01
  1.8793178e+00
  8.4285550e-02
 -2.8448489e-03
  1.1876148e-01
  8.9668725e-03
  4.3176644e-02
 -9.6206190e-03
 -3.5789076e-03
  4.1726683e-03
  6.8769982e-04
 -1.2944867e-03
  8.8814748e-03
  1.0342003e-01
  3.3417048e-03
 -3.6161195e-02
  3.0168489e-01
 -1.9645739e-02
  1.2960264e-02
  3.6537144e-03
  5.8699302e-02
 -2.4779022e-02
  9.2807068e-03
 -5.7760398e-03
  6.6102506e-03
  4.2472221e-03
  1.2124337e-02
 -3.4068090e-01
 -1.3240764e-02
  4.1356799e-03
 -1.8680461e-02
  9.5084406e-02
  1.6450284e-03
 -4.5135790e-03
 -2.3208220e-02
  4.4309601e-04
  1.7997086e-02
 -3.3906985e-02
  6.9605681e-04
  2.5949057e-02
 -1.6960787e-05
  3.5888720e-03
 -1.1061321e-02
  3.0388592e-02
  5.7598623e-03
 -1.6159689e-02
  2.4899710e-03
 -7.3798066e-03
  5.4781795e-01
  3.7801645e+00
 -2.5932338e+00
  2.0854907e+00
 -6.3468335e-04
 -3.8192016e-03
 -1.5987664e-02
 -5.0757420e-03
  3.1745837e-03
 -4.0374892e-03
  7.6881573e-03
  2.1609616e+00
 -8.1402138e-03
  6.7165340e-03
  6.7274109e-03
  9.0947293e-02
  1.2832804e-02
  1.3046513e-01
  1.2901855e-02
 -6.0852515e-03
  8.3650984e-03
 -6.8060803e-04
  2.0040657e-02
 -1.0744064e-02
 -2.2988373e-03
 -2.9278686e-03
  1.9635983e-02
  9.2152966e-04
  8.0439784e-02
  5.8299363e-02
  6.2867776e-03
  2.7308524e-02
  4.8897389e-02
 -4.7768714e-05
  1.1859905e-03
  6.9770343e-03
  4.2033112e-03
  1.7263474e-02
 -8.3429031e-03
 -5.7397145e-03
 -3.0554768e-03
  6.9660977e-03
 -2.4290781e-02
 -8.9494232e-03
 -1.5771680e-02
 -6.0063428e-03
  1.8125247e-02
 -3.1887204e-03
  1.1946301e-03
 -1.7271403e-03
  5.5924896e-03
 -2.0074316e-04
 -2.7892709e-04
  9.4185993e-03
 -1.0310071e-02
  3.5201837e-03
  2.5440077e-04
 -1.2179880e-03
 -3.2243922e-02
  3.5738662e-02
  7.8955563e-03
 -5.2746884e-03
 -5.0172603e-01
  5.0096009e-03
  3.7837194e-03
  7.7611972e-03
 -1.3986582e-02
  1.7624009e-02
  1.2079804e-02
 -2.6598332e-02
 -1.5089542e-02
  7.5890068e-03
 -3.7380683e-03
 -2.6189440e-01
  1.3838420e-02
 -6.7453231e-03
 -1.5515815e-02
 -1.9381205e-02
  1.5176168e-02
  5.8110859e-03
  1.1067784e-02
 -9.1292560e-03
  6.1113173e-03
 -3.0691498e-03
  7.1154675e-03
  6.1193175e-05
  1.2080724e-02
 -8.6907763e-03
 -7.0842016e-03
  2.7857663e-04
  6.3082697e-03
 -4.7226488e-03
 -2.9995362e-03
 -9.0858890e-03
 -8.9341393e-03
  1.5955050e-02
 -2.8496392e-03
  7.4822712e-03
  1.7788805e+00
 -2.8181231e-02
  2.5560966e+00
 -6.9179147e-01
  1.4587618e+00
 -1.4436375e-01
 -3.2155449e-03
  2.4099133e-03
 -2.4887428e-03
 -3.2092314e-02
  8.8269915e-03
 -7.7006463e-03
 -6.4434651e-03
 -6.0889525e-03
 -1.7299974e-02
  1.5907541e-02
  2.8037820e-02
  2.8578027e-03
  3.4333710e-03
 -1.4305043e-03
 -1.4500782e-02
  3.0595614e-02
 -2.1289699e-03
  6.4026620e-03
  4.3541677e-03
 -2.4251452e-01
  3.6711995e-03
  1.3043156e-03
  2.4689138e-03
 -5.0032910e-02
  8.1979623e-03
  8.5823610e-03
  3.8763443e-03
  6.0333847e-03
  1.7932231e-03
 -2.5376170e-03
 -3.1290785e-03
  7.1424800e-03
 -2.6458283e-03
 -1.1299478e-02
  1.0072931e-03
  9.3799870e-04
 -1.6144196e-02
  2.3598917e-02
 -4.8307810e-02
  9.9528879e-03
 -5.5518150e-03
 -6.7607639e-04
 -1.1188723e-02
  7.3210006e-03
 -2.4866188e-02
  2.2765955e-02
 -1.0239093e-02
 -6.0742307e-03
 -1.4062604e-03
 -5.2123973e-03
 -1.5857553e-03
  1.5004124e-02
 -2.1863220e-02
 -6.1386562e-04
 -7.3169395e-03
 -9.8314863e-03
  1.0028937e-02
 -1.0657192e-02
  8.3089778e-03
  4.9868557e-03
 -1.4738726e-02
 -9.0742586e-03
  2.0981117e-03
 -2.2563329e-03
 -1.3742426e-03
 -8.7032013e-04
 -1.6781962e-02
 -1.8292275e-03
  1.2374260e-03
  7.7445791e-03
  1.3901450e-02
 -3.8708795e-03
 -8.1965476e-03
  5.4943031e-03
  5.2641597e-05
 -2.1361636e-03
 -3.9188187e-03
  6.4328697e-04
 -8.8769663e-03
 -2.2725012e-02
 -3.3968393e-02
  9.3578256e-04
 -1.0000436e-02
 -3.1069990e-03
  3.2447053e-03
  1.4373673e-02
 -1.3246257e-02
 -3.0743793e-02
  6.3245627e-03
 -5.5470136e-03
 -6.6856812e-03
  5.4140154e-02
  1.1874010e-02
  4.7785010e-02
  3.8963950e-01
  2.9038602e-01
  1.5301222e-02
 -2.8425239e-03
 -5.6030344e-02
  2.5114032e-02
  1.1851304e-02
 -5.0027808e-03
 -8.1321318e-03
 -7.7725691e-03
  3.2314204e-02
 -1.5537314e-02
 -1.7068601e+00
 -8.1219329e-03
 -4.2835190e-03
  8.8517321e-03
  8.5084345e-03
  2.4181276e-03
  2.6995863e-03
  4.6300623e-04
 -2.1788364e-03
 -8.9683840e-03
  2.2518132e-03
  4.6083154e-03
 -7.9750121e-02
  2.7092095e-03
 -2.2349700e-02
  3.7138235e-02
  1.4004307e-02
 -2.1272937e-02
  2.3504687e-03
  9.0129481e-04
  1.4969216e-02
 -1.5755876e-03
  1.6447492e-02
  1.7480897e-02
  1.1959420e-02
  2.7584683e-03
  3.0617334e-03
 -9.2840176e-03
 -4.6251058e-03
  1.1893288e-02
 -2.2012834e-03
 -2.2516115e-02
  1.7190101e-02
  4.3884278e-03
 -3.8150835e+00
 -2.1982452e-01
 -7.1198344e-02
  9.6057612e-01
  2.3204810e-03
 -2.9931456e-01
  6.7192264e-02
 -6.4589833e-03
 -4.4569701e-01
  1.7524312e-01
  3.1535786e-02
  4.0859997e-02
 -2.8773169e-03
 -1.7434537e-01
  1.4916118e-02
 -4.3899605e-01
  4.0232752e-02
 -4.3352516e-04
 -1.8218794e+00
  1.6395653e-02
 -1.6256873e-02
  1.1819705e-03
 -1.4274190e-01
 -8.5047027e-03
  3.7472453e-03
  5.4143090e-03
 -3.5099316e-01
 -1.4248191e-02
  7.1749169e-01
  2.0455208e-02
  2.2505982e-04
  2.2848954e-03
 -1.2902316e-02
 -6.5488374e-01
  3.5702780e-01
 -3.4503723e-03
  1.2792854e-02
  1.5872956e-03
 -2.7762624e-02
  1.3383742e-01
 -6.8231267e-03
 -4.1422542e-02
 -3.3801056e-02
 -6.1225612e-03
  1.1767045e-02
 -7.3432950e-03
  1.1709196e-02
  7.9235751e-03
  9.1940360e-03
  1.6474829e+00
 -2.5087166e+00
  3.5567617e-04
  1.5720965e+00
  2.0784938e+00
  8.5648932e-03
  1.9059105e+00
 -1.0910069e-02
  3.2298028e-02
  5.7702299e-02
  3.7525231e-03
 -1.4680481e-02
  7.3818718e-03
  9.9557536e-03
  1.3568372e-03
 -4.0025305e-04
 -8.4111011e-03
 -1.6588045e-02
 -5.6689330e-03
 -3.3498048e-03
 -7.6856497e-03
  2.4195861e-02
  2.9489007e-03
 -1.9155839e-02
  4.4082498e-04
  2.5029986e-03
 -2.0292711e-01
 -8.7798834e-03
 -5.2668666e-03
 -4.5218510e-03
  2.8906148e-02
  1.1102408e-03
  2.8201183e-02
 -1.3131109e-01
 -5.2852632e-04
 -4.5066900e-04
 -3.0478749e-02
 -9.5038861e-03
  2.2316581e-02
  1.2046999e-02
 -1.1585197e-02
  3.8459204e-02
  1.4905886e-02
 -4.4581980e-02
 -3.9271899e-02
  1.4827964e-02
 -9.4256317e-03
  2.3370907e-03
  1.4999242e-03
 -1.9333107e-02
  2.5143612e-02
  2.6735911e-02
  6.5444894e-02
  1.2346620e-02
  2.7643633e+00
 -3.0292727e-03
 -1.8368326e+00
  8.0597969e-03
 -1.7704850e-02
 -9.6524339e-03
 -7.2097260e-04
  4.7096759e-03
 -5.7265428e-03
 -4.6324576e-03
  1.3467919e-02
  4.3082116e-03
 -6.5310155e-03
  1.4231671e-02
  1.9389637e-02
  1.8929174e-03
  9.5230871e-04
 -7.4446434e-03
 -1.4678800e-02
  7.1115368e-03
 -6.3983868e-03
 -1.9649703e-02
 -4.7240723e-02
 -1.3632552e-02
 -7.5721373e-03
  4.3740307e-04
  3.8989224e-02
  6.8855551e-03
 -2.5890363e-02
  2.0390283e-03
  1.9538975e-03
  6.3560968e-03
  2.1748429e-03
  8.2766004e-03
  3.3520807e-02
  9.8828999e-03
 -2.5168628e-02
 -5.0587482e-03
  2.7032614e-02
  2.0866899e-03
  1.7951457e-03
 -6.2636691e-03
  8.8467114e-03
  4.1440045e-03
  4.3448946e-01
 -3.3041540e-01
  1.2063450e-01
 -5.0319427e-01
  5.0508600e-01
 -8.8457696e-02
  4.8286700e-01
 -2.3410039e-03
  1.5593054e-02
  8.2047191e-03
 -5.7313927e-03
 -1.0076218e-02
  6.1944402e-03
 -4.4532286e-04
  1.2047822e-02
  1.1288571e-02
 -3.7701293e-03
 -3.9678714e-03
  2.4047926e-01
 -1.8817225e-02
 -1.4793410e-02
  5.4489383e-03
 -1.1186630e-02
 -6.0349461e-03
  3.3681959e-02
 -1.3300756e-02
  7.3888361e-01
  5.8262725e-03
  5.5133045e-01
  8.0452198e-03
  2.6962547e-02
  7.0674811e-04
  1.7051013e-02
  3.9501677e-04
 -1.2587524e-02
  1.4771865e-02
 -8.0397837e-03
 -2.4517318e-02
  1.8554855e-02
  1.7763212e-03
  4.7229286e-03
 -4.0910780e-02
 -1.3188350e-02
 -5.0137449e-02
  6.2966337e-03
 -4.4152550e-03
  5.2502722e-01
 -5.7046616e-01
  1.1325596e-03
 -2.4349040e-03
 -9.9693313e-03
  2.2335488e-03
 -7.1199381e-01
 -7.3056081e-03
  1.1545760e-02
  9.1059732e-01
 -5.1262393e-03
  1.2401895e-03
  1.6233252e-03
 -1.9031471e-02
 -1.3525646e-02
  2.1659425e-02
  3.0123638e-03
  2.6936647e-02
  5.2242060e-03
 -4.7963642e-04
 -7.4176339e-04
  2.8801206e-02
 -8.3453069e-03
 -1.9324614e-02
 -2.0734813e-02
 -2.1776507e-02
  2.2199767e-02
 -2.1699749e-02
  1.2500561e-03
  1.0392644e-02
  5.8254148e-03
 -9.9911019e-03
  1.3544870e-02
  3.6588386e-03
 -1.2082212e-01
  1.0199273e-02
 -1.3167760e-02
 -7.9283081e-03
 -2.1763865e-03
 -1.0027116e-02
 -1.9476622e-02
 -2.6176790e-02
 -1.7274091e-02
 -6.2781149e-03
  1.7030779e-02
 -1.3633081e-03
  5.0501414e-03
 -2.2506649e-02
 -1.9095851e-02
 -2.9945811e-03
  1.7318361e-02
 -4.5040362e-03
  2.1479134e-02
  1.1150066e-02
 -2.0604808e+00
  1.2845692e-03
  1.5593303e-02
 -1.0446193e-02
  2.9127249e-02
  3.0876952e-03
  2.5863291e-03
  4.9988939e-03
  1.5445603e-02
  1.4382541e-03
 -2.6720869e-03
 -3.2446389e-03
  1.4262481e-02
  4.5360911e-01
  4.1282368e-03
 -7.6105201e-01
  9.4267755e-04
 -7.0169810e-03
  7.7292328e-03
  2.8399494e-02
  1.3187926e-02
  7.2887698e-03
 -7.1820389e-03
  1.7332429e-02
  1.3551385e-02
  7.5923381e-03
  1.5424512e-02
  5.0696344e-03
  1.3820654e-03
 -1.0398866e-02
 -8.1211776e-03
  2.4001699e-02
  1.8678727e-02
  6.2400675e-03
  9.6413196e-04
  1.1815222e-02
  2.2474660e-03
 -3.0524379e-02
 -6.7422196e-04
 -9.1321338e-03
 -3.0798677e-03
  1.1001500e-02
 -2.6768991e-03
  1.4734725e-02
 -9.4131958e-03
  4.5243017e-03
  7.6276175e-04
 -2.6325309e-01
  2.0794239e+00
  1.8951548e-02
  1.7592015e+00
 -3.6931479e+00
 -5.5465084e-01
 -3.6012405e-01
 -3.1884278e-03
  4.7090914e-02
 -2.8015359e-04
  1.2580844e-02
  3.0066061e-03
  8.7738819e-03
 -5.4103544e-04
 -1.3417651e-02
  6.5907568e-04
 -1.6518258e-02
  3.6134939e-03
 -2.7553942e-02
 -1.0793678e-02
 -5.1626272e-02
  3.0001071e-03
 -7.6274076e-03
  7.0162438e-04
  1.7474999e-01
 -3.9192893e-02
  3.2900855e-01
  2.8267319e-04
 -6.0280939e-03
 -4.9347049e-01
  3.0030751e-01
  9.9577121e-03
 -1.1744782e-02
  2.8377469e+00
 -1.2998039e+00
 -9.8021934e-03
 -1.9088514e-02
 -3.2457441e-02
 -7.5107813e-03
  8.4663043e-04
 -2.6764439e-03
  4.7688507e-03
  6.6768442e-04
  4.8897238e-03
 -1.6911011e-02
 -1.9238951e-03
 -9.9643506e-03
 -1.3583474e-02
 -1.1619608e-03
  3.2809321e-02
  2.7274259e-03
 -1.8596649e-03
  1.8366345e-03
  1.6149662e-02
  1.4232338e-02
  5.5987417e-05
  2.8122750e-03
 -1.5740652e-02
  1.2954787e-02
  5.1235151e-03
  3.6402266e-02
 -5.7429317e-03
 -2.0272166e-02
 -1.0331802e-03
 -9.5701534e-03
 -1.2069768e-03
  9.9135842e-03
  1.3079266e-02
 -4.7539067e-03
  6.8135704e-03
  8.5336166e-03
 -1.1302719e-02
  9.3937460e-03
  1.0613536e-02
  2.3038876e-03
 -4.4671795e-03
 -3.6277904e-03
 -4.3579475e-03
 -6.1977580e-03
 -1.8167844e-05
  2.0962749e-03
  9.8125935e-03
 -4.5501217e-03
 -4.2822618e-02
  1.3068032e-02
 -5.2755787e-03
  7.1222368e-03
  6.0653845e-03
  1.4488138e-02
 -5.1789172e-03
  1.4115928e-02
  3.5260111e-02
 -9.9979551e-04
  1.7761357e-02
  9.6980594e-03
 -6.2094274e-04
  2.4414056e-03
  1.8468905e-03
  2.2767811e+00
 -1.2575282e+00
 -1.1348898e-01
  3.0648720e+00
 -1.8292586e+00
  2.6696718e+00
 -4.0676671e-01
 -1.1878585e-02
 -1.0375311e+00
 -6.8642043e-02
 -1.3582339e-02
  3.1798500e-01
 -1.2217602e-02
 -1.1810777e-01
  1.3143961e-01
 -2.7368793e-03
  1.3736553e-01
  8.0539310e-01
  1.9051939e-02
  7.3023267e-02
  4.0529257e-01
  1.2445714e-03
  1.2216399e-01
 -8.8536246e-03
 -2.4350302e-03
  1.5137683e-02
 -2.6680900e-02
  3.9357431e-02
  4.9405236e-02
  2.3737963e-01
  1.3902220e-01
 -2.0242417e+00
  1.1997979e-02
  4.4202484e-02
  1.3291888e+00
 -6.6724075e-03
 -8.7147094e-03
 -6.9511766e-03
 -5.8825724e-03
 -1.0033123e-02
 -4.8902025e-03
  2.6672212e-03
 -7.6383594e-03
 -1.5299940e-02
  2.0757518e-04
 -9.1605065e-03
  2.2831601e-04
  4.6039447e-03
  3.2163074e-04
 -5.3249389e-01
  2.1258156e+00
 -1.0594770e+00
 -6.0648686e-01
  6.1074711e-02
 -2.1594651e+00
  6.6144820e-03
 -9.0711981e-02
 -9.2799848e-01
 -8.9186424e-01
 -3.7983779e-02
  2.7691558e-01
  1.1663709e-02
 -1.2535367e+00
 -8.9085399e-05
 -6.6744477e-01
  4.6588741e-03
  2.7895098e+00
 -4.8865905e-01
  6.4622615e-03
 -6.5927464e-03
 -1.6083754e+00
 -3.0876189e-01
  1.1227560e-02
 -1.0133528e-01
 -4.2494973e-03
 -5.3074682e-01
  1.2165565e-01
  1.1187624e+00
  3.2255118e+00
 -9.7863421e-02
 -7.8909425e-03
 -2.6560161e-01
  1.1384787e-01
  3.1537879e-01
  9.9507230e-04
 -9.4562191e-01
  1.7999873e-02
 -3.3829767e-02
  2.5148848e-01
 -8.8670813e-03
 -1.1976528e-02
 -1.0426619e-02
 -7.9788910e-03
 -9.2654186e-04
 -1.7928662e-02
  7.9299882e-03
 -1.8756416e-02
  1.8703926e-02
 -2.3568820e-02
 -1.0987238e-03
  8.1166457e-03
 -1.4851153e+00
 -2.4068244e-03
 -3.8561147e-02
 -9.1688829e-03
  5.3288713e-03
 -8.0338260e-04
 -1.1710389e+00
 -1.9091956e-02
 -2.3505932e-03
  3.8893286e-03
  1.5452532e-03
  3.4879164e-03
 -7.1611027e-03
  3.3606436e-02
 -2.6457670e-01
  1.9791439e-02
 -2.5999956e-02
  1.7676255e-02
  9.6027106e-03
  1.8208850e-02
 -1.1414602e-01
  1.8031307e-02
 -7.9858815e-03
  9.4821891e-03
  4.6820831e-03
 -3.1637028e-02
  3.7140781e-03
 -1.5831511e-02
  1.1343126e-02
 -1.9091414e-02
  1.7354090e-02
  8.8098980e-03
 -2.2263336e-03
 -2.4365906e-03
  2.3839017e-02
  4.9789273e-03
  4.9461029e-03
 -7.1947267e-03
 -7.7339686e-03
  4.3907902e-01
 -2.2494202e-02
  4.8990152e-04
  1.9632042e-03
  3.9543244e-03
 -9.4629051e-03
 -6.4678364e-03
  9.9154953e-03
  4.6578232e-02
 -1.9943945e-02
  1.0559696e+00
 -3.5921705e+00
 -1.8483577e-03
  4.5608077e-03
  1.7226832e-02
  9.6261604e-03
  2.5067329e-02
 -4.4245529e-03
 -4.8724573e-02
  1.2244412e-03
  3.2559279e-02
 -1.2440177e-02
  1.3083299e-02
 -2.3308895e-03
  2.5657280e-03
  1.2918397e-02
  2.3841543e-02
  5.5251247e-04
  2.1735538e-02
 -2.0559074e-03
  1.7257329e-02
  8.2023544e-03
 -8.9528505e-03
 -8.7706624e-03
  7.2435581e-04
 -2.1841493e-02
  2.2415856e-02
 -1.0839266e-02
 -2.5664702e-02
  1.5129978e-02
  1.3274871e-03
 -4.8741898e-03
  4.5025256e-03
  9.2044715e-03
 -2.4453360e-03
 -2.1293845e-02
 -7.1917041e-03
  2.1728009e-02
  8.8910433e-03
  6.9100847e-03
 -3.7312679e-04
  1.6540019e-03
  7.2889257e-04
 -4.0913794e-02
 -1.1081710e-02
 -1.7288347e-03
 -3.2629553e-02
  1.2714249e-01
  2.2001497e-02
 -1.6169109e+00
  9.1867801e-03
 -7.9769433e-02
 -9.9356752e-03
  5.1156962e-03
  2.9466860e-02
  3.3829425e-02
  5.3575281e-03
 -6.1439052e-03
 -1.6205383e-02
 -7.4883169e-03
 -9.6626259e-02
  2.1404638e-03
 -7.7151237e-03
 -2.6473522e-02
  5.0180476e-02
  1.0813451e-04
 -8.2440346e-01
 -1.0312475e-02
  2.6065495e-02
 -6.0088495e-03
  1.0319382e-02
  5.9657977e-03
  8.6736996e-03
  2.9478461e-04
  8.8919746e-03
 -6.6486284e-02
  7.0190257e-03
  1.0610987e-02
  5.9752706e-03
 -1.4721489e-02
 -6.0950955e-03
  7.7619851e-03
  5.3397506e-03
  9.8137604e-04
  1.2854751e-02
  2.3598958e-02
  9.1202194e-03
 -1.3512906e-02
 -1.1169462e-02
 -5.3534222e-01
  2.9349152e-03
 -5.4145637e-03
 -6.9450418e-04
  1.1044075e-03
  5.2003432e-03
 -8.0072308e-01
 -6.8665937e-02
  4.4180043e-03
 -5.3850025e-01
  2.1257179e+00
  1.3960367e-01
  9.0810394e-01
 -1.4519663e-02
 -6.6953078e-02
 -2.5471929e-01
  7.5730891e-04
  1.0255530e-02
 -2.4474279e-03
 -1.2560827e-01
 -7.1569067e-01
  5.2730716e-03
  8.0708578e-02
 -2.7397382e-03
 -3.8000867e-01
  6.6594847e-02
  3.7068535e-02
 -6.1152041e-02
 -3.0275865e-03
  1.5448479e-03
 -7.2414614e-03
  2.5586860e-02
 -1.3915214e-01
 -1.0446254e-03
  7.0195466e-02
  3.2674894e-02
  6.3136262e-03
 -8.1714271e-03
 -8.0821794e-03
  1.2622646e-04
  4.6514250e-02
  2.4010951e-02
  2.0138446e-02
  2.9780522e-02
 -3.6245957e-02
  2.3443988e-02
 -8.6551914e-03
 -2.7749175e-02
 -1.8853994e-02
  1.5498320e-02
 -1.2164961e-02
 -8.2542216e-03
  8.9940755e-03
  3.3659819e-01
 -5.9003574e-03
 -7.1272627e-03
 -3.6342245e-01
  2.0439764e-02
  7.7464503e-01
 -3.1850464e+00
  4.9664339e-01
  1.4190541e-01
 -2.4028139e-02
 -1.1686075e-01
 -4.5079198e-03
  1.5189260e-01
  3.3960916e-04
 -2.5683769e-03
 -8.3309095e-03
 -9.7618019e-03
 -3.0798826e-03
  2.1092499e-02
 -6.3101514e-03
  4.5153415e-03
  5.0794259e-03
  6.0981797e-04
 -1.0764732e-02
 -6.9273449e-02
  6.8639009e-03
  1.2564271e-03
 -1.0074276e-02
  1.6138764e-02
  2.8498054e-03
  5.0262872e-02
 -1.2924880e-02
 -2.2198888e-03
 -1.7122520e-02
  4.7183715e-02
 -4.4382356e-02
  1.5528730e-01
  1.3102569e-02
  3.4706362e-02
  6.2584602e-03
 -1.2471859e-02
  8.7391996e-01
  1.4633961e-03
  1.6583281e-02
  1.8172386e-03
  6.8643078e-02
 -4.2187045e-03
 -9.7757196e-03
  2.0800734e-02
 -2.4035549e-02
  5.1631830e-03
 -6.1733890e-01
  1.4551052e+00
  8.9666732e-03
  1.1069126e+00
  8.2402980e-01
  1.0350341e+00
 -1.0188339e+00
 -6.4731846e-03
 -6.6650075e-01
 -1.4018177e-02
 -2.1312127e-01
 -4.1235283e-01
 -1.7050182e-02
 -2.2134291e-02
 -2.1080501e-02
 -2.2935508e-01
  1.8691916e-02
 -1.1276357e-01
 -1.2004030e+00
 -2.0582235e+00
  3.6122790e-01
 -1.7551394e-01
 -6.6747081e-01
 -2.7179823e-04
 -1.0223572e+00
  2.8700404e-02
 -1.1053736e+00
 -2.7783818e-03
 -5.9430134e-03
 -4.6395722e-01
 -1.6076916e-01
 -5.2151203e-01
 -2.7364874e-01
 -9.6531928e-01
 -6.5969664e-01
  4.7200858e-03
 -6.9892094e-03
  3.6833282e-03
 -1.3614042e-03
  4.2631903e-01
  2.2337979e-03
 -3.8037613e-02
 -3.0648361e-03
  6.8900860e-03
  2.2894901e-03
  1.8471427e-03
 -6.3832626e-03
 -2.1300497e-02
 -3.0790551e-02
 -1.2722245e-01
 -4.7220376e-01
 -6.0460488e-03
 -1.6609192e+00
  2.6542747e+00
  2.0839982e-02
 -8.5913908e-01
  1.1295727e-02
 -3.1233912e-02
  1.2904398e-01
  5.9136250e-03
  1.9697114e-03
 -9.8881191e-03
 -4.1734406e-01
 -8.6039063e-03
 -8.7329584e-01
 -1.7260335e-02
 -7.2907894e-03
 -1.0223033e+00
  4.3184400e-04
  1.2560979e-02
  8.2417000e-03
 -5.2939582e-01
 -1.0861157e-03
 -7.9600193e-04
 -8.3295116e-04
 -3.5567838e-01
  2.4393532e-02
 -9.4971754e-02
 -3.2016101e-01
 -8.5845619e-02
  5.9152761e-04
 -2.8596321e-01
  1.5785761e-01
 -4.8028991e-02
  1.1064135e-02
  5.0134223e-02
  2.8661459e-03
 -3.2022934e-02
  2.1614206e-01
 -2.0138821e-02
 -6.6931988e-03
  2.5599366e-03
 -4.3801200e-03
 -2.8825977e-03
  3.9767422e-02
  3.2609149e-03
  2.0531252e-04
  3.6662142e-03
  6.6109980e-03
  1.5245997e+00
  1.7605536e-03
  3.6132147e+00
 -1.8837942e-02
 -9.6853462e-04
 -3.7775233e-03
  8.2208309e-03
 -2.2251196e-02
  7.1200416e-03
 -1.4003706e-02
 -1.0011386e-03
  5.7306333e-04
  1.1021298e-02
 -1.4437797e-02
  7.2422898e-03
  2.1205749e-03
 -1.4606616e-03
  1.0515172e-01
  4.5790594e-02
 -1.2058785e-02
  3.3048697e-02
  3.7464686e-03
  1.9062720e-02
  1.0309682e-02
  1.5747330e-04
  1.2934622e-02
  1.6172508e-02
 -1.1114906e-02
  3.2008274e-03
 -2.0559402e-03
 -7.9073344e-04
 -1.3694561e-03
  2.2810478e-02
  2.3893043e-02
  5.9271050e-03
 -2.4039041e-02
  5.4352713e-01
  2.7294379e-02
 -2.6316404e-02
 -6.5647345e-03
  4.0822229e-03
  1.7696179e-02
 -1.6109886e-02
 -3.0299120e-03
  1.0545253e-02
  1.6134635e-02
 -1.4421215e-02
  1.2213890e-02
 -2.2126341e-03
  7.5962530e-03
 -1.5379299e-02
  7.2183454e-04
 -1.3131283e-02
 -1.2902830e-02
  9.8381387e-03
 -5.1985509e-03
  5.2840910e-03
 -2.8352994e-02
 -8.3330395e-03
  1.7757053e-03
 -1.4517560e-03
  1.4689963e-02
  1.7532069e-02
  1.9663384e-02
 -2.6616102e-02
 -6.2098008e-02
 -2.3169195e-02
 -1.7160326e-02
  8.3260174e-04
  5.5910060e-03
 -4.2388188e-03
 -6.1965995e-03
  3.9113192e-03
 -6.4713936e-03
 -1.6843507e-02
  5.5101945e-04
  1.1201609e-02
  1.3386085e-02
  6.9643516e-05
 -6.4007896e-03
  3.0416999e-02
 -5.3430808e-04
 -7.5282121e-01
  2.2415904e-02
 -5.6924786e-02
  7.0835347e-04
  2.8375259e-02
 -1.9283140e-02
  7.4496823e-03
 -6.0687913e-03
 -4.2147213e-03
 -5.4330342e-03
  1.5143475e-02
 -7.0439558e-03
  4.9712430e-03
  3.0190302e-03
  9.7496569e-04
  5.9934092e-01
 -1.2380245e-01
  4.0657427e-03
  2.2919003e-03
  6.8654083e-02
  7.6890741e-03
  3.7369961e-01
 -1.4133264e-02
  5.7347205e-02
 -2.3428255e-03
 -1.0434125e-02
 -1.1470862e-02
 -2.3046751e-02
  2.5213033e-02
  1.4045052e-03
  5.2179962e-02
  3.7880188e-03
  5.3206208e-04
  4.6800212e-03
 -5.3819530e-03
  1.0010856e-02
  5.8903378e-03
  4.0404219e-02
  2.1123569e-02
  1.5602455e-01
 -6.7257197e-03
 -8.7186001e-02
 -2.7569319e-04
 -3.7219939e-03
  2.7739303e-03
 -3.2278348e-02
 -2.5470559e-03
  3.5565705e-03
  1.0546854e-03
 -1.0790718e-01
 -3.9737681e-03
  9.1180541e-03
 -2.4004506e-03
 -1.6524378e-02
  5.3589231e-01
  5.2237272e-02
  6.5140091e-03
  1.7773369e-02
  1.0680175e-02
 -1.1579173e-02
  2.3621744e-02
 -3.3507845e-03
 -1.4468726e-02
  5.3734002e-03
 -2.6734734e+00
 -3.0937829e+00
 -9.2539650e-01
  6.7695290e-01
  3.5486031e+00
  2.0659685e+00
  6.2552124e-01
 -7.2879711e-04
 -4.2490909e-01
 -2.1971114e-01
 -7.7433386e-03
  1.4821193e-01
 -9.0891831e-03
 -1.5836766e-01
 -8.1469014e-02
 -4.6352956e-01
  5.9816875e-03
  8.1416756e-02
  1.0817219e+00
  1.5329441e-01
  1.8769342e-01
 -2.7084149e-02
 -9.0148550e-01
  3.8897287e-02
 -9.0535462e-01
  1.5233479e-01
  2.3343711e-01
  2.5168793e-02
 -8.7648100e-01
  6.2899016e-02
 -7.5977184e-03
 -1.5675920e-01
  8.3652558e-03
  4.9242139e-02
  1.5846346e-01
 -4.0753148e-02
  1.9303222e-01
  1.6907930e-02
 -2.3060647e-01
  6.1446482e-01
 -1.2464610e-02
 -2.1915633e-02
 -1.2053749e-02
 -2.4532508e-02
 -3.7528318e-03
 -6.0658976e-03
 -8.1047015e-03
  3.3173624e-03
 -1.1136140e-02
  2.4013183e-01
 -1.2992476e+00
  4.6690395e-01
  7.8522396e-01
  1.2429231e+00
 -2.6125722e+00
 -2.1816351e+00
  7.6794970e-01
 -7.4015506e-02
 -5.7192683e-01
 -1.1746997e+00
  2.3040862e+00
  1.6956236e+00
 -2.0579827e-01
  1.7111944e+00
 -6.8267506e-01
 -3.7768420e-02
 -5.2112508e-01
  7.7592880e-01
  3.0821617e+00
  1.3451792e+00
 -3.9117089e-01
  8.9780915e-01
 -5.3824115e-01
 -3.5671988e+00
 -1.4108801e+00
 -1.5061318e+00
  2.1396067e+00
 -1.3754909e+00
 -3.5429186e-01
  7.3005009e-01
 -7.6193845e-01
  2.9985833e-01
 -1.0716151e+00
  1.6556871e-01
  3.8269380e-01
  2.8819633e-01
  9.2298295e-03
 -9.2528723e-02
  3.1047967e-01
 -2.9816115e-01
 -7.6594383e-01
 -7.6987219e-01
  9.2381261e-02
 -6.0467833e-01
 -3.7804249e-01
 -2.2622719e-03
  4.4122893e-01
  1.1026173e+00
 -2.3308766e-01
 -1.3964750e-01
 -1.8631452e-01
  9.7134268e-01
  7.0572567e-01
  2.3826778e+00
  7.8250206e-01
 -9.2133552e-02
 -1.1850976e+00
 -9.5730382e-01
  6.1839652e-01
 -3.0360627e+00
 -3.9917070e-01
  1.0932529e-02
  1.5929039e-01
 -5.0187120e-03
 -1.1218383e-01
  7.3600203e-01
 -1.6575910e-01
 -9.1724861e-03
 -1.7584577e-02
 -2.2093426e-03
  1.9259380e-02
  2.2731058e-02
 -4.7507307e-01
 -6.0920650e-03
 -4.8989449e-02
 -3.1795582e-01
  9.9480096e-03
  2.9071173e-02
  2.8231395e-02
 -1.9349393e-02
 -1.1716960e-02
 -1.9270053e-02
 -6.6929124e-02
 -2.3599895e-02
 -2.6838373e-02
 -3.5316803e-02
 -2.2148738e-02
  1.1953304e+00
 -1.2307289e-02
  2.7813849e-03
  1.9743586e-02
 -2.5721802e-03
  6.4512189e-03
 -1.8976726e-01
 -2.9164534e-02
  7.7165947e-03
 -1.6204124e-02
 -5.2941922e-04
 -1.8623136e-03
 -1.3233930e-02
  1.0032241e-03
  7.4536651e-03
  3.8012532e-03
  9.2307888e-03
  1.1311813e-02
 -1.9172067e-02
  6.3112611e-03
  4.5231471e-04
 -5.7982838e-01
 -7.6643152e+00
 -3.0458209e-01
  1.1127456e+00
  1.3401891e+00
  3.3664737e+00
  6.1034167e-01
  2.5284162e-02
 -1.7535068e-01
 -2.6626666e-03
  1.2822558e-01
  2.6769738e-03
 -2.6955405e-01
 -1.6897082e+00
  2.0655251e-01
 -1.9394048e-02
  5.2283907e-01
  4.0806895e-03
 -2.2599196e-02
  1.1382996e-01
  4.5834370e-02
  1.7158676e+00
  1.5631492e-01
  1.3893100e-02
 -1.3654863e-02
  2.6074345e-03
  1.5749555e-02
  8.7444037e-03
  1.9121158e+00
 -1.2016641e-02
 -8.3576791e-02
 -6.2570805e-03
  3.4153902e-03
 -1.3779378e-02
  1.1083716e-02
  1.1546013e-02
  7.7611902e-03
  5.8496669e-03
 -2.4339741e-02
 -2.3107598e-02
 -8.8960817e-03
 -8.8610016e-03
  5.2372813e-03
 -4.5903046e-03
 -4.9148914e-03
 -2.7065264e-02
  7.4182097e-03
  1.3496562e-02
 -2.7527189e-02
  4.6343827e-01
 -3.1238923e-02
  2.4943926e+00
 -1.6963354e+00
  2.7791779e+00
 -1.4145417e+00
  4.7312608e+00
 -3.1441197e-01
 -7.8752214e-01
 -4.5697179e+00
 -7.4488199e-01
  4.3314295e-03
  2.1847015e-02
 -8.6492014e+00
 -8.2259636e+00
 -7.1143061e-01
 -5.7831023e-02
  1.0155485e-03
  6.8302119e-01
  5.8455527e-01
 -8.8583052e-01
 -7.9647189e-01
  2.1007017e-03
 -1.5454750e+00
  2.5869272e+00
  1.4558245e-02
 -3.8506683e-02
  8.7806545e-03
 -5.0565386e+00
 -5.7645440e-01
 -1.2552258e+00
  3.1851046e-03
 -6.0479298e-02
 -5.5105591e-01
 -2.4311502e-01
  3.8230542e-02
  5.9666908e-03
 -3.1064383e-03
 -2.8882571e-02
 -2.7518240e-03
 -4.3254299e-03
 -1.8968773e-01
  2.5965432e-03
 -1.3970488e-02
 -1.1455729e-02
 -1.4882062e-03
 -9.4587239e-04
  7.9619503e-03
 -1.2549885e-03
  2.3335189e-01
  1.0581634e+00
  9.2566490e-01
  1.8891999e+00
  1.1754789e+00
 -5.3372607e+00
  2.1803358e+00
 -2.2497207e-02
 -1.0908043e-02
  1.8515209e-03
  1.3840627e-03
  8.8441074e-03
 -5.5068256e-03
  2.8510788e-01
  1.8048122e-03
 -3.6135742e-03
  1.3133677e-02
  9.7587528e-03
 -3.0455885e-02
 -4.9414532e-03
 -5.1210009e-02
 -4.8831332e-02
  6.7246226e-03
 -3.3501279e-02
 -1.7005380e-02
  4.1116723e-01
  4.2741280e-03
  2.3772856e-02
  1.1745346e+00
 -4.6525202e-03
  3.3638070e-03
  2.5554046e-02
 -2.0993577e-02
 -6.3925027e-03
 -5.6276545e-03
 -9.3403002e-03
  3.2089364e-03
 -5.0095990e-03
  1.7222846e-02
 -2.6226672e-04
  2.3897078e-02
  7.7827270e-03
  5.4220050e-03
 -2.2259222e-03
 -1.8892746e-02
  1.5806388e-02
 -1.0414138e-02
 -1.1316339e-02
  1.1874569e-02
  4.3856949e-03
  1.7353151e-02
  4.0495496e-02
 -4.3930039e-02
 -1.4519507e-02
 -5.0877458e-01
  9.3537578e-03
 -8.4838187e-03
  3.3497557e-04
 -7.7405097e-03
  1.6526190e-03
 -4.2140679e-03
  7.1831732e-03
  2.2745719e-02
 -2.7144698e-02
  2.1962319e-02
  1.0610946e-02
  4.3084379e-02
 -2.1085043e-03
 -2.3582885e-02
 -1.0352806e-02
  2.7814915e-03
 -2.2398740e-02
 -1.5441760e-02
 -1.2174002e-03
  1.1178765e-02
 -3.4995709e-02
 -5.1811845e-03
  2.4352430e-03
 -4.1857879e-03
  2.7931234e-02
 -5.8475030e-03
 -3.6314096e-02
  8.9179417e-03
  1.0236426e-02
 -2.4595340e-03
  9.7300140e-03
  1.6486285e-02
 -2.4691687e-03
  1.4752291e-02
 -2.3940909e-03
  1.4787409e-03
 -7.6036816e-03
 -9.0568969e-03
  2.3765401e-03
 -3.7210908e-02
  1.7892615e-03
 -2.9420825e-03
  8.4955515e-03
  1.8004001e+00
  2.1228470e-01
  1.4666458e+00
  2.2480065e-01
 -2.7179089e+00
 -1.2401879e+00
  1.8447691e-01
 -5.3168763e-03
  3.9373999e-03
 -4.5206589e-01
  3.9809775e-01
  1.8234586e-02
  6.5094209e-01
 -7.1820611e-01
  3.6718287e-02
 -5.7123685e-03
  3.7574323e-03
 -1.0172974e-02
  1.2313340e-01
  2.5764264e-02
 -3.0694215e+00
  1.6063422e-02
  7.2048684e-03
 -3.6211880e-03
 -3.2811891e-02
  2.3889000e-02
 -9.2996896e-04
  2.1439192e-03
  1.0958245e+00
  7.1043717e-03
  1.1546145e-01
  1.6562717e-02
 -5.1300309e-04
 -2.5759381e-03
  1.1771839e-02
  6.4055580e-03
  3.0509252e-02
 -7.3525580e-03
  1.2114936e-02
  1.5924852e-03
 -5.9143621e-03
 -1.7638488e-02
 -8.5821450e-03
 -2.3532726e-03
  1.6131210e-03
  6.6651688e-03
 -6.7122779e-03
  2.2770818e-03
 -1.2185670e-03
 -4.2292300e-01
 -3.4506549e-03
  1.3782420e-02
 -6.2994063e-03
  1.1010706e-02
 -2.7587625e-01
  2.6288092e-01
  1.5317692e-03
  1.4780118e-02
 -1.2932991e-02
 -3.2954413e-02
 -7.7109970e-03
  5.8564632e-03
 -2.5260064e-03
  6.9696270e-03
 -1.1781813e-02
 -3.0046554e-02
  2.8765926e-02
  1.7300846e-02
  3.5552647e-02
 -1.0195790e-02
  1.5956858e-02
 -3.0545916e-03
  6.3994494e-03
  7.9628089e-03
 -7.8500592e-04
  3.9341081e-02
  1.1834736e-02
  1.0549223e-02
  3.5883293e-03
  4.1922666e-03
  1.4119979e-02
  8.9897700e-03
 -7.8129387e-03
  1.0912976e-02
 -7.9908615e-01
 -6.1873468e-03
  4.5880619e-02
  4.0310486e-03
  2.9028081e-03
 -7.7795172e-03
 -3.9537614e-03
  2.5599168e-03
  1.2437657e-03
  6.7519131e-03
  6.3672042e-03
  8.8897152e-03
  6.1893826e-03
 -4.9499148e-03
 -7.3658996e-03
 -2.4794004e-04
  2.8461893e-03
 -4.4816157e-01
 -2.1361642e+00
  5.3467107e+00
 -1.2463920e+00
  7.0609823e-03
  7.0003539e-01
  1.2587704e-02
  3.1569574e-02
  2.2609817e-02
  1.1786885e-01
  1.6859820e+00
  1.1957084e+00
  9.0041123e-03
 -1.1939831e-02
 -8.2092537e-03
 -1.4668334e-02
  1.9826371e-02
  4.8347014e-01
  3.7215140e-03
 -3.5487041e-02
 -1.8761255e-01
  7.5857746e-03
  1.3419806e-03
  3.0842572e-02
 -1.1007322e-02
  5.1923833e+00
 -3.2642167e-03
  5.4363827e-03
  5.8537591e-03
 -9.7226340e-04
  1.1944257e-01
  3.4429248e-02
  9.9383062e-03
 -4.5967833e-03
 -8.9422576e-03
 -8.1136832e-03
  2.5304130e-03
 -2.6908503e-03
 -5.5732345e-03
  1.2706946e-02
  1.1800880e-02
 -1.2263121e-02
 -1.5220841e-03
  2.2803847e-02
  3.7832613e-04
 -2.0297819e-03
  4.0360093e-01
 -4.2631351e-03
 -2.9102655e-03
 -6.2837973e-03
  7.3196221e-04
  1.9649438e+00
  1.0091728e-01
 -3.3535141e-02
 -2.5622087e-02
  1.9612676e-02
 -1.2682998e-02
 -3.2202569e-03
 -5.3408551e-03
  3.1162607e-02
  6.4342027e-03
 -6.3432655e-03
  7.8498460e-03
 -7.3572774e-03
 -9.5574255e-04
 -3.4263697e-02
  1.0966649e-01
  2.3689221e-04
 -4.4403221e-03
  2.8543996e-03
 -2.7817430e-03
 -8.5492656e-03
  5.1349415e-03
 -1.3604546e-02
 -3.9628614e-02
  1.0731792e-01
 -1.3240846e-03
 -1.8035921e-03
  5.0665799e-04
 -7.3571308e-03
  1.8047789e-02
 -2.6359504e-02
 -1.3644542e-03
 -9.8327063e-03
  1.6843024e-04
  2.3502468e-03
  1.5805561e-02
 -2.2860280e-04
  2.1687020e-02
 -9.6533680e-04
 -9.0068765e-03
  1.5653629e-02
  3.6078540e-03
  9.9705514e-03
  1.1163580e-02
 -1.1678531e+00
 -8.6447382e-01
 -2.9278305e-01
  4.9071893e-01
 -4.2369819e+00
  2.7909968e+00
 -1.8325344e-02
 -9.1426093e-03
  2.7565662e-02
  1.0650016e-02
  1.8482963e-02
  2.7845884e-03
  4.3946104e+00
  8.4660494e-01
  2.1233908e-03
  1.7265126e-02
  3.1949970e-04
  1.8386355e-03
  3.8467912e-04
  5.4518180e-03
  2.4932945e-02
  1.2093634e-02
 -5.5508532e-05
  2.2164022e-03
 -6.1954120e-03
  1.6314492e-02
  2.1039126e-02
 -1.8623024e-02
 -2.6110758e-03
 -6.2083000e-01
  1.6530644e-02
  1.7488181e-03
 -1.6124690e-02
  6.0462328e-03
  1.1827741e-01
  3.1689350e-02
  1.2968897e-02
 -1.0714801e-02
  1.7902449e-04
  1.4090438e-03
 -1.0664407e-02
  4.6830323e-02
 -6.6997192e-04
 -2.0363303e-03
 -6.7311092e-03
 -9.8289503e-03
 -7.5833364e-03
  8.3071422e-03
 -3.2862634e-03
  9.6843809e-01
  2.1069942e-03
 -4.4662821e-01
  3.6224616e+00
  1.4854236e+00
  2.4435880e+00
 -3.4235251e+00
 -1.4953306e-02
  2.4058986e-01
  3.9058898e-04
  3.4159545e-02
  1.2200095e-02
  6.1251942e-02
  1.5861496e+00
  1.0607389e-02
  2.0123279e-01
  3.8992479e-01
  8.8610360e-03
 -2.1116358e-01
  7.9595735e-03
  1.4351051e+00
  1.8005267e+00
 -1.2839868e-02
  1.1388003e+00
  7.1565118e-03
 -9.6652023e-03
  5.3975526e-03
  8.4483381e-03
  1.2892797e+00
 -4.6459557e-03
  1.3824305e-01
  5.9701107e-04
  8.8680460e-04
 -2.2486863e-03
  1.7729931e-02
  1.4647526e-03
 -4.8754583e-03
  1.2065086e-02
  7.7742455e-04
 -5.5850344e-03
  2.2504169e-02
  2.5236612e-02
 -2.0816099e-02
  2.6091656e-03
  1.1289585e-02
 -7.0477808e-03
  3.7182779e-03
 -2.8237117e-02
 -1.2042094e-02
  2.5882018e+00
  2.2898932e-01
  1.5465252e+00
  1.1108340e+00
  1.6773475e+00
 -7.4936587e-01
  7.7275558e+00
 -3.8543732e-03
 -2.1018287e-02
  1.7947446e+00
  2.4325869e-03
 -2.8344331e-02
  3.7456199e-03
 -1.1680903e-02
  5.1968229e-01
  9.0033136e-04
  3.3347629e-02
  3.2353271e-02
  1.6107277e+00
  2.8824681e-04
 -2.7350822e-02
  3.0373198e-01
 -1.6173437e-02
 -1.2076120e-02
  1.7102161e-02
  1.1893992e-02
  2.4623934e-03
 -1.5683388e-02
  2.4615858e-02
 -4.6841986e-03
 -1.7690117e-02
 -1.7164114e-03
 -9.8910485e-04
 -1.3059372e-02
  8.1690829e-03
  3.1695325e-02
 -1.4224230e-02
  4.5556054e-03
 -1.7927386e-02
  3.9189202e-03
 -1.7299313e-02
 -2.6428252e-02
  2.0233232e-03
  9.4603477e-03
  6.9830124e-03
 -5.9373979e-02
  4.2253078e-04
 -4.2622052e-03
 -1.2972822e-02
 -1.2638565e+00
 -1.6301194e-01
 -2.7000217e+00
  4.5272592e-02
 -4.1405298e-02
 -1.8182255e+00
 -4.4661647e-01
  3.5467010e-02
 -1.7470680e-01
 -1.1943069e-03
  1.0300701e-02
  1.3268200e-02
 -7.2599667e-01
 -7.0766127e-01
  1.0480398e+00
  4.8425412e-04
  1.9464113e-01
 -2.9839734e-03
 -1.4439931e-03
 -6.0023628e-02
 -8.3291926e-04
  2.0101104e+00
  3.1730214e-01
 -2.7412532e-02
  2.7042216e-02
 -4.9510569e-04
 -3.6876765e-03
 -6.3521776e-04
  2.1034896e+00
  2.0846093e-02
 -1.6828060e-01
  1.5113772e-03
 -2.1279878e-03
  5.3313766e+00
 -1.2043556e-02
  6.8581738e-03
 -2.4529740e-03
 -1.5882103e-02
  9.1207149e-03
  1.4436554e-02
 -7.9430817e-03
  6.4774365e-03
 -4.3704194e-01
 -4.7875773e-02
  6.6811472e-01
 -3.1407276e-04
  6.0945740e-03
 -5.3724875e-03
  8.2534654e-03
 -7.4435502e-01
 -1.1544255e-01
  3.8010737e-01
 -5.8815825e-01
  2.0102124e+00
  2.9667578e+00
 -1.2015018e+00
  7.4588032e-03
 -3.7895939e-01
 -1.1785854e+00
 -9.0362448e-03
  1.0731391e-03
 -9.2456229e-02
 -8.0809242e-01
 -3.3642268e-03
 -6.8184114e-03
  3.8337626e-03
 -9.4965259e-03
  2.6501616e-02
 -6.3913755e-02
 -4.1561803e-01
 -7.6952032e-03
  7.5150477e-03
 -1.1990463e-03
 -1.2596749e-03
 -2.7538642e-02
 -6.0830633e-03
 -2.1996358e-03
 -1.5481619e+00
  4.5000031e-03
 -1.1130884e-01
  8.1268549e-03
 -2.8523279e-02
 -9.7835800e-03
 -1.4762619e-02
 -3.0063011e-03
  4.3172477e-04
 -1.3826845e-02
 -6.3238707e-03
  2.3811527e-03
  1.0959882e-03
 -1.9795811e-04
 -5.7483143e-03
  2.4598412e-02
 -7.2223400e-03
 -4.9136812e-03
 -3.1316645e-02
 -1.2297200e-02
 -1.6443012e-02
  1.0804595e+00
  3.9212343e-01
  1.3535317e+00
 -9.3345344e-02
  5.4852486e+00
 -7.4039429e-01
  3.3188236e+00
 -9.1408424e-02
 -1.2605419e+00
 -7.9962039e-01
 -7.0658290e-01
 -4.1477201e-03
  1.7790840e+00
 -1.1845688e+00
  5.8988359e-02
 -1.2316891e+00
 -1.1295036e+00
 -5.9964381e-02
  3.5240033e-01
 -6.7929298e-01
 -4.5893326e-01
 -2.1976352e+00
 -5.5097699e-01
  2.0417521e+00
  2.4449984e-03
  1.2203339e-03
 -7.4945569e-02
 -5.8469158e-03
  6.7028619e-02
 -1.9882196e+00
  2.0185874e+00
  6.7801023e-01
 -3.7981309e-02
 -6.2568521e-01
 -1.0211053e-01
  1.7503381e-02
 -6.4825076e-03
  7.5150002e-03
  1.6928429e-02
 -1.7497984e-03
  2.4327006e-04
 -8.8623762e-02
  4.2475346e-03
 -1.1274192e-02
  3.6320761e-03
  9.6179983e-03
 -2.0766735e-02
 -1.5236977e-02
 -2.5944306e-02
 -4.7687896e-05
 -4.7081923e-03
  5.4488936e-03
 -1.0715111e-03
  2.3705281e-02
  1.5360242e-01
 -2.5290975e-03
  7.5313335e-05
  2.0251037e-03
 -3.2010209e-02
  2.3187804e-03
 -4.8566047e-02
 -1.5508926e-02
  4.2223879e-03
 -1.6633792e-02
 -9.1047157e-03
 -1.3110289e-02
  2.9471349e-03
 -1.4218066e-03
  1.9528795e-03
  1.9468056e-02
  1.0536424e-02
 -2.0132123e-03
  6.2702801e-03
  1.1351489e-02
 -1.8383017e-02
 -9.3791279e-04
  7.3762084e-03
  1.1467761e-02
  1.2381557e-01
  1.7148793e-03
 -1.5436516e-02
 -9.7427191e-03
  3.3871634e-03
  6.9259934e-04
 -1.1945880e-02
 -1.1642757e-02
 -9.6846698e-03
  2.7265947e-02
 -4.7895960e-03
  2.7376251e+00
  6.3809892e-03
 -6.4325152e-04
  8.6169345e-03
 -1.8419700e-02
 -1.7993428e-02
  5.1882042e-04
 -1.3138168e-02
  1.3208424e-02
 -1.3730822e+00
  6.6026966e-03
  2.2737746e-01
 -4.3873589e-02
  1.0634888e+00
  2.8097608e+00
 -2.0833051e+00
  1.9693600e-02
 -1.0862251e-01
 -5.0003799e-03
  1.1790596e-03
 -1.9253071e-02
 -2.4624341e+00
 -2.1569982e-01
  1.5474731e-03
  2.5174103e+00
  4.8055570e-03
  9.9911727e-03
 -2.4385571e-03
  1.4459779e-03
 -3.8823381e-02
  3.2509333e-03
  4.6542533e-02
 -3.7115365e-02
 -5.1303953e-02
 -3.9547468e-03
  5.3372788e-03
 -1.0919415e-03
 -4.5668267e-02
 -4.8848358e-03
  5.0864257e-03
 -2.9422767e-02
 -2.1620994e-02
 -3.1898299e-04
 -3.9181719e-03
  7.9647284e-03
 -6.4983673e-02
  1.2566427e-02
  1.2601336e-02
  7.7255052e-03
  4.0381658e-04
  4.9934355e-03
 -3.0198426e-03
 -7.0381365e-03
 -2.6896438e-02
  1.4690756e-02
 -1.8561535e-02
  7.7758864e-03
 -1.5001850e+00
  2.0100930e+00
 -7.8286818e-04
  1.5928619e-02
 -2.0606425e+00
  2.4042392e-01
 -2.4576745e+00
 -2.5531769e-01
 -1.7477849e-02
 -4.6231891e-03
 -9.7753881e-03
 -2.0989946e-03
  3.4198433e-03
 -8.9194989e-03
 -8.1566740e-03
 -9.7782002e-04
  1.8529443e-02
  1.1553807e-02
  1.5770859e-03
 -2.6622232e-02
  1.0818907e-02
  5.3880466e-03
  1.6031075e-02
 -8.2625356e-03
  1.0354344e-03
  1.7888080e-02
  6.0964888e-03
 -7.1167690e-03
  4.5988937e-03
  5.9633385e-03
 -1.8788476e-02
  2.8509943e-02
  1.3593838e-03
  2.1619527e-03
  5.1596100e-03
  1.0593481e-02
 -1.3079939e-02
  7.7213906e-03
 -5.4883410e-04
  2.0071228e-04
 -1.3080987e-03
 -5.7055615e-03
  1.7508013e-02
 -1.4552996e-02
  4.1703388e-02
  7.8564550e-04
 -4.3511405e-03
  1.3935376e-03
 -2.6568258e-02
  8.8159535e-03
 -1.0346458e+00
  2.8977509e+00
  1.4376096e+00
 -6.5614843e-01
  1.9760327e+00
 -1.8758268e+00
  1.2397985e+00
 -3.0726673e-02
 -2.9091496e-02
 -3.4799897e-03
  3.5288783e-03
  7.4903411e-03
  2.6492560e-01
  3.3054176e-01
  4.0946048e-01
  6.4831511e-03
 -3.7057904e-04
 -1.6554624e-02
 -2.8303075e-03
  8.6069461e-03
 -3.7046379e-01
  4.6875542e-03
 -1.7141189e-02
  1.1285057e-02
 -8.1979446e-02
  5.4013128e-03
 -4.2735832e-03
  4.1841727e-02
  1.7135907e+00
  1.7065384e-03
 -1.6931579e-03
  9.0810820e-04
  4.0020160e-02
  3.1778034e-02
  2.2416210e-02
  3.0929193e-02
  1.8116539e-02
  5.4280269e-03
  8.7531507e-03
  6.3910796e-03
 -3.7381644e+00
 -2.4722798e-03
  1.4490330e-02
  1.9533676e-03
 -1.9038836e-02
 -1.2814833e-02
  1.3872940e-03
  7.8961421e-03
 -1.4882239e-04
 -2.4677439e+00
 -1.6990492e+00
  3.6058593e+00
 -1.8996157e-01
 -1.5403845e+00
  1.3925985e-01
 -1.8181616e+00
  1.8364364e-02
 -2.6155399e-02
  9.3628438e-03
  9.6017855e-01
  1.6500952e-02
 -1.0755534e-01
  8.8994347e-02
 -8.2006052e-02
 -2.3488859e-02
 -2.8255329e+00
 -1.4860679e-02
 -1.3048956e-01
  1.2718432e-01
  2.3434440e-02
  2.0642993e+00
  3.5017792e-02
  1.2279308e-01
 -6.9166548e-03
 -3.9648693e-02
 -5.9262719e-03
 -5.5024243e-04
 -4.6818562e+00
 -3.3217527e-03
 -4.8710334e-01
 -1.1632864e-01
 -6.1030261e-02
 -2.3957191e-02
 -1.9136801e-02
 -1.7271208e-02
 -3.4901496e-02
 -9.7574769e-03
  9.2637129e-03
  5.1907329e-03
 -1.1764305e-02
  1.5776973e-03
 -1.2512264e-03
  5.7272691e-01
  3.3360131e-03
  5.3813099e-03
 -2.1142217e-03
  6.9830199e-03
 -9.7173377e-04
  3.8416460e-01
  1.6978066e-02
  1.4267518e-02
 -1.5012613e-01
  1.5783498e-02
 -5.9823232e+00
  2.1819549e+00
  1.8000709e-03
  6.2415805e-03
  9.4260735e-04
 -1.5054362e-02
  2.7004813e-03
  1.4433408e-02
  1.6585472e-03
  7.0998343e-03
  4.6144050e-04
  1.8426461e-02
  1.5838897e-02
 -4.9311970e-03
  4.2928744e-02
 -5.4249130e-03
 -1.4501148e-02
  2.3124840e-02
 -3.8342832e-03
  2.4917481e-02
 -1.3345466e-02
  1.9844802e-02
  2.5053991e-02
  5.9650579e-06
 -1.0357789e-02
 -1.4159475e-02
  3.3607862e-03
 -6.7221192e-03
  1.8444704e-01
 -2.8523356e-03
 -7.2321175e-03
  1.8905388e-02
  3.7859257e-03
  8.2929144e-03
 -1.3945181e+00
  4.0518362e-03
  6.0909237e-03
 -4.0855990e-03
  2.4716817e-02
  4.3276581e-03
 -2.3618937e-02
 -4.6651889e-04
  1.1818303e-03
 -6.8785613e-03
  4.8242290e-02
  6.4643659e-03
  2.4797752e-02
  1.8630100e-02
  8.5386597e-03
  1.0979393e+00
 -5.2886420e-01
 -9.2528546e-03
  5.8856173e-03
 -2.8282185e-03
 -1.2167883e-03
  1.9736839e-02
  1.6681323e-02
  6.2081041e-03
 -2.0706564e-02
  8.1405109e-03
 -1.5163479e-02
 -5.0895507e-03
 -1.7820178e-03
  1.4617229e-03
  7.0695899e-02
  3.4927246e-03
  1.3940891e-02
 -2.7175338e-03
 -8.3628595e-03
 -1.3081898e-02
 -1.5970884e-02
 -6.8789287e-03
 -5.8583557e-03
  2.7202499e+00
  6.3118506e-03
 -6.7770341e-03
  4.7249952e-03
 -4.1555916e-03
 -3.8244762e-03
  1.3176979e-05
 -1.3847574e-02
  2.6707358e-03
  2.1499344e-03
  2.0984826e-03
  6.4210934e-03
  7.9298799e-04
  4.0235262e-02
 -1.0186449e-03
 -1.1076202e-03
  2.5837941e-03
 -8.2115708e-03
  1.4167069e-02
  2.9129419e-02
 -3.3096686e-01
  1.6816296e-02
  8.2877921e-03
 -5.5677355e-03
  3.9219349e-03
  1.1805358e+00
  6.4071649e-01
 -2.0308894e-04
 -1.9766493e-03
  1.9384439e-03
 -3.8995093e-03
 -2.3223298e-02
  2.0289069e-02
  1.0884844e-02
  4.4715852e-03
  4.0100785e-03
  5.1125973e-03
 -2.5373712e-02
 -6.4405273e-03
  3.1816524e-03
  2.3759839e-03
 -2.4428315e-02
 -1.2275816e-02
 -5.6692436e-03
 -2.7707696e-02
  9.2377150e-03
 -1.7838152e-02
  2.9621662e-03
  3.4725058e-03
  1.0240021e-02
  1.3483174e-02
 -6.4051691e-03
  5.8970619e-03
 -6.5926681e-03
 -3.0354613e-03
  1.4344939e-02
 -3.4775536e-03
  1.5792839e-02
  3.5340390e-03
 -1.3971549e-02
  1.1609407e-03
 -1.6816317e-03
 -1.9860479e-04
  1.8537475e-02
  1.0499105e-02
 -5.0499230e-03
 -1.5261903e-03
 -1.1608062e-02
 -2.3741836e-03
 -5.0896492e+00
 -7.9560027e-02
 -1.9819015e-03
  6.4703268e-01
  8.4615111e-02
  3.3571129e+00
  4.5303898e+00
  8.1192357e-03
  6.2755221e-03
 -9.8412912e-03
 -8.2341038e-02
  3.1831281e-03
  3.2641490e-03
  2.7788174e+00
  4.9215509e-03
  1.0767328e-02
 -9.9020940e-04
 -1.0770938e-02
  1.0751069e-02
  9.7395040e-02
  3.6495328e-02
  1.8552295e-03
 -1.1500559e-02
 -3.9978069e-01
 -4.4376604e-02
 -2.2887527e-03
 -1.1944650e-02
 -7.5888806e-03
  2.5928181e-01
  1.9647110e-02
  6.1882749e-02
  2.6260348e-02
 -9.7771594e-03
 -1.0891672e-02
  6.5111084e-04
  4.3035294e-03
 -9.1978079e-03
  2.8818066e-04
  5.9002358e-03
 -5.4912484e-01
  1.8123133e-03
 -1.7808386e-03
  2.5905923e-03
  1.1335445e-02
 -5.3320900e-03
 -6.7026559e-03
 -1.9947559e-02
  7.2893160e-03
 -4.3350983e-02
 -1.3629240e+00
  3.7809033e+00
 -1.6948884e+00
 -2.8652709e+00
  1.2907225e+00
 -2.0510573e+00
  5.1861606e+00
  8.5446436e-04
  2.2890497e-02
 -8.3458135e-03
  2.7011165e-03
  2.0058289e-02
  5.8313567e-02
  7.0175163e-02
  1.2684841e+00
 -2.4435234e-03
  7.7624485e-02
  1.1112843e-02
  2.8995425e-03
  8.3265593e-03
 -1.7344641e-02
 -6.6282898e-02
  1.6729038e-03
  1.4523443e-02
  8.6496845e-03
 -5.9004831e-03
  9.6957921e-04
 -3.3428161e-03
 -6.5666571e-02
  3.3602878e-02
 -9.2692226e-02
  1.9292508e-03
  1.2498741e-02
  7.0069726e-03
  1.6777528e-02
 -6.3617080e-03
 -1.4071245e-02
  4.8960098e-03
 -1.0713018e-02
  8.4845144e-03
 -2.4137998e-02
 -1.0885686e-03
  6.9059860e-03
 -8.8491421e-03
 -6.4224303e-03
 -1.0157975e-03
  3.8323281e-04
  1.2089607e-02
 -4.5213875e-01
 -2.2291095e+00
 -9.1970846e-04
  1.0453075e-01
 -2.3365495e-01
  1.4914187e+00
 -5.8778954e-01
  2.6207650e+00
 -2.7979249e-02
  1.5308657e+00
 -1.2330329e-02
  5.1419614e-03
 -4.8870197e-03
 -4.9928340e-01
 -8.6680013e-01
  4.1481559e-03
  1.0454447e-01
 -1.7402684e-03
 -9.5288688e-03
 -4.0908922e-02
 -6.6437766e-02
 -4.8882350e-01
  1.3909106e-02
 -2.6005946e-04
  5.2700057e-03
  1.1184485e-02
  6.1280676e-03
  2.0801015e-02
  1.3295123e-02
 -6.9688067e-02
 -2.5509533e-03
 -1.0218934e-01
 -1.0848015e-02
 -1.7323801e-02
  5.9627816e-03
  2.4583966e-02
 -7.4533641e-02
  2.6221308e-03
  1.2646317e-02
 -2.1225022e-02
  1.4698227e-03
 -1.1893628e-02
 -2.2761118e-04
 -1.3967255e-03
 -7.7587939e-03
  5.1863287e-03
  5.2407286e-03
 -2.5331669e-03
 -3.0585663e-02
 -4.5270021e-03
  1.0542508e+00
 -5.4292697e-03
 -1.6639130e-03
  1.1998771e-03
  1.4208898e-02
  2.2954326e+00
  2.5677231e-01
  1.7751401e-03
  4.1382099e-03
  2.4757560e-03
  1.2682916e-02
  5.9565147e-03
 -1.5097030e-02
  9.7696342e-02
  2.6653332e-03
 -2.9051473e-04
  4.9879155e-03
 -2.5171794e-02
 -1.6829940e-03
  5.3373193e-03
  9.6972554e-04
  3.5910849e-03
  3.0425449e-03
  2.3080360e-02
  2.7085958e-02
 -1.5747312e-02
  5.9792120e-03
 -2.5890697e-02
 -1.6912041e-03
 -6.3433298e-03
  1.0101613e-02
 -1.8373966e-02
 -3.1265004e-03
  2.6922836e-03
 -1.2243525e-02
  3.0352257e-02
 -2.0127844e-03
 -4.6641896e-03
 -1.7851941e-02
 -1.3548674e-02
  6.4837635e-03
  4.3000677e-03
 -1.2744917e-02
 -2.4187334e-02
 -3.4674788e-01
 -1.0977796e-02
  2.6540531e-02
  1.7782383e-02
  1.1103663e-02
  1.1888942e-02
  3.8230911e-02
  1.7556135e-02
  8.3402812e-01
  1.0260718e-01
 -3.8843176e+00
  1.3648039e-01
  2.8699121e-01
  8.7673953e-03
  3.0447651e-02
  5.3487793e-03
 -2.0082671e-02
  9.2489989e-03
  3.6995502e-03
 -4.6262918e-03
 -5.9194802e-03
  2.9610596e-03
  7.6050549e-03
 -7.8801950e-03
  1.0070199e-03
 -3.5643715e-03
  1.3379050e-02
 -3.3939224e-02
 -1.6918613e-02
  6.4359284e-03
 -1.0130165e-02
 -4.6620192e-03
  7.3453406e-04
  1.4043729e-02
  2.0602094e-02
  2.9018937e-02
 -5.8393232e-03
 -4.7055869e-03
 -5.2279979e-03
  9.9931350e-03
  1.0012780e-02
 -3.5442528e-03
  1.7034039e-02
 -9.0035219e-03
  3.3830344e-03
  5.0848275e-03
 -1.0643640e-02
 -3.3556499e-02
  5.7138600e-03
 -4.5236818e-02
  1.6958853e-02
 -1.1378000e-02
  1.7010344e-02
  1.3399057e-02
 -5.1162700e-05
 -2.5895499e-03
  5.4121423e-03
 -9.2444839e-03
  7.9323427e-04
 -4.3565344e-02
  2.0852558e-01
 -2.0027762e-02
 -4.3168163e-04
  2.4661794e-03
  4.7467756e-03
 -1.5224234e-02
 -1.4033215e-03
 -1.3612005e-02
 -7.7351504e-03
  6.2010931e-03
 -4.5246230e-03
 -5.1651234e-05
 -1.0087281e-02
  4.6286671e-03
  1.1368294e-03
  1.2549869e+00
 -3.1356697e-03
  6.9662857e-01
  3.8894851e-02
 -3.1596959e-02
 -2.1998214e-02
  6.0824485e-04
  3.5127863e-02
  6.3349854e-04
  5.5971588e-03
 -8.6754402e-03
  1.3642731e-03
  1.7400976e-02
  6.6847294e-03
 -4.6983906e-03
  5.5545415e-03
  7.4550542e-03
 -1.3657119e-03
 -2.0670153e-02
  1.5617380e+00
 -1.2089211e-02
  1.6718980e-02
 -7.3214723e-03
  7.4455224e-04
  4.0038168e-02
  9.8437257e-03
  1.6162457e-03
  1.3624747e-02
  1.9163808e+00
 -4.6838030e-01
  3.7800920e-01
 -2.2000172e+00
 -1.1362935e-01
 -2.6724449e-01
 -4.2531523e-01
 -5.0085681e-03
  1.4915272e-04
 -2.2134951e-03
 -6.2128808e-04
  2.2369747e-03
 -2.2469418e-01
  1.7225043e+00
  6.2112990e-03
  2.4346926e-03
  8.2033677e-03
  2.0481361e-02
 -9.1567719e-03
 -4.3457281e-03
 -1.0095679e+00
  1.7104836e+00
  1.6999140e-02
  9.3627059e-01
  1.9070005e-02
 -1.4862390e-03
 -2.5890408e-02
  4.8908293e-03
  2.8215923e+00
 -6.9249148e-04
 -3.5784174e-02
 -4.3544392e-03
 -1.2364879e-02
 -9.0538142e-03
 -1.0069764e-02
 -2.2763500e-03
  3.8354574e-03
 -3.1778845e-03
  8.5407294e-02
 -2.7696621e-01
  7.4238908e-03
 -1.1892591e-02
  1.1423578e-02
  8.3240410e-03
 -5.4018977e-03
  7.8529399e-03
  2.1775221e-02
  1.4967034e-02
  3.2847241e-02
 -2.3743261e-01
  6.6804057e-01
  8.2711685e-01
  3.2311032e+00
 -1.1888874e+00
  1.3674136e+00
 -1.0691375e+00
  3.1646088e-02
  4.8688179e-01
 -1.0599736e+00
 -1.1510673e+00
  3.0643551e+00
 -5.1515943e-01
  5.9930485e-01
  1.3414663e+00
  1.9454877e-01
  2.8965855e-01
 -1.0779570e+00
  1.6621498e+00
  9.8822993e-01
  3.7480457e+00
  4.3806180e-01
  1.8479125e+00
  7.6954687e-01
  3.6076057e+00
 -4.1727313e-01
 -3.2114217e-01
  1.7623953e+00
 -1.4067498e+00
  9.7807425e-01
 -2.8427249e-01
  5.6622022e-01
 -5.6317121e-01
 -2.0161811e-01
 -5.5093180e-02
 -8.3353621e-01
 -2.2754550e-01
 -3.1237838e-01
  1.5558940e-01
  1.6322315e-01
  1.8781073e-01
 -2.3227113e-01
  1.0652821e+00
  8.1306833e-01
 -7.2177815e-01
  1.3979052e-02
  3.2497486e-01
 -1.7600416e-01
 -2.7092361e-01
  1.4102571e+00
 -7.3719040e-02
  1.0014772e-01
 -9.5863247e-01
 -1.4692998e-01
 -3.5137701e-01
  5.4767561e-01
  7.2030276e-02
 -5.0321270e-02
 -1.4061576e-01
  5.4704988e-01
 -8.2671511e-01
 -4.6622696e+00
 -2.0386322e+00
 -1.8763012e+00
 -2.0673122e+00
  2.4311352e+00
  2.3365645e+00
 -3.0784323e+00
 -1.9269934e-01
 -1.6190196e+00
  3.4601760e+00
  1.1641361e+00
  3.7882900e+00
 -3.1951880e+00
  2.0049975e+00
 -1.9889541e+00
 -9.7050774e-01
  1.3278639e+00
  1.5325993e+00
 -2.2199819e+00
  1.4333899e+00
  7.6163745e-01
  1.2807013e+00
  8.8029224e-01
  1.1617978e+00
 -4.9083185e-01
  1.3727951e+00
  8.6854301e-02
 -4.5715237e-01
 -3.8896576e-01
 -1.3195604e+00
  3.0342398e+00
 -2.1315828e-01
  9.2978233e-01
 -1.7788865e-01
  1.8416648e+00
  4.2946848e-01
  6.8880826e-01
  1.0438364e+00
  6.1728591e-01
 -1.4944872e-02
 -4.6062496e-01
  1.2249327e+00
 -2.4723809e+00
 -1.2582937e+00
 -1.1489383e+00
 -1.0785623e+00
 -3.3108907e+00
  1.1874853e+00
 -1.3483319e+00
 -1.1872725e+00
  5.1938958e+00
 -2.6977556e+00
 -4.6443925e+00
  1.8708113e+00
  4.5400224e+00
  5.7181683e+00
  2.2704093e+00
  5.2446084e+00
 -4.3947868e+00
  1.7596812e+00
 -1.0326533e+00
  2.5584369e+00
  3.0724764e-01
  2.3327320e+00
 -2.3053172e+00
 -1.9470015e+00
 -9.2614341e-01
 -3.3037564e-01
  1.4802037e+00
 -2.4707444e+00
  6.9723892e-01
 -2.0626204e+00
 -2.4280107e+00
 -3.4248354e+00
  2.2462096e+00
  1.0105239e+00
  4.0877199e+00
 -5.4170072e-01
 -2.5235212e+00
 -2.2086773e+00
  7.4816340e-01
 -2.7017856e+00
 -1.4406493e-01
 -8.9368790e-01
  8.4493987e-02
 -1.7448487e+00
 -2.6078074e+00
 -6.3005346e-01
 -5.8438116e-01
 -1.0852704e+00
  2.2611084e+00
 -9.5042682e-01
  1.5968635e+00
 -4.2445390e-03
  1.0642980e+00
 -1.9312220e+00
  2.1100190e+00
  3.3848011e-01
  2.7333245e+00
 -2.2625685e+00
  4.0237927e+00
  2.9402784e-01
  1.2072822e+00
 -1.1382877e+00
  3.8662544e-01
 -1.9398233e+00
 -1.4861162e-02
  3.1094608e-01
 -7.7070081e-01
 -4.1644296e-01
 -3.4714170e+00
 -4.4642615e-01
 -1.4719996e+00
 -4.1475454e-01
 -6.2930679e-01
  1.7830617e+00
  1.3075851e+00
 -2.3681824e-01
 -4.6673574e+00
 -7.8013159e-02
  1.5330218e+00
 -2.4367663e-01
